{"costFunction":"CrossEntropy","layers":[{"bias":[[0.0],[0.0],[0.0],[0.0],[0.0],[0.0],[0.0],[0.0],[0.0],[0.0],[0.0],[0.0],[0.0],[0.0],[0.0],[0.0],[0.0],[0.0],[0.0],[0.0],[0.0],[0.0],[0.0],[0.0],[0.0],[0.0],[0.0],[0.0],[0.0],[0.0],[0.0],[0.0],[0.0],[0.0],[0.0],[0.0],[0.0],[0.0],[0.0],[0.0],[0.0],[0.0],[0.0],[0.0],[0.0],[0.0],[0.0],[0.0],[0.0],[0.0],[0.0],[0.0],[0.0],[0.0],[0.0],[0.0],[0.0],[0.0],[0.0],[0.0],[0.0],[0.0],[0.0],[0.0],[0.0],[0.0],[0.0],[0.0],[0.0],[0.0],[0.0],[0.0],[0.0],[0.0],[0.0],[0.0],[0.0],[0.0],[0.0],[0.0],[0.0],[0.0],[0.0],[0.0],[0.0],[0.0],[0.0],[0.0],[0.0],[0.0],[0.0],[0.0],[0.0],[0.0],[0.0],[0.0],[0.0],[0.0],[0.0],[0.0],[0.0],[0.0],[0.0],[0.0],[0.0],[0.0],[0.0],[0.0],[0.0],[0.0],[0.0],[0.0],[0.0],[0.0],[0.0],[0.0],[0.0],[0.0],[0.0],[0.0],[0.0],[0.0],[0.0],[0.0],[0.0],[0.0],[0.0],[0.0],[0.0],[0.0],[0.0],[0.0],[0.0],[0.0],[0.0],[0.0],[0.0],[0.0],[0.0],[0.0],[0.0],[0.0],[0.0],[0.0],[0.0],[0.0],[0.0],[0.0],[0.0],[0.0],[0.0],[0.0],[0.0],[0.0],[0.0],[0.0],[0.0],[0.0],[0.0],[0.0],[0.0],[0.0],[0.0],[0.0],[0.0],[0.0],[0.0],[0.0],[0.0],[0.0],[0.0],[0.0],[0.0],[0.0],[0.0],[0.0],[0.0],[0.0],[0.0],[0.0],[0.0],[0.0],[0.0],[0.0],[0.0],[0.0],[0.0],[0.0],[0.0],[0.0],[0.0],[0.0],[0.0],[0.0],[0.0],[0.0],[0.0],[0.0],[0.0],[0.0],[0.0],[0.0],[0.0],[0.0],[0.0],[0.0],[0.0],[0.0],[0.0],[0.0],[0.0],[0.0],[0.0],[0.0],[0.0],[0.0],[0.0],[0.0],[0.0],[0.0],[0.0],[0.0],[0.0],[0.0],[0.0],[0.0],[0.0],[0.0],[0.0],[0.0],[0.0],[0.0],[0.0],[0.0],[0.0],[0.0],[0.0],[0.0],[0.0],[0.0],[0.0],[0.0],[0.0],[0.0],[0.0],[0.0],[0.0],[0.0],[0.0],[0.0],[0.0],[0.0],[0.0],[0.0],[0.0],[0.0],[0.0],[0.0],[0.0],[0.0],[0.0],[0.0],[0.0],[0.0],[0.0],[0.0],[0.0],[0.0],[0.0],[0.0],[0.0],[0.0],[0.0],[0.0],[0.0],[0.0],[0.0],[0.0],[0.0],[0.0],[0.0],[0.0],[0.0],[0.0],[0.0],[0.0],[0.0],[0.0],[0.0],[0.0],[0.0],[0.0],[0.0],[0.0],[0.0],[0.0],[0.0],[0.0],[0.0],[0.0],[0.0],[0.0],[0.0],[0.0],[0.0],[0.0],[0.0],[0.0],[0.0],[0.0],[0.0],[0.0],[0.0],[0.0],[0.0],[0.0],[0.0],[0.0],[0.0],[0.0],[0.0],[0.0],[0.0],[0.0],[0.0],[0.0],[0.0],[0.0],[0.0],[0.0],[0.0],[0.0],[0.0],[0.0],[0.0],[0.0],[0.0],[0.0],[0.0],[0.0],[0.0],[0.0],[0.0],[0.0],[0.0],[0.0],[0.0],[0.0],[0.0],[0.0],[0.0],[0.0],[0.0],[0.0],[0.0],[0.0],[0.0],[0.0],[0.0],[0.0],[0.0],[0.0],[0.0],[0.0],[0.0],[0.0],[0.0],[0.0],[0.0],[0.0],[0.0],[0.0],[0.0],[0.0],[0.0],[0.0],[0.0],[0.0],[0.0],[0.0],[0.0],[0.0],[0.0],[0.0],[0.0],[0.0],[0.0],[0.0],[0.0],[0.0],[0.0],[0.0],[0.0],[0.0],[0.0],[0.0],[0.0],[0.0],[0.0],[0.0],[0.0],[0.0],[0.0],[0.0],[0.0],[0.0],[0.0],[0.0],[0.0],[0.0],[0.0],[0.0],[0.0],[0.0],[0.0],[0.0],[0.0],[0.0],[0.0],[0.0],[0.0],[0.0],[0.0],[0.0],[0.0],[0.0],[0.0],[0.0],[0.0],[0.0],[0.0],[0.0],[0.0],[0.0],[0.0],[0.0],[0.0],[0.0],[0.0],[0.0],[0.0],[0.0],[0.0],[0.0],[0.0],[0.0],[0.0],[0.0],[0.0],[0.0],[0.0],[0.0],[0.0],[0.0],[0.0],[0.0],[0.0],[0.0],[0.0],[0.0],[0.0],[0.0],[0.0],[0.0],[0.0],[0.0],[0.0],[0.0],[0.0],[0.0],[0.0],[0.0],[0.0],[0.0],[0.0],[0.0],[0.0],[0.0],[0.0],[0.0],[0.0],[0.0],[0.0],[0.0],[0.0],[0.0],[0.0],[0.0],[0.0],[0.0],[0.0],[0.0],[0.0],[0.0],[0.0],[0.0],[0.0],[0.0],[0.0],[0.0],[0.0],[0.0],[0.0],[0.0],[0.0],[0.0],[0.0],[0.0],[0.0],[0.0],[0.0],[0.0],[0.0],[0.0],[0.0],[0.0],[0.0],[0.0],[0.0],[0.0],[0.0],[0.0],[0.0],[0.0],[0.0],[0.0],[0.0],[0.0],[0.0],[0.0],[0.0],[0.0],[0.0],[0.0],[0.0],[0.0],[0.0],[0.0],[0.0],[0.0],[0.0],[0.0],[0.0],[0.0],[0.0],[0.0],[0.0],[0.0],[0.0],[0.0],[0.0],[0.0],[0.0],[0.0],[0.0],[0.0],[0.0],[0.0],[0.0],[0.0],[0.0],[0.0],[0.0],[0.0],[0.0],[0.0],[0.0],[0.0],[0.0],[0.0],[0.0],[0.0],[0.0],[0.0],[0.0],[0.0],[0.0],[0.0],[0.0],[0.0],[0.0],[0.0],[0.0],[0.0],[0.0],[0.0],[0.0],[0.0],[0.0],[0.0],[0.0],[0.0],[0.0],[0.0],[0.0],[0.0],[0.0],[0.0],[0.0],[0.0],[0.0],[0.0],[0.0],[0.0],[0.0],[0.0],[0.0],[0.0],[0.0],[0.0],[0.0],[0.0],[0.0],[0.0],[0.0],[0.0],[0.0],[0.0],[0.0],[0.0],[0.0],[0.0],[0.0],[0.0],[0.0],[0.0],[0.0],[0.0],[0.0],[0.0],[0.0],[0.0],[0.0],[0.0],[0.0],[0.0],[0.0],[0.0],[0.0],[0.0],[0.0],[0.0],[0.0],[0.0],[0.0],[0.0],[0.0],[0.0],[0.0],[0.0],[0.0],[0.0],[0.0],[0.0],[0.0],[0.0],[0.0],[0.0],[0.0],[0.0],[0.0],[0.0],[0.0],[0.0],[0.0],[0.0],[0.0],[0.0],[0.0],[0.0],[0.0],[0.0],[0.0],[0.0],[0.0],[0.0],[0.0],[0.0],[0.0],[0.0],[0.0],[0.0],[0.0],[0.0],[0.0],[0.0],[0.0],[0.0],[0.0],[0.0],[0.0],[0.0],[0.0],[0.0],[0.0],[0.0],[0.0],[0.0],[0.0],[0.0],[0.0],[0.0],[0.0],[0.0],[0.0],[0.0],[0.0],[0.0],[0.0],[0.0],[0.0],[0.0],[0.0],[0.0],[0.0],[0.0],[0.0],[0.0],[0.0],[0.0],[0.0],[0.0],[0.0],[0.0],[0.0],[0.0],[0.0],[0.0],[0.0],[0.0],[0.0],[0.0],[0.0],[0.0],[0.0],[0.0],[0.0],[0.0],[0.0],[0.0],[0.0],[0.0],[0.0],[0.0],[0.0],[0.0],[0.0],[0.0],[0.0],[0.0],[0.0],[0.0],[0.0],[0.0],[0.0],[0.0],[0.0],[0.0],[0.0],[0.0],[0.0],[0.0],[0.0],[0.0],[0.0],[0.0],[0.0],[0.0],[0.0],[0.0],[0.0],[0.0],[0.0],[0.0],[0.0],[0.0],[0.0],[0.0],[0.0],[0.0],[0.0],[0.0],[0.0],[0.0]],"activation":"Identity"},{"weights":[[-0.07431762588868918,-0.36612583032441404,-0.7214052354709437,-0.5572216436463364,-0.2835495976987883,-0.5586918281167244,-0.1944492640251695,-0.44678141604302524,-0.23151846487525954,-0.552659414133303,-0.4250613711384975,-0.6421500958030231,-0.08105407452414398,-0.8209286352626429,-0.16500957220767087,-0.6621158161086321,-0.0025520501297525144,-0.024749445980786322,-0.16525296130234232,-0.5311965997408352,-0.756744252050713,0.1060259426802071,-0.5205381839645521,-0.026348507435745072,-0.49392113277085903,-0.7515784709581343,-0.590980338058704,0.06326661998076749,-0.256649771083585,-0.4540792441776341,-0.3346688138431037,-0.7553646063260209,-0.6877285795363041,-0.33768476195511454,-0.6226927601289076,-0.8185688637173874,-0.6176295006465784,-0.19854555007813748,-0.4781461283429554,-0.10163329868299659,-0.4860006281891015,-0.694306169854384,-0.6836516440796134,-0.5667515945425909,-0.3399373463603432,-0.43331131123037137,-0.237733132224259,0.00756066457188681,-0.4976767288400865,0.08271779406675422,-0.2089700575442108,-0.7419578597258675,-0.1701303325066917,0.026946047562624753,-0.33828325718494934,-0.10196769019692098,-0.494242490941929,-0.49905337578559306,-0.32393021627444485,-0.79162685348645,-0.351545695184447,-0.7125963482639599,-0.3408286169226292,-0.6566554349033116,-0.12248260607338393,-0.2647970070354914,-0.49568055343908324,-0.07250784848848563,-0.412073423144909,-0.6409067146376313,-0.002036214647973822,-0.1857249276888959,-0.4753297637273231,-0.5852381553903987,-0.5249128352513674,0.07721881643415007,0.028549205253792842,-0.18148079361609482,-0.6428833901139129,-0.7413122202062892,-0.1342866779531089,-0.6311756663071789,-0.006627528909058655,-0.13942942517066007,-0.7128069110305274,-0.005395571823277268,-0.43690410112009337,-0.5751050547974343,0.04060242526472291,-0.3472606780862347,-0.4515694997069505,-0.12898711596228277,0.07432113136710111,-0.5258236845801576,-0.09085795650347078,-0.5709041249400233,-0.2652454156709537,-0.3850689805851535,-0.772468022066045,-0.5123922406136856,0.009765614026868319,-0.6952960547504459,-0.003171346040348355,-0.14502028623309132,-0.3839516962566362,-0.2980040840228001,-0.3516500973126524,-0.7270444394803253,0.015080031395857674,-0.13951082838736034,-0.14801446639383525,0.11106651424049152,0.07134293117858947,-0.8130714994133525,0.08085165301631825,-0.2817695050952701,0.037736511446518795,-0.8239512661426461,-0.39533017046270474,-0.44109197122195587,0.11654707363548056,-0.5570626909854122,-0.6828984231250064,-0.6328423328156902,-0.700060513146683,-0.4121488428113239,-0.6397315377740089,-0.1373289946228354,-0.45825585511806577,-0.17719267321348048,-0.01513325136739796,-0.6117380479924127,-0.49766726715144305,-0.586813350042573,-0.8235166674038641,-0.4017239538736619,-0.009560733219748374,0.041303647822532985,-0.7615416317337738,0.052252327728750714,-0.7996262437678694,-0.1677157659635769,-0.7018200556585237,-0.05244153994174727,-0.040644594813637636,-0.5545250228401571,-0.6523951189423813,-0.4912058351490401,0.10864054104295795,-0.5697238355029316,0.09692390631940145,-0.30004140285683895,-0.14785253125225403,-142.8471679254389,-261.3305535978701,-261.28021429459983,-112.73154028238991,-0.5792398705060137,-0.556446619812656,-0.2525393531934527,-0.8158991468251259,-0.3342129037571752,-0.23626523016079998,-0.40765105451181055,-0.5390883772438114,-0.8122285945644024,-0.07580306719485647,-0.24552406121802173,-0.12037168988759142,-0.2358676880895199,-0.20832952663612891,0.04641290434822781,-0.722397251946159,-0.1343790901538356,-0.7906275989868818,-0.19279903706553697,-0.11802528814952534,-0.38771234932779935,0.10018440262758771,-0.15953764139425583,-0.527381670451523,-365.01161403301364,-364.122458803841,-363.6597556854375,-274.86239339168316,-121.76278773579882,-0.2356807993278622,-0.3969799379027245,-0.684645700035484,-0.07705157197446644,-0.5591991407546281,-0.3088314697433447,-0.5541794660242365,-0.6993638076134522,-0.5820693038352893,0.10318605071210196,-0.17784380699801644,-0.7585977172460663,-0.07191311993218513,-0.23736882191204103,-0.7248985917910846,-0.6919468034149638,-0.0254968621874605,-0.6728769722899257,0.12103146323120195,0.1091792597318213,0.05183991211284639,5.124571132687314,13.204616071722162,-75.99976628643678,-339.85233712131395,-363.39870543502843,-361.90777145902786,-205.45638863723605,3.619931195052706,7.363056798580889,6.91024930851584,1.384554020236824,-0.7995245354054993,-0.34367587385979614,-0.3762267824662706,-0.4632764715128789,-0.32911549929054634,0.0533871487764952,0.1182317297132181,-0.8143176771602202,-0.2778749908498799,-0.04389362479847547,0.05132933278794566,0.06329205896964935,-0.7667897558238437,-0.5750942791823521,-0.048115219273276666,-0.7410403067821973,-0.6562245653120123,7.511017963750101,13.357104324438229,13.449320710682859,-121.39071107653433,-352.9797671648547,-351.5125606851993,-329.8375161949403,-30.04052190712644,12.91287866254883,13.137215513505842,9.897153438330758,-0.2870205006294103,-0.7832547510016051,-0.2738825446222889,-0.022084687993361163,-0.2591707046608168,-0.0027511053798893736,-0.13874898308609823,-0.6813431744630819,-0.7456633186182747,-0.5643334713879378,-0.709822519760213,-0.23518363768540512,-0.3914069766011049,-0.699539416356062,-0.5741738944794225,0.09107286381471358,5.994659988634595,12.267826642221664,13.608146974728376,13.105564251270184,-210.54020808835003,-350.07371034485203,-349.961185384187,-239.1770740924471,-1.5341821868984422,13.134745567568164,13.461707349427776,9.943606865448471,-0.5747896318341411,0.09434056409286162,0.03080527705793701,-0.6620028205534855,-0.012750880402128129,-0.7445023587058928,-0.04704732600830036,-0.452739790368019,-0.3470499506293533,-0.2119033579993452,-0.05191420827592752,-0.25607082580639967,-0.24457572837944674,0.06080203102023357,2.873478540402705,7.110712288000968,12.943454683580386,13.259534667084013,12.931792422137256,13.119190867878086,-211.60433755224088,-355.6817520298935,-356.0196785204502,-200.38034146592892,13.193267558169152,13.450100692597394,11.663969530322943,4.923993882136154,-0.2471687861052412,-0.16136887789676221,-0.5459839539387967,-0.07571908611709882,-0.8081181955888299,0.04047365478131365,-0.0022278154096938008,-0.3601347870345764,-0.7674743786468384,-0.5860119876737415,-0.059918731405511017,-0.32764446308018336,2.7244176394906354,7.405071090097746,12.94901611190709,13.200063673641308,13.208371072819531,13.575366371997795,8.962552416363717,5.278557303677313,-312.67061699612475,-365.30381110096806,-365.1686278331078,-205.15969465666237,10.896187709374598,13.412102085829279,11.30256341753095,0.7006148123316562,-0.43410255710397294,0.04394171367529742,-0.775417039467636,-0.6051214178111648,-0.40877420106323603,-0.7911940519686673,-0.3716825641935748,-0.6595140724768471,-0.15808997228612337,-0.30517393861532693,-0.6049369445078303,1.3905413959308972,10.11696170152852,-2.5637978184995562,-92.58803989502145,-299.9890468779116,-305.3878761182474,-307.8210348420971,-313.0184819323521,-315.12668274222,-356.97578668452525,-364.1108596681448,-363.6798614296422,-199.30273861257697,13.131260435249091,13.456756517834489,7.993902821572713,-0.04038992342777997,0.03469620532108042,-0.18685861642471946,-0.08880131584365203,-0.1657076253004836,-0.029748232156006582,-0.47546223011902017,-0.2185567025238327,-0.17054955290118343,0.10378207500821007,-0.7452401430780204,-0.7061665250261855,1.6288581181576,-91.8814540329066,-263.0725287091533,-356.55385876465897,-362.48870545955225,-363.6419028659779,-363.78898655556907,-364.1541745834916,-365.7299453040812,-363.4528487403522,-363.8353148675827,-362.2403836246009,-308.11982265915105,-68.84070881997239,-5.557533775695731,2.0848222912965015,-0.5961724272631729,0.1011716254770279,-0.31089544436437455,-0.5783082006846125,-0.04041648444614776,-4.8363926735894847E-4,-0.26077131779866575,-0.7327941367856282,-0.24171480365954764,-0.6717668694747727,0.07853967856713817,-0.8111995167688301,-0.025747023672191394,-311.0272699634652,-361.96445216269416,-364.20707402336876,-363.7626823891943,-364.05504979618746,-363.70881170828363,-363.807128681574,-365.56285985391617,-363.85698288184415,-363.402087261034,-356.56732886810687,-351.56883353999876,-350.5732369246356,-244.82430654542856,-207.73121202835554,-0.7703849949837481,-0.0570778196370339,-0.602775845539894,-0.8106215023927352,0.016795957398299144,-0.648852697493,-0.7359347094382171,-0.658907871972515,0.11365254976474815,-0.646717528511943,-0.1452682771514709,-0.1445693529878472,-0.4061028966509129,-314.6093204561225,-365.06105176774776,-365.33153537145046,-297.6191878028361,-208.13134016037984,-320.8663917419584,-364.90681447405854,-368.24416012637965,-364.840334741202,-364.48938414727263,-356.0396479477511,-354.6573868368469,-354.2463189236748,-364.21181239743004,-365.1691138022268,-276.93797734486407,-113.25826412301019,0.0442651392528946,0.061907962592474164,-0.1674650073030468,0.05275278434960634,-0.7396686411710806,-0.6966513832584968,-0.7499046980567925,-0.34400021455111124,-0.21016119766363323,-0.81470545983425,-135.79304491111483,-356.75375416346196,-363.692112258807,-363.7523801804896,-29.270952728972752,-151.88079307803903,-349.5565672677817,-364.22087150951194,-365.69708810595785,-364.15926084592724,-340.43748887164503,-305.6882386686988,-351.9421189680233,-358.3912982019047,-363.47746070019673,-363.76676551663695,-365.4637824665957,-349.13665325137583,-164.5110269468079,-45.43720589791263,-0.5013618017034491,-0.16779528517374814,-0.04128195268867252,-0.3920271543605736,-0.12593334834559325,-0.4110091005727248,-0.38681147320355624,-0.014560260487584353,-157.98593523374748,-363.86822922712355,-363.53178969595024,-363.6604591542585,-261.27605116611863,-349.09688174946905,-364.1551249282459,-364.19975913384127,-364.9454906522129,-286.7747991335467,-75.88694533478619,-46.294897212879064,-92.10034055087637,-297.9502143472551,-364.1527663963105,-364.0722291432392,-365.0117344009471,-363.5705472778149,-363.69793722750546,-304.5234280097547,-0.4112745833757516,-0.4795455493659111,-0.6151006174298634,-0.7820159847198326,-0.7877393118747464,-0.7716003322673305,-0.8258175508937767,-0.5317021686012164,-275.93114192680633,-363.8987720371483,-363.6265880303311,-364.13257914921337,-363.86999679987025,-363.49168361788406,-363.4400418593813,-364.08826968831085,-276.03034126075056,-104.26285871872099,12.724223318279423,13.110353234848485,5.33840705312487,-44.93341231419785,-155.90787300158127,-273.94295549194055,-365.0406229126633,-363.62594878848137,-363.4225083406089,-243.13785786481432,-0.31592288922044853,-0.7359392439491628,-0.031446942371480324,-0.2570452684097267,0.10560897426998034,-0.7287129223714484,-0.6699332944803902,-0.5468882438511858,-159.42637630581757,-365.57583127270686,-365.39710084175164,-365.74002840521075,-365.2946570752984,-365.22987568678974,-342.38000645836325,-89.34710278969298,6.929462207076065,12.856019563479856,12.99503918624052,4.9347277803213325,-0.28307434185561764,-0.5520533822366309,-0.21014704428071793,-0.764474208913958,-90.81494740625854,-254.38593899050582,-365.35405397422636,-156.39242647310166,-0.1272354992543502,-0.7460558857881601,-0.8044242435675827,0.0394633819858517,-0.713530126225412,-0.15772852203080606,-0.7865303963474911,-0.24242900742167062,-21.85484077491772,-50.56901449005035,-199.63363225273778,-258.60928994326173,-50.960973806904484,-50.61433645585053,-44.03164898451248,3.9801065046360815,11.176411944509983,12.725503418199247,13.215123859329124,0.714240096966441,-0.251517904901022,-0.8029359855344615,-0.5590812510291283,-0.7177645874409514,-0.3312279766260054,-15.091380824325016,-50.539165371539156,-21.859612494175476,-0.1697576383120051,-0.14797202886744612,-0.8213776758346925,-0.7548834561249644,-0.22948731279284673,-0.6383537399943482,-0.36170592269450597,-0.16273300280016553,0.03862528811308813,-0.26270436392951724,-0.027676199829281878,-0.39054464072482353,-0.5380457147454765,-0.26726262327535194,-0.7994685263978805,11.267522998218398,13.229477840890727,12.404693990385134,3.6464121245696743,-0.07516856529096666,0.11987792695934157,-0.6164747292984365,-0.6542769865733007,-0.09955059793191845,-0.8225875502596011,-0.32197742392498674,-0.1345325130653384,-0.6379331748086565,-0.758285186937157,-0.15711396509302086,-0.7307078184409348,-0.7979057419198413,-0.07341453987691687,-0.31016081765836634,-0.34459394637225,-0.14192433138386779,0.0691075215467859,0.08749856313134852,-0.4063296461858662,-0.0824525190088568,-0.11963664957822312,-0.34360238781762287,8.715753530452771,13.135482184238194,13.478253099243005,4.658284568847158,0.371197435415874,-0.6705887328651294,-0.7156042742762574,0.09058448474985537,-0.6751354868512816,-0.061589104320164956,-0.01696555981177128,-0.8079866364181671,-0.7641170069745014,-0.37555689981622287,-0.6135035422619065,0.10328690660669532,-0.28370822636432924,0.10678558309278874,0.027454819896608917,-0.6539645457966801,-0.34470988787039436,-0.19064150110370298,-0.6299415936798165,-0.14611215349740694,-0.5604870987995678,-0.2546333100642484,-0.17668688153639267,4.866537540157757,12.17355894832887,13.337831585678256,11.222803777121246,-0.6237141709129915,-0.6971835676861402,0.08642177552525043,-0.47692219119224644,0.021073798137473343,-0.5104420053802547,-0.5951181216635428,-0.22055460149525435,-0.021547350314996716,-0.573457278157564,-0.5708984044689327,0.07231625406008046,0.018610750323540037,-0.3122799197801155,-0.1519899508919818,-0.26828145653727864,-0.39794099546248407,-0.7666855755500643,-0.6659753144759981,-0.1977037486488978,-0.21125965345789027,-0.1280030138864838,-0.7378109921181208,-0.729819853895977,12.370944974875975,12.643954915170326,12.719474059311882,6.2368214718638155,-0.10903933542841351,0.06836848619199026,-0.5199277379663537,-0.7030589907420672,-0.8172793689707618,-0.2976890964105575,0.09708014217601352,-0.6407087614108592,-0.7900349023780284,-0.6818360080665979,-0.512707008138028,-0.31695203638832453,-0.4184905864479117,-0.7277440658943706,-0.13243948590918056,-0.7975839666639231,0.026189742285508355,0.08458586995576106,-0.23511425043556786,-0.7503257500404305,-0.4049482646167268,-0.3318106712119875,-0.28454160307758436,1.7950571513590377,9.575733949416492,13.323754561761136,9.694733199105201,2.978876066178261,-0.18354270145189913,0.0801944293999769,-0.8192800925321004,-0.09997940391083632,-0.35815167083102295,0.10136536377385763,-0.2627421586513608,-0.8120562030395982,-0.2804802484223936,-0.03073091055509919,-0.7128334471701918,-0.06329883588046586,0.08489046554927304,-0.6965320638722616,-0.10664418161947356,-0.019100892946298853,-0.804508693683958,-0.5704985961604523,-0.38450204992572024,-0.36343100837239367,-0.7243746635373989,0.05990413403526257,-0.38654748500197167,-0.09414911539658555,8.015615699187329,12.882659108604296,3.6382366984248313,-0.346279794091567,0.023284361928565978,-0.7507659748756841,-0.6105527424729802,-0.22341356507047574,-0.24199482487881208,-0.37682052452780807,-0.4395580796746809,-0.13508495887955052,-0.7296542555630616,-0.03661128242199718,-0.06208933972686692,-0.40833118971184307,0.018326959657197273,-0.38627516143175317,-0.09264291345569281,-0.3946252363946811,-0.640566910021312,-0.011955364163364457,-0.822266464852305,-0.47319745177466077,-0.5037515704039881,-0.3096694480703351,-0.1460717357682465,-0.14537379351360377,-0.6409203155913399,-0.12253122975741673,-0.03148400034661708,-0.3661652882406726,-0.20175545599877526,-0.08938016922412462,-0.5616756052745288,-0.6967119562189306,-0.3835745701519848,-0.23402568370509838,-0.5729253547431641,-0.38851368266362835,-0.4649128812736347,-0.12089380434640432,-0.6157933097509595,-0.7117983817390635,-0.25567113039274436,-0.030748112328229493],[-0.07178397299328158,-0.047168335582567986,0.08274852684517289,-0.4187290886575008,-0.011675507768661105,-0.15332119915279657,0.27717817909988046,0.09007313156235958,-0.3363534940331142,-0.4583105545637478,0.31647851874516153,0.2578522835419707,-0.3056933685386749,0.27321345095740257,-0.16460453565055536,0.4664464080064796,-0.2647078799309455,0.22265746349874424,-0.22446844441852146,-0.27842682822401316,-0.12690897544114774,0.4609679460743368,-0.25382701279956077,-0.44012869561062834,0.11930483875220743,0.3295044597307182,0.22919557704287527,0.27639707220930765,-0.233346984282285,0.39507457936543944,-0.42415524734645577,-0.15346971914958613,0.09683907660757769,-0.433559460816,-0.0754187328982462,0.38787572511500845,0.12598870534849102,0.33983082599603986,-0.18223186419325554,0.1340639983335,0.011797503746714897,-0.09909702588542421,-0.23925414011042326,0.4233614041383735,0.17714165586832376,-0.1997967613962299,-0.2501979579154512,-0.009307786621259048,0.1777072042001728,0.33845563910451154,-0.30431231701000705,0.44205756385772677,0.0061842046659896545,-0.10301221774186992,0.236667169870591,0.08540307563744345,0.23274947148422206,0.4272630091684633,-0.33039067881612644,0.1917437316604375,0.3809267954760397,0.3718376479863093,0.22933698938662897,0.16479751571793974,-0.3705331545537142,0.027099712149028145,-0.38465162276057935,0.30651046271084026,-0.1353716675921544,-0.22413025679747495,-0.29889232701479485,0.42967387149362546,0.18317048841910985,0.21530670026909854,0.013603842171800905,0.1359332695536964,-0.23571779650015431,0.03306055129745045,0.14749571102586184,-0.03806075062661114,0.440571809150583,-0.00999608797531469,-0.055752934019637615,0.23487127062826255,0.145147000103334,-0.29285775978732936,-0.28538864351249826,0.33993329951965867,0.36766129805623793,-0.1830265601226307,0.25094465195517945,-0.30882305673975724,-0.174892744080118,0.43821024311060786,0.20815644137939857,0.017750370660380675,-0.05664155312890781,-0.44308093132384185,-0.23305665046196142,-0.31509772123909896,0.21102401235245963,-0.04828854578691817,-0.22870642918248876,0.4302445295698078,0.1826954324685115,0.3938183201826038,0.28346396395581247,0.11158785296981019,-0.2364726075964066,0.38831473560507906,0.3683460583629802,0.384114358803715,0.15288087737348566,-0.2746254786077525,0.1227732741518594,0.16852036504464044,0.32273490186039744,0.11150280747743596,-0.4404565156475529,0.14371997856352603,-0.07420078816172217,-0.4373186061687574,0.09394251420575311,-0.24905516140639886,0.21456952545694954,0.14557515347292935,0.01806608649088709,-0.11382124502266688,-0.2886041566115657,-0.17724096641285914,0.2516093059385362,-0.29738377562646195,-0.36107611828294917,-0.43888198657493227,0.07964092509704922,0.14043852477608423,-0.10483791841766268,0.39588243319713506,0.3256012306567914,0.16203343319996222,0.3909314707141726,0.021718475901895948,0.18228909652239367,-0.21165937161624832,0.2718007289463683,-0.030716358819855547,-0.21105994966968972,0.24517086945458005,0.22543022065570198,-0.773832661409989,-1.5755023141354163,-2.877308233350213,-2.7021161537902167,-0.30231328939715923,1.5729530121894277,2.1894060229315415,0.6069948962781337,0.36438164687711666,-0.33019338681867677,-0.10899685021852877,0.2188183406381193,0.28819374171502105,-0.24311065983706903,0.0631486964211354,0.4245385802119456,0.19703981319784125,-0.026452043894207838,0.42971345901616953,-0.2559091175348297,-0.13819683909579825,0.057422925650705905,0.2784156767259067,-0.4360395391210427,-0.3747307681868186,-0.09841675883102952,-0.10519725815964759,-1.0097648746680186,-2.2752289441463853,-2.582111181179212,-2.5611998755430916,-2.661539426673221,1.0520894659474727,2.314304182535674,3.314124845705348,2.4633765126752425,0.8668438780094764,-0.04913756260827738,-0.29737971697950344,0.20114202539849874,0.45628370264913864,-0.9185474106534399,-0.3675524803946759,-0.4525592309696988,0.38422025991381914,0.3078058299666711,-0.24685114456248317,0.007470729351722925,0.26195562562294233,0.3008929097775301,-0.18867186016959497,-0.3066886407081898,-0.12017123129380095,0.34968667130746406,-0.661295285317816,-2.002353375746372,-2.943854467036922,-2.8249493547623543,0.4751320117993466,4.598385378010894,5.272626545447486,1.3151849752037466,0.7505560868396662,4.301291729114065,3.083234292358175,2.4711434933778524,4.364467170914401,4.017288907278231,-0.3124037029960555,-2.7140909533547513,-2.2305719504619836,0.11409992911454547,0.4172647075472796,-0.38786327719872093,0.37944165987827677,0.3016539175117629,0.04070298160647988,-0.29643211287239696,-0.03369738598773246,-0.6382779692410147,-1.4567844112873707,-1.1768384870695694,-2.364222883576108,-3.531193696716372,-3.6722731871464873,-3.653351179304894,0.31135832396070057,5.609830261377308,5.091863129975413,4.942213540567774,5.058045624885228,8.603999130213957,10.114073326719398,7.010251792551277,6.639475220421551,5.542470794784929,3.493153613799651,-2.946124299110762,-2.81354632832966,-1.2217415004755965,-0.4563897628590043,-0.19212136981122782,0.30019600915154837,-0.03451593645225773,0.4245442493595798,-0.22646294194556751,-1.0614488648678508,-1.7024668165577317,-1.786597504006628,-1.9051940803348715,-4.917608252258903,-4.473797282848849,-4.556507214279984,-1.1057158504843116,4.934619722027782,5.056413292563464,5.066121377231287,7.455091682508281,7.041937044277657,5.8720703179338525,6.452958641370956,3.498754534099126,3.117325082516464,4.068810968619122,3.48691914555523,-2.2100028474215523,-0.8399019744180285,-0.17255381354556543,0.0357643338426471,0.06971895859296337,0.25902522683036916,-0.29021111840922453,-0.35762501528848417,0.22426058084471373,-2.0286448521050193,-2.4182053276596625,-2.56099818020977,-2.0019287289540353,-3.447066451098785,-3.229328826512548,-0.36292380997956913,2.7867672417722025,5.070082182862268,5.379748289531636,5.037024405126145,6.783520407190901,5.292981243499758,3.3364834949285207,1.3714361901110463,2.3247541201105153,2.3722714570918577,2.645115539858903,-0.20312652873819498,-1.8420888914687858,0.2283274745657717,0.06542632982351122,-0.36261895072020645,0.21554163268231333,0.16609477676314593,-0.1290513974660521,0.1575463539185068,0.059466929909716054,-1.4910444270658423,-1.7941436432706963,-2.287684213056822,-0.7850417388602609,1.7320440743027725,2.6656939306034118,2.832376225710924,2.785870691291069,5.456105389256602,3.5981870873225086,0.5735257982716042,1.810539309399841,-0.9195987556087151,-1.4598301928002457,-0.8241724538512043,1.7779799433804113,2.303456280265901,2.652181304886496,0.501828007009392,-0.3304212050112124,-0.23872671582333554,0.2222301364125455,-0.3980200800369833,-0.21083303427143946,-0.27855829098864304,0.3041491122299459,0.45895379736163033,-0.3792647820123607,-1.2844432298591295,-2.4849099709292624,-1.3705527384539677,3.5677087757333994,4.82151617642702,4.888515437437042,7.7041157599720815,4.30263588628896,2.907792148050434,1.5311440155111808,1.8514522846008687,0.7954343614224487,-0.3996498981698754,-0.9008569312467767,2.2746359298802106,2.912373816624519,3.5237193413993917,4.041236855894882,-0.19879217543263591,0.21931984509893687,-0.1930575480430843,0.4132688000829038,0.3588854691442373,0.08619896877005379,0.17044265281999055,0.2523986355591519,0.1627734458831223,-0.337716157605678,-0.7204373963800381,-0.9812951279382283,-0.040726823688725544,7.906553805570467,9.266522740820358,5.1959878068513135,1.5909736530003447,1.0179035419581162,0.6193697514783477,1.2366135454346017,1.0376971017089884,0.6867116776227155,0.7828637386332797,0.5536858918022626,5.589793519222619,5.372406752719208,3.392752428349934,0.18041369416207115,-0.2916408776972255,-0.05818324095311703,-0.003674446173583871,0.31530950429682375,-0.4006848399010874,-0.3250951005471915,0.21924548091757706,0.26894067137677546,-0.2854970372884026,-0.11361581908936685,-0.1816708716712798,0.24837908219072963,0.47618531958429744,4.501973817879513,3.8429965425033403,3.0415068395522873,1.2398417052821638,0.5436075073177067,1.1873903631657696,0.5977972658350517,0.9048860397565665,1.2382449935907003,0.9477264040216797,5.6857157904609785,8.056087221267857,8.38976050006397,4.519260611079544,1.6575986483296719,-0.3100626361515739,0.47415162111184617,0.3131148211502105,-0.23051213139494237,0.19170487645693463,-0.013927949755272496,-0.3247640897606647,0.10756006858115733,-0.023188043319994463,0.012026337211357466,-0.3894927379517845,0.3570714531268625,0.06348276483656223,2.533010563959769,3.0262769419450644,3.2484740398643717,2.909234818988248,0.1685465035900015,0.31833249202333924,0.31720536475409344,1.09626888296028,1.1920286157700366,0.9955273092941369,8.05361032992706,8.760183314848694,7.595205458629865,1.533001930105282,2.8419909447193525,2.2276246307609675,0.833447977046883,0.07263428217837634,-0.36387907433135613,-0.3406629535917106,-0.11187819549306985,-0.0023215597899192888,-0.322542198039467,-0.15762962372976685,0.4089856244526495,0.3582676132222747,0.29394634485638266,1.4917296916985363,3.093037745174475,3.2073161391733223,3.2414588965396365,-0.03104309447326986,-0.12873490241584357,0.792796631879017,0.8292666025661847,1.0909723089478724,1.137912161913829,4.78585416923509,8.172591773663285,7.064412702688845,3.98590565102152,1.6125659795242728,3.584828713359079,3.639810621605643,3.240542566894662,1.1547072226698454,0.06113385806218796,0.08512176822685574,0.27640675658694625,-0.45344810286953474,0.03685936423661701,0.1722966490989276,-0.09072732724741425,0.13616597651069196,0.06652597718927625,1.8438425718060651,3.563321663026766,3.592987466043916,3.2631224172532995,1.8910470008629021,0.6454609618522634,0.7723967636971482,0.9323324166138729,0.5032496222629563,0.9188836078824517,5.344652838220121,4.222298072301129,3.4370229987250522,-1.863748548139453,0.38954205892239085,3.7847845136689817,3.6964708782833124,3.7012262015753015,3.2681178845963013,3.299384381245096,0.24798295420171834,0.0885761148288717,0.1032931971710094,0.27232510698293005,0.4301554634605098,0.3580964545438149,-0.15372576571628366,0.14031890225654112,2.171716321511072,3.2871616808201005,3.2449660006489984,3.2547939767692937,2.516126773613512,1.0027650451120145,1.180339777374817,0.9947949783115256,1.7325714432954276,4.232659833546087,7.035085537957991,4.397526547180738,-2.017824306746706,-4.054018358482294,-2.4784838474381248,2.297313264626994,3.825931035140738,3.7126733051814518,3.7889237286619197,1.9451471471251591,0.29271173210280454,-0.3888339579324887,-0.09433070107486238,-0.3211540969959146,0.15853426025420464,0.4369279854316665,0.2539221031136782,0.07515016237353847,1.1993756602072128,2.9490623476216946,2.9405607676533823,3.4514305819215187,1.906271325856523,0.9244837949355897,0.34052993554835853,-1.065225931743546,4.4058172414264885,7.597086949392022,7.45656119500587,-0.6210726707112647,-4.680044339729112,-4.7504778994664125,-4.70466568048983,-0.8470909541137667,1.2438150112212045,2.7594587560047326,3.6184365217657075,1.1628561604339223,0.14037543228573826,-0.38384483580804535,-0.05968547647871565,0.16923490243665656,-0.2698605296009279,-0.21797502673413602,0.42959229672048027,-0.20010034591238784,0.30943754607166796,0.39047081200153144,1.9996446843141942,2.1724172870088196,-1.2931066706087806,-1.7743400933515288,-2.031741130912893,0.886997582737417,6.376150978743771,7.529075693256462,7.497165525050657,-1.4330622709381255,-4.6936187243066785,-4.439778002583027,-3.6614583482841723,-1.1687129158519842,0.24105269674601093,0.5241845211643662,0.9407022967186869,-0.0822128452445254,-0.040593430323245736,0.2601225527148694,-0.17939720644346485,0.2500669193560713,0.09807859196259675,-0.26713939764540656,-0.019623145285998584,-0.06884786815728164,0.07639904393938486,-0.27233524752278343,-0.11980907957075942,0.15048565649633797,-0.39253347487490575,-2.425316828014825,-2.9405482585594696,3.8839464013401193,5.083751614853277,5.683730524763301,0.13277068400568778,-4.2932095005032265,-4.9941383398064225,-5.286052613750976,-4.142586633714205,-1.2522879822690147,-0.2316903688320417,0.46555582816402646,0.07962723327370341,0.46323504147444355,0.33834645091052157,0.04285410842479978,0.09446627577337802,0.10546934553434258,0.12053076721087677,-0.17370315395553224,0.048614645779001125,-0.11551776979928993,0.30164981975339167,0.43371260646809434,-0.34869609482597236,-0.03445142974591266,-0.337919536316768,-0.9562854891285704,2.17679396125247,4.693140019098038,5.081561163946095,0.5742817454856872,-2.5125492082076444,-4.971977899030251,-4.884227046902679,-4.760095441757998,-3.898681292906941,-1.0522657251113392,0.32100282129480984,0.06752162447906145,-0.2641268635983045,-0.02087112073722602,-0.22012002287181606,0.0067648557402506726,-0.32347124253605797,0.4294338871128582,-0.4566412981088189,0.004051368038264978,-0.17028161284900992,0.08292244373278389,-0.23433119453176046,-0.08550157406464397,-0.17338610118447292,0.3374576857229628,-0.220708545641573,2.618235692591895,4.525172719358279,4.8334715988842785,3.9887968697780747,-2.303930132134746,-2.8342712008571924,-4.926437127392512,-4.48060006067743,-4.261965775391373,-1.3898237127018775,0.010529669084029712,-0.3096119681464636,-0.4658120604624247,0.05243707540446886,-0.3370170470354766,-0.3277275189077549,0.4133383519601301,-0.018509979095252052,0.09199606559114669,-0.20962366938366564,-0.12697129862885045,0.22715296571938,-0.27501922213459484,0.10898371947831946,0.4396551002314028,0.16190968234532524,-0.12095693840386879,0.08297592601398548,6.884001896905861,7.634142184861211,5.737002795005208,1.5525059498728369,-3.0582661803269997,-3.3869384874235404,-2.9268397695762185,-3.300034423205907,-0.6729705931793208,0.32778549806078217,-0.05012559341289698,-0.08158062145485875,0.12641759504787667,0.3693361922893707,-0.0745939012636895,-0.2613925652066723,0.007931807698760271,-0.3989216276948895,-0.28538030109870705,-0.11503826088117314,4.2012039310665265E-4,-0.034235450024456965,-0.4611766568523211,0.2602335944112115,-0.12278126233749537,0.43421985719594713,-0.3372602175487701,1.6120174382862287,5.786821549369779,7.215220017406852,5.780194549449032,1.497431001075161,-0.2050323967641087,-0.8499978144504636,-2.039345161086913,-2.388273012608009,-2.0332797653755343,0.012499868079549767,0.008998077089309301,-0.222928361377646,-0.14199445651954845,-0.2857097335165703,0.29359354178063857,-0.13367792010225094,0.42975309369158576,-0.03491807873309517,-0.23457353271760836,-0.291508631190858,0.08812352127437692,-0.057439864241749156,0.25660092011620167,0.035235553143314544,0.24761490251115373,-0.22982550781174027,0.3719764716500764,0.020807721818003645,4.285445662394829,7.749736863764345,2.7447491688234513,0.4049568237427482,0.42793600378151314,-0.7712863426514,-1.9304924933218839,-1.816751215309263,-1.1888585288109994,0.2523874337033336,0.41437591538742713,-0.3373487162776932,0.3460484427773999,0.2588997992270326,0.17290289221300767,0.3294518758456621,0.28958871352532245,-0.0920249904268747,-0.1344745639272585,-0.10932794376945473,-0.3960067293046473,0.02937587350051775,-0.2776120693131714,-0.03384615490574769,-0.09239956307972906,-0.35995008633287456,0.24451095643172202,-0.36803626774214754,-0.4181110379421505,0.41132855106501204,0.167622489300481,-0.11626375162763955,0.46055359595451995,-0.01833185688611877,-1.995971168232691,-1.333301896177719,-0.21189478128613107,-0.15078050977975707,-0.22596962486031813,0.09726190773323828,-0.28669977653707873,-0.2321997173650516,-0.01015398466008741,0.08371750410095631,0.4739446865205436,-0.2235253767865416],[-0.19099532001098482,0.05963714782917429,0.03608040253597991,-0.40434247364743797,0.3498595375640385,-0.06621994275235527,-0.202803163951092,0.29101605913357265,-0.39217309845698245,0.1833229687616346,-0.3384735818897451,-0.04256873211174189,-0.20709936740353765,0.28037109514364533,0.06721152430070797,-0.18053964592445,0.21320807424149674,-0.17822370085751404,-0.2697207437457859,0.3776921802706822,-0.14383123833560582,-0.029352216236948107,0.39905107080863167,-0.436247672186059,-0.2451017798729846,-0.27449444926639394,0.37603845453698603,0.2453711213106193,0.02273478242106198,0.43724696327481727,-0.28804437151927886,0.023243045833728625,-0.43842989424322615,-0.3866158831433732,-0.32337329553697997,0.201786400631683,0.36465490200752687,-0.35201543336045954,-0.12110114160767192,0.36098086991338824,-0.3082719252855599,0.09440947584829953,0.34219465435160823,0.4062161915161787,0.09368391708225722,0.05629360130185155,0.09404517885616206,-0.42247167033443894,-0.24445616349087498,0.26024791781570544,-0.3031570747228179,0.3587312305710206,0.41023958798491855,0.14149080601680056,-0.06686375274145238,-0.45923058520023496,0.25164296107226314,-0.3789742944947556,-0.4379399912316975,0.46212347181233815,0.3433918201560804,0.18008254766189477,0.3339548001193525,-0.2777063852659135,-0.11963483373467235,-0.005672360644498289,-0.2621256212441866,0.04226683245783836,0.1621502303808445,-0.07317875161328614,-0.43848532597887324,0.3284424270093894,-0.2674776895956747,0.34486322869187747,-0.1848918186118889,0.08372560939430994,-0.374179676607478,0.32172299996641907,0.46012494175752117,0.35160405949860185,-0.15982302804949325,-0.34023359106941486,0.08970838528020761,0.17508796820881498,0.42872201163840923,-0.27324249292799857,-0.06802286501439031,0.1048427344356176,0.4134656487001124,0.3819747699158905,0.187321785802614,0.2954364979106402,-0.3680162789825214,0.13342113665046304,0.21940356559074917,-0.009551815226604634,0.37498933829571296,0.41167429139952616,-0.05560122159695205,0.26199804389866926,0.06278435668269607,0.06988918699722947,0.1054352275572732,-0.15952878106384816,0.2907919611581833,-0.07675473563339467,-0.2711619491411874,0.345102757331741,0.24872586231776936,-0.37593720146020787,0.3849486370458004,-0.39502793653027135,-0.06552448121340004,0.0826857165098594,-0.47869771465555333,0.1452115275599317,-0.15735847034802,-0.46409210948070234,0.2456274727100953,-0.4493545098318596,-0.04160255056660406,0.4379679917612331,0.1155261800437456,-0.2862928306910197,-0.26935932963273695,0.3008046039755146,0.3865631832742678,0.2710912215378048,0.2835608702897569,0.09224069817928465,-0.4165233897464078,-0.46324075994877456,0.003598436948397102,-0.13779946845675933,0.43863738767047966,0.19625578530723237,0.40739311846049353,0.4076835340445739,0.23911007021810754,0.039417886587957786,0.16003546644100078,0.10977871813675355,0.33866162390765187,-0.07337602726546072,0.41510677569261833,-0.37606356863747475,-0.2294138026870134,-0.39668451300924584,0.44522205555789907,0.3301203173529686,0.32981501844150485,0.1318419869416334,-0.20364715611152745,0.35605312897691466,0.21378715543572618,-0.25230471672212107,-0.3661063130621073,-0.24943890606935085,0.3412056041652611,0.13697926132231922,0.14573080187520732,0.34490191477608306,0.022276680746588,0.4274901702332134,0.2888618430061214,0.005429278564763249,0.17811370809893454,0.04314198744947777,0.2836427971737052,0.014464004419127449,-0.264766390416327,-0.45170216485683934,0.40554360753416735,-0.05982991675098864,0.37306271274389946,-0.4381263631410385,-0.4015777868353853,0.2711358508010441,-0.15494493145943822,-0.45161400036967253,0.08746396634873792,-0.5325051448055885,-0.5034665304514091,0.07588507422590574,0.10924753556263463,0.11657825210267779,-0.11064361746764911,0.4217269187472775,0.39796663944340527,-0.3996761319810929,0.3142682739599922,0.36029961432103247,-0.09914129078805607,0.21184608925098788,-0.13819157251364714,-0.1786117787911402,-0.2720817450350983,-0.06304615588872178,0.03920429527165522,-0.1394259258153187,0.3990809315005749,0.2341111222015489,-0.44613526406964144,0.30545297474141436,0.20403555731149142,0.17094704599461574,-0.3812390649741586,-3.090521903043772,-8.754666735450105,-8.377181926611483,-1.5581915408109133,-0.16381833263723716,-1.5317454857262813,-1.8161965056429172,-2.5503194070607216,-4.542665701399551,-4.549056878024394,-1.2660101458442239,0.05000637661429388,-0.4827237108533683,0.2435590672081916,-0.41102098293046024,-0.005533210764829124,-0.4366962590719369,0.10377785597810772,-0.04180294366538636,-0.17063991733270367,-0.43858319542568547,-0.28885675209406525,-0.3131668164006464,-0.36702752641997466,0.022583006883293656,-0.10617078229255678,0.3321428194702626,0.3611811041760048,-4.839355046520292,-8.074777717607802,-8.626823855834585,-8.096622859563748,-6.528117977161753,-7.756983749763211,-8.4857138319677,-7.898782610310795,-8.358456659494506,-8.212334222583076,-6.806935822712991,0.013389847982274099,-0.4971654226610371,0.012772135034278449,-0.035149995260180374,-0.28500231661891345,0.08014657586576165,0.1305884999690018,-0.3637831508228426,0.22210524059236006,-0.47935491033489963,-0.46014397037237215,0.049996452709906894,0.3091339529171477,0.19291965880093465,-0.050468796756954565,0.0476666926801979,-3.484013192155218,-7.550130630391936,-8.267923698891757,-8.488355465505768,-8.580925388447303,-8.174415397999994,-8.299065355449523,-8.08627572606793,-8.306262163728105,-8.646439958267818,-7.975816304954591,-6.526580196069944,-0.12227392324735425,0.16743378321930452,0.11365601745682131,0.2497278696468225,-0.24643488512131104,-0.08346924305498772,0.0012110922650826333,-0.18186891541907943,-0.3474118156922376,0.4015738348828051,0.4512978658382484,-0.25892584213978304,0.32893204483294153,0.3497273043342557,-2.311192522848091,-4.323563683521157,-8.278874576418922,-8.458375923858124,-8.023435804361851,-8.013307928566192,-7.45596211423984,-4.908045197338389,-4.877519887259155,-5.148732586946055,-8.520007927631834,-8.253400122738913,-7.993977894112693,-3.2775894383898283,-0.31805424663527,-0.3691234261867672,0.2871096221029435,0.26092101185423494,0.4008247392720756,0.08767059979915769,-0.015055481305022402,0.45750163371437497,-0.04267060016191657,-0.012418840034687273,0.2813930588154445,0.3949658293971977,-1.9876136639299178,-4.654104482852712,-8.262861424735378,-8.222917423763812,-8.019677971006924,-8.539485106901685,-5.718271203319378,-3.7105649824450424,-1.5530833029078082,-0.5986124289502971,-0.5619915017400028,-2.379348282071432,-6.694832735873188,-8.65204982137273,-7.605934076479892,-0.8388723267083824,-0.23374258839692658,0.10763624553725085,0.2930816963641507,-0.09170257717538444,0.06582337433407444,-0.34684569409500765,0.031060944785152714,0.25782087163465606,-0.08723470769151216,-0.426323123347246,0.31692168909479695,-1.7091201516395844,-6.416590567460319,-8.754424173235329,-8.194761353170865,-8.27563388983916,-5.30639504366062,-3.789342204373231,-0.528895502155113,-0.4683730655063175,-0.43035075600814543,-0.13672688298013722,-0.18722068724164592,-5.474033101306399,-8.295824089065635,-8.28286690459753,-5.3840404486485385,-0.4219581963047505,0.2592774009842457,0.2533346626581452,0.4307531733427289,-0.08797570807247926,-0.20124716116752864,-0.17184212921013406,0.1006134751106433,0.11191853064503128,-0.24854367529731655,0.13335549802596341,0.46066543202054877,-1.4530016378303903,-8.148998291180938,-7.379958213773503,-4.425351782012029,-0.4199110820833521,-0.2608921679662887,-0.2392780967602329,-0.0372208906747995,-0.24136834009907143,-0.12364991967962122,0.23515420261587397,-0.7416401236131285,-7.455965752484024,-8.419479687531165,-6.338416080596858,-1.3174900856503118,-0.1296063815712131,0.4263211636344979,-0.06782020050669857,-0.3665308320051275,-0.09888136294100165,-0.27479070777809794,0.15620343761386782,0.0644999489920622,0.11385910649311431,0.11535446588780539,-0.10322628054657963,0.018658370459607478,-0.44553077184178536,-1.2972583677569003,-0.9347125245448464,-0.5673375371531927,0.2790049138702696,-0.2819283953040547,-0.23389465926246697,-0.44159293415724044,-0.028923282596251487,-0.062358182083157784,0.31959275094942535,-4.129864701000656,-8.554031848973947,-8.773990089513108,-5.057832221337865,0.1697549624416066,-0.47548593589161525,0.1431780622619411,-0.08646020970102153,0.3590080346811663,-0.4236874351854338,0.4293798389048272,0.42357246900908374,0.4113818620516992,0.23449932836623671,-0.38651650943009414,-0.4586978255901206,0.14789083367959238,-0.2530079754080599,-0.27795780563390415,-0.428705846774355,-0.2817952106754942,0.1413798833201324,-0.5089867209038816,0.33356001417021586,-0.19155592842650115,-0.4089308418758443,0.27577025652016607,-1.1442252534547277,-5.901653806913583,-8.178604339053827,-6.608917645764014,-0.6247481697704218,-0.12688028813494057,0.03387967229861301,-0.4638276877051324,-0.30253786103918284,0.30838680806990876,-0.3365379770351808,-0.015337056468769018,-0.3656978158319089,0.2599847780427504,0.12428774020068432,-0.32034243041099253,0.2833147648219045,-0.005302243955389332,-0.31249880969467003,0.29007174721985496,0.0423030455840778,0.00771346021625649,0.3356401538182352,-0.32686191008828824,-0.48701094274614537,0.07706109442500719,-0.5448510718368667,0.11083766727298808,-5.034383985503955,-8.858145721127661,-8.79543632968324,-3.4177453537151417,-0.47977730130704027,-0.012532364201938512,0.18053795189424898,-0.3612883091199362,0.14862416033379963,0.08936731371681314,0.13426372369181686,-0.38837507628935997,-0.31367542972775464,0.06654757577011362,-0.01288720432304202,-0.4755524598821657,-0.15951850089726738,-0.29468409894674713,0.3224788863754564,0.006471084300475466,-0.1716264944775158,-0.17777344767265152,-0.3999057295025328,-0.13994589929471454,-0.5074381937359428,-0.527831217972975,0.036757194044896774,-1.4095195099955684,-7.621583911458371,-8.21272168577869,-8.157266726279506,-0.46940611294156825,0.059507346762525004,-0.4759485626535722,-0.30677220869511,0.22298395679607985,0.21207744431992664,0.057087799663039646,-0.17060403833057103,-0.005095555414382061,0.39375085665641074,0.20973980048137636,-0.24295705158556605,-0.20549957823337653,0.19005997280766296,0.403567156824864,-0.03383072231364716,-0.16428305604939775,-0.19697540868650742,-0.28929705641680215,-0.383943523105466,-0.39391978012678663,-0.14397134909260484,0.31197065789503314,-0.1614960864576902,-4.088336855809529,-8.067026328477407,-8.43743361010805,-3.2576965021370783,0.06846480956166387,0.1877651113954355,-0.5170402188564479,-0.452026543475166,0.270521765467017,0.15652275593103754,0.3604763171814031,-0.06463992530241483,0.11269798786449549,-0.31244008534066753,0.32223215982374565,-0.24434802016254,-0.008472876911061097,0.3429050056444983,-0.025234371646485503,-0.09644902867901106,-0.1631116024098342,-0.35605557416758643,-0.49415008487811685,-0.5042163872046015,-0.2243598271597913,-0.38326739076973626,-0.21197930581556987,-4.376539252169803,-8.49701211553152,-8.37429559158449,-3.1959060992993025,0.203661081883534,-0.26759565096466786,-0.276681680169565,-0.04465498450679829,0.08390671035084962,0.34824080075042013,-0.5893441133284367,-0.144315343577916,-0.05972547109625842,0.3247934898017228,-0.1529822516039047,0.3202828536383886,-0.18871497653661184,0.012794476232069666,0.42663331111403846,0.2635996670358176,0.01618894375772082,-0.17020703397995696,0.005355612226828191,0.010342858739348496,-0.24528886066939637,-0.4656098266860961,0.32764470971590115,-2.6468042015317526,-7.564559744762066,-8.63539913811345,-8.425946289465388,-0.8002402042240557,0.4106411438211221,0.1525625368003108,-0.01745990345183953,0.039092595216230194,-0.04950435549307844,-0.45164864658455045,-0.10140007651115306,0.36025089465353316,0.025660422469639073,0.3777655916025466,-0.2329644429919828,-0.33980760666283516,0.1830947789366625,-0.3452082069679869,0.2289698529895915,-0.38569530937470486,-0.037871872655118016,-0.33953294000220857,-0.3425570568664474,0.1304175651795504,0.3990032975846773,0.24529511574647164,-0.17554076479828934,-7.432509608349222,-8.013161063543658,-7.917499968479553,-1.9649420088023644,-0.25314209656330466,0.29236328923784444,-0.24727873918593155,-0.15302907903877286,0.26983800121262363,0.37314593763176945,0.04946525313115771,0.43621965888411457,-0.21628363040990284,-0.009143176991424048,0.3689052693663395,-0.3976319860398064,-0.27671744181680524,-0.04803471367538724,-0.028111158624317872,0.34300698668435853,0.34639039379582126,-0.4816694617095642,-0.2724794665993997,0.017256364467418066,0.03831802121334936,-0.4734196132350446,-0.19432594150009688,-5.743206217399051,-8.324513154157234,-8.69094913334265,-3.485116647811303,-0.04697083222389653,0.1874453401198984,0.17819482983374912,-0.1942884648597582,0.14733832090145743,-0.4250943563020539,-0.3790693518576737,-0.005913588639858155,0.1544116496047289,0.27246746351924095,0.10411672748352573,-0.336272321703854,-0.05194161989444025,0.2491704729831741,0.06753971796484948,0.4522607034000588,-0.17112935017050956,0.019692921685683186,0.16060567303534123,0.012520508521284356,0.03557548745173593,0.421659940224372,-0.027609850712958604,-2.832968207009018,-8.052107681400969,-8.767086756090109,-6.917796087541385,0.008901561297160951,-0.26714993440191054,-0.3986831275041743,0.3602704704075871,0.14424758863576576,-0.1397470192448322,0.09930265436526854,0.06855914981959975,-0.381150138691848,0.3140264718405841,0.05406412033643746,0.07965875302162737,0.3854864995988348,-0.2331438854234065,0.4505359790321978,-0.42451904832221654,-0.23587318732015136,0.21270389742664145,0.44772103692419823,0.1201903977050003,-0.41192401444020393,0.4028121900968625,-0.21397460832231835,0.18581943729272998,-7.751889792707724,-8.15902200713391,-8.427579064275617,-4.454560213201872,0.15009833471233475,0.3437246863213944,0.09372397036662121,0.3278945568040443,0.3155555611889592,0.1465233660113341,0.11308062561671282,-0.4465723735858556,-0.2091215213715063,0.14137786161858604,-0.21523645089590068,-0.45701326095626105,0.4390190779872416,0.058463180534776456,0.4513215744221567,-0.25818184627696095,-0.26356459898477486,0.4324563752557865,0.019653611769967723,0.04923340650023384,-0.3476806716707014,0.09315865979619574,0.3948844277390804,-1.3209038518158047,-5.886637798793043,-8.659527062043635,-6.150069265813592,-2.24125512510881,-0.4771619941749706,0.10386089767043735,0.4519311419778255,-0.3669026246684189,-0.316187100412244,-0.04082448340217908,-0.3601155937901896,0.22204724903483342,0.2472840892048034,-0.12789300704674184,0.4299312563694746,0.26763947813041533,0.14545596664184637,-0.017591436234854117,0.2943559368166007,0.19177001522719855,0.3195208291110247,-0.18832949865244558,-0.06270323408622018,0.28208719258196885,-0.046228824049878534,0.2762886659068735,-0.127914874668405,-0.01252092910376524,-4.817900290651181,-8.658390474069316,-2.216328679995556,-0.4416884784405447,-0.22435539156188175,0.10802145645569097,-0.08743536871572913,0.00554249615696684,0.3601487625057679,0.31674232124710366,0.029817098683559543,-0.27392645822668765,0.356980954002116,-0.29760530376685396,-0.3581921867594254,-0.004805677246862785,0.14884986668947753,0.04610670182922767,-0.38624186543657896,-0.31121549470196935,0.2729706220800465,0.3968935067514096,-0.18504212187887498,0.17149487899934435,0.050899971535983544,0.07730471052809251,-0.07998733255059112,0.008312814410283744,0.23865623877140088,0.14769587003929108,0.2206493694262305,-0.27083780767003424,0.3140224120395672,0.4224071886321039,-0.09189335930883362,-0.47305664965794675,-0.35650118401256387,0.13737560299617224,-0.10348229416057991,0.05530823215698722,0.2672620347740081,0.03687926331918094,0.10713709317668593,0.13682353251512314,-0.28938690417237384,0.45222338502776926],[-0.1228962462890429,0.26064425908146804,-0.18509299209544017,-0.2534542980562071,0.3919939501028082,-0.11681621564796578,0.48970458049979587,0.20977693525212227,0.16857004465109593,-0.3279504880491704,0.05570812541846409,-0.21140189663575826,0.1091859464867187,0.5234788763661838,0.1637799676501793,-0.1529004239253734,0.4845159344943884,-0.1307779223679617,-0.20306286932065987,-0.18242146661203534,-0.19627843889369273,0.4247474536684198,0.21587794379117867,0.23209635907089293,0.042977742389122775,-0.18606416340027532,-0.052254586082417384,-0.2701990070348357,-0.06230355088835811,-0.30116684732715693,0.054594098379337076,-0.07548406949148813,-0.2146595810118646,-0.06893296170575418,-0.2630756460652709,0.12622843770299472,0.08945858134701076,0.30925839584140613,0.31373078715532293,-0.02607239735337087,-0.3484971521458696,0.324170818610361,-0.22621536094363742,0.005749302283578936,-0.0648984426153137,-0.24955968843754267,0.5133272813241888,-0.28442209818433795,-0.2122328778643361,0.2505147517415903,0.46299970147194397,-0.17686425323841226,0.5575057919933838,-0.20709257674889753,-0.3383338050719487,0.3671596967788457,0.4364753546171565,0.4030309620774004,0.5568119832058505,0.11851999206711995,7.01609143747034E-4,-0.3392726176770837,-0.04959590355094666,0.10207971730478714,0.2439172996632578,0.28414747602319945,-0.08449983905340315,0.41272454933452435,0.024827375201618526,0.2448570141587773,-0.31752492225821255,-0.337689652800249,0.560532267302363,0.2940337025543945,0.3356498591570084,0.45237241155827557,0.4047522883613746,-0.3563744041849499,-0.19008453762294453,-0.1885881514466186,-0.20507115845469565,0.3427029337447987,0.4341191588818573,0.4094816781919978,0.10056382667492036,0.45906220283574517,0.24625827785705962,-0.28418930381691326,0.12074573454493483,0.33498764161206207,-0.1548815024663308,-0.2137246428332506,0.17391418973281791,0.1152780651550321,0.35564600645232264,-0.12007989882777241,-0.3271227466976293,0.5107566820445057,-0.33873186861287174,-0.3536158871374742,-0.25472938101298276,0.3041621709966309,0.21039158357518467,0.2002707237132002,-0.3425262214368323,-0.13457270465138976,-0.33293320086735223,-0.12256392675470874,0.2942321970782811,-0.31122906751452434,0.37956269861141945,0.07466311845796245,-0.015467257262887044,-0.3408222406805623,-0.26335097221295295,0.41047484759579794,0.5799035040540379,-0.17438741586274042,0.20695951341042598,0.19815079499006785,0.030226551619364397,0.26283983220953344,-0.2627635579352153,0.4176730243993331,-0.15372441084948663,0.26790394841694604,0.357794195010184,0.09877737719199738,0.4538071710566691,-0.2225287892167694,0.11015082546509579,0.18269630913668095,-0.3261055145254844,0.007580850526741817,-0.35361959876443433,0.09756206951354975,0.3436699089459114,0.2352763955399721,-0.17700494436229836,0.11079051080737201,-0.19219192749456226,-0.23511145180541443,0.028890806073929506,0.35398625518267585,0.3849126871353646,-0.06378548504192318,0.08327774336227323,0.19221771790373404,-0.27742224140249494,1.581551991123916,3.9270943772702447,5.983291885491071,5.632355624994379,41.44611280019895,71.36058945929781,70.55745404936357,29.98399751309677,0.4694062637423249,0.3721474360087895,-0.10798869617485186,0.2623713942483346,0.34935734339262137,0.19848682792682926,-0.09545309964209762,0.07339529206268616,0.24719755223356615,-0.21501143857102206,-0.1658440170922511,0.2628326485453815,0.530234846871736,0.1712204152219427,-0.2505572198621694,0.5536190196927926,0.27878816211523694,-0.005118959277482904,0.5559937740173415,1.8312388761653313,5.162542264241738,5.552660653842054,5.241735018414643,5.898942069182239,103.88639219030026,101.03999011630755,98.38759955782854,73.74935684048688,32.88880543071483,0.5732382380205697,0.5618092563826826,0.3739368935449494,0.5601125013207675,1.4162086874756599,0.21054954493331335,-0.19706918214612085,0.5296050243759556,0.5073564640824981,-0.0963885091342042,0.26551115219980337,0.25927886092027913,0.3234707630881519,-0.2080877162446788,0.03365027976313463,-0.18811017896873472,0.33064255942480314,1.9316844024804471,5.323404440553327,5.212287288929694,5.357427833119882,6.443383730854592,7.770099289417137,31.871647658022862,97.43834589259295,102.8920754879793,98.10563390329979,55.849495485870854,0.9120802792335005,1.1241441121795255,0.7416900205213546,2.5982901871371293,5.273921096198291,3.9347554626473604,0.37680279766028935,0.37546861402142595,0.35526372663209876,0.3671820826925345,0.32664427918029815,0.15026918113773424,-0.2978571469008108,0.007067722189282921,-0.03900074143147421,0.5540615585771446,-0.3660089162182253,2.5658506620210018,5.397295428645393,5.79062160155114,6.011971016822324,6.284120898475575,4.021471803830036,3.7068944630482994,42.01643347720978,105.03063092152496,101.68087602677976,94.07856053529044,13.85028355883699,2.628929901415044,6.139429212899985,7.592827312148324,5.8260946506637685,5.690709764172248,2.171791418375789,-0.03987548159706898,0.019238434167845514,0.2447401530026151,0.2755490561618742,0.46540068613825214,-0.11220230662755394,0.07043527234119748,0.4148058100008064,-0.33173122203223465,-0.2148201223979398,5.200511865267717,5.422121606783049,5.909984506376924,6.953412779594513,2.188629785783249,2.291325232141223,2.2122622320440466,62.365467673300685,103.76445892044146,105.45063806908276,73.33670963221249,9.323449796544026,7.511044576002328,7.232092542368896,7.403328373378335,5.6112292407300615,2.2914185394690882,0.5493388952169074,0.12513526567618005,-0.35149935880823907,0.4212353813578263,-0.18513575503453017,-0.24061889590339874,0.3014290666399325,-0.3302466741633565,0.5299452506156646,0.2024630322999095,-0.2821546850479152,3.63082307973805,5.743302219857056,7.153043142262197,7.770020751478888,1.8683345040812602,1.8884320042746658,2.205910622570128,61.92861500581801,99.12197702967931,104.33559049217081,62.99738277336578,7.958978244745655,7.287841206613254,7.464110526842865,6.323742776922903,3.897645335708071,0.5661041618211005,0.4783444840164436,0.5666863806161428,0.0752964096078487,0.21848132725302788,-0.2713441770174906,0.45211407398479536,0.2519359648929922,-0.06451597675299449,-0.0076460805288422196,0.17965169875052503,0.9586118935197402,3.4152241726477417,7.954005736316152,7.507694737453809,7.22972660979277,1.7096423000932888,1.3730469591238794,0.48183615968036336,84.65795745529898,101.43856352615673,103.28241310141401,62.794924192280256,6.887892634382346,7.550411067936646,6.44359425712117,0.8816871452934468,0.47678927738394605,0.10622230450440355,0.40187721544202726,0.1238891210349502,0.038508498246032585,0.5398178173285362,-0.09563560268377176,0.14072153973315388,0.12258622716044548,-0.2132962594646576,0.11354097724351819,0.7179920921349959,2.094680152536152,8.199313152827536,35.71581512637326,91.71488318293758,91.06499604862542,89.09302134722796,85.48836710850108,85.72781773446893,99.73416629314394,102.95064973588615,103.58908121502228,62.908524045721485,6.889841376053351,6.168756229920655,2.064429308442262,0.05887314380659643,0.0023583775292545933,0.4900071261802228,-0.14237215743008907,0.050395308460495974,0.033712332185131616,0.2910988853766612,0.5128774931506459,0.36385244264440475,-0.04955413155640227,0.4315912225082734,0.15649601513454087,0.3615071521174408,29.949020879759804,76.67107632882507,103.00729499129399,103.07448204245624,103.34559172859372,102.98249346751861,102.44581440167244,102.97700309548243,103.48884179926827,103.1406508856414,103.56612639337601,93.29183079599945,25.93141930280646,5.8695267651016,0.5447230999164582,0.2864672256140013,0.29297445738428546,0.3390807406594371,-0.09558179827804557,-0.001420514514311938,0.30605442342243333,0.47340004739441033,0.520061684050008,0.20676171760137846,0.25914557470673716,0.5673843910539126,-0.15986784150034694,0.04418694028978616,84.23122603231803,97.7641547887492,98.35798898198527,102.07222439139615,103.08772298831053,102.91914580989642,103.14216865282344,103.58467535727375,103.62382247023,102.73736975401573,101.22141801026092,100.66377616856468,100.04952072130756,69.43929045816908,56.00897321007322,0.2954855880342391,0.18924460938577248,0.12618683014085458,-0.2140382654471787,-0.30079306150330404,0.11185184833983312,-0.18240613850104048,-0.27254480710116635,0.5689939010384433,0.43206510760447225,0.3358597489048991,0.35099259411241657,0.24013181126419664,84.06479109375582,97.81995203063391,97.93537814557885,80.16486598441293,60.32260609916782,91.72180760419161,103.36696522975471,104.3120578821345,103.9558809404997,104.14580887838414,100.68178207412603,100.61101353190278,100.1135793648962,98.64823810004812,97.92043739145123,74.36716354563453,30.350837677383744,-0.09556098170163298,0.027296392125018068,0.0309792106032573,0.254645556221757,-0.36148872736837717,0.209499202439146,0.007666576102835568,0.2600368657658857,-0.07273989538528462,-0.08361325035854801,36.396212734118336,96.07161015179135,97.66868819723625,97.6255931526444,8.520939545239045,44.605529703388385,99.53149242516764,103.37393771610867,103.97770745697403,103.52832113814225,99.85799633822845,93.342831053188,103.69478383376071,99.11449926179282,97.32931281500939,97.76345223441342,97.77086354535784,93.75857120421331,44.01092732096578,11.852857761151196,-0.05636284112634719,0.0515870310710321,-0.22321229252165548,-0.22032367497224686,0.06832480130640108,-0.2849949589608188,0.3992313612531647,0.23981766339281996,41.94851674010519,97.7177124396853,97.75281684025362,97.97222002965383,71.04172803294426,99.75351863962781,102.77226847166973,102.73865015518982,103.2976044014722,83.73373805048102,31.177564526089665,23.468134823388176,35.46593458088194,84.82144402585222,99.2128341363256,97.70159785730814,97.80321925118105,97.82173079544872,97.20678275830002,81.56278418333521,0.07540039947304658,0.3564959104084422,-0.18031501320243282,0.5782273507615657,0.17212373771761458,0.3887222855811892,0.5778082234325311,0.1339724893845611,73.57468514583738,97.37488543701656,97.96747428239114,97.36664073182685,100.62977733908824,103.05865715602864,103.0854477641889,101.55678793069325,75.85906403607568,32.700418807023574,3.7331700410014634,7.418804807531242,6.7922757502343245,17.73597213341813,45.70865297812712,73.90629484526573,98.3873998251847,97.63787103530176,97.21031395391707,65.01736053209677,0.4904345456373628,0.05669873644090502,0.5481872770738881,0.32973296034207533,0.4926969267013777,0.44352551860655864,0.29863069313759694,0.43061202922214636,42.8140560008513,97.67110758045699,97.96808602183822,97.8877525149773,101.44757535679867,103.26530540996141,97.03124346611521,27.707014884085094,1.0265155703991566,2.3188228311259,2.100066294235039,5.019938391876024,6.004967959208317,5.892942994078817,5.857729208174372,2.6682324807442983,24.69150384370756,67.87049101752429,97.70326387594838,41.987840614310066,0.45476172576534074,0.521842368043013,0.04648706609181867,0.3197742232975868,0.47847948481312974,0.3505033922734158,0.29210561393985035,0.35735079079556076,6.36499595193113,14.088573895446837,53.08677693117891,69.1874016356277,17.310810762603495,18.86917083138249,17.54880814513771,4.674592538994214,1.6711508512498103,2.10135351881611,1.6893018738932863,1.5956715574590057,5.122565696141965,5.772100771501432,5.490684737505169,2.154754319498103,-0.33977529343978663,4.2522932313463935,13.809522429060586,6.136998071424496,0.36956787881640346,-0.33572787704538554,-0.01839233062412922,-0.013873416506524294,0.45648012043132247,0.33895248189375704,0.1607634408758634,0.0074373171027482116,0.5453920644546768,0.06979867576696688,0.09817181869442446,0.3802449860519883,0.9187980176703979,4.4210483771244595,5.941514959956613,7.1896872637382145,6.331952128369479,3.4127067359518746,4.3550735737337405,5.277798947396771,5.3459321340036805,5.683825028413033,5.999833678390706,2.243241690099348,-0.07027165992305316,-0.26998730920885583,-0.020489536143314765,0.5636647011885295,0.28920876510402116,0.42227375480414064,0.4153529766178385,0.21149432647961228,0.4915332531316919,-0.3500846711536898,0.07265004623211851,0.4668697533814283,0.5421013953609957,0.04151785478822244,0.27045535500063567,-0.21523165963198554,0.3740429136803635,2.9163332427546558,6.997374120809033,7.586496514492939,7.417946590780767,5.976786793181316,5.31170849254468,5.252039334981388,5.59561872399111,6.016519862707506,5.098171644257165,2.0163080023778024,0.016936403518562945,-0.3648742844052002,0.2209675729619865,-0.24470266678001723,0.11737987670921647,-0.0504998744788671,0.09803018383276291,-0.20834198918084473,0.4209115982724687,-0.22419753915267077,0.5811795763333502,-0.028964772016852255,0.3296878483511639,0.09651937564156197,-0.20151799097064416,-0.0964913660380073,0.4779481474509999,0.9766762230228843,6.867768060543411,7.5989241528122395,6.9760088268125084,5.779485689944491,5.806451391759939,5.4673127973220055,5.652414620857699,5.183837875128257,3.2126771815220927,0.030535456758762,0.5518646755168026,0.0331897603561843,0.5279352099406126,0.5656423148540908,0.3488891230269772,0.23623689116249574,0.5134602707065853,-0.1649153167156337,-0.26215770899825563,0.22762251438132863,0.5140033429842685,0.33057395365375813,-0.28886107333001587,-0.24747206285452478,0.14661537035074787,-0.1961008426985471,0.0985352565686949,1.8898966261854537,2.4534298686406344,5.703341932399228,6.423154790863736,5.657028973270159,5.346673535721674,2.693032718820169,1.52886721148843,-0.12421824701714854,-0.0818114879918851,-0.31167861335697,0.1933235378141731,-0.3164141101562,-0.07297699250288119,-0.1452730066755481,0.006258927362021258,0.45080840518994747,-0.35232871623870154,-0.1724582032331382,0.4589437717206542,-0.29882222387210955,0.10601784021480959,-0.0617936077371357,0.5016425374156782,0.006274874390064689,-0.09788138846814705,0.03973106529605561,0.547460031083677,1.960222537864539,1.8665797900132504,1.6243533003073762,0.21164076202591792,0.050101864625062706,-0.277965628093475,-0.03231996250983103,0.38232818481936576,-0.0430039696487792,-0.25451945554689337,0.3673709098658927,0.3864858874258504,0.1409581220841975,0.14562540932042373,0.2381175859374432,-0.2900163622450782,-0.027615987028808672,0.18936333954399975,0.2680572124670427,-0.12011200570435267,-0.08627039541748831,-0.2654391193486429,-0.33685032147408883,0.22306301385932273,0.05948112898165091,0.15504695257184553,-0.2975708080973048,-0.26629749046375545,1.2542442262666302,2.456711472138743,0.3288414215997106,-0.16355067233892506,0.41890055582807506,-0.040887216233058826,0.2835616293339371,0.13387529738208187,-0.20866712030501208,0.22732633991668066,-0.22463238749214348,-0.17785409261585955,-0.02477586468576369,-0.2651473342667099,0.19525627416209745,-0.13131973998124696,0.48971603551498144,0.33873964372189197,0.4506841517582624,0.15069207223876874,0.40309686906537023,-0.16143566839144435,0.49011927050066356,0.26515887240313973,-0.3243865830405091,0.49430905212155773,0.09048375339155608,0.4852169566926461,0.030585094291689666,0.21473161851626138,0.04220190321803029,-0.08328403891308646,0.05074996460430133,-0.17815445908997818,-0.2476484909190888,0.18441304105078715,-0.13652724255909876,-0.32093013231213896,-0.18567430936392837,0.05958237259228907,0.3990179164058442,0.026490516118931426,-0.0865501851981962,0.43059546330015,0.5139252790836966,0.20261674190261014],[-0.42455589237820024,0.0824428408588761,-0.4325906780947302,-0.34492640982625655,-0.28774316754896045,0.2321799052893795,0.2748132099616972,0.4695770832076256,0.4513598513375986,-0.4491836597621217,-0.09784553143099077,-0.2235956843232879,0.08233012581684225,0.11864199275607669,-0.099673669250788,0.06313576237716485,0.08374239703957964,0.31959484335909083,0.29565057172902365,0.42273738573636394,0.3162067822464415,0.4392029386809895,-0.4165698225362601,0.4246342544427106,-0.4382771378895983,-0.45354436047594804,0.4428332178842684,-0.41665523523969006,-0.13784953170197248,0.47157151098731437,0.36641080205206833,0.22695073408183467,-0.1301002329969009,-0.051582546621911224,0.2851985599073648,0.24555900113813148,0.2764339155629568,0.07680820972542092,-0.22481512519158062,0.28247912084121307,0.32885447878727053,-0.42392228829728046,0.05295098857442429,0.1680971605726871,-0.018294055439174874,-0.4528369662698535,-0.44250335597297386,0.3883691734186952,-0.3898121388090034,-0.16402103657526584,0.12166171871523059,0.3264887080922597,-0.3677966296643252,0.39608585577786865,0.16013799277569057,0.41760111144544754,0.25010104513915643,-0.41643442490984317,0.24183715686714527,-0.08755679647237247,0.12858160443607203,-0.2683802837148587,-0.32766047993766195,0.2564803552777521,-0.22695582836935427,0.34669161524877745,-0.16270497097937492,0.15649365046495364,0.2626371769444773,-0.4081116599430692,-1.8530959889658102E-5,0.07663852993508946,0.22445598556491075,-0.4728467796017087,0.3559408163391654,-0.4188942833921263,0.2597457719399818,-0.3411111980832757,0.4727727055670236,-0.18287328701307606,-0.2508816340639992,-0.0348810876925205,0.44248649810386775,-0.3738898246309512,-0.32606184323096254,-0.04570009746887079,0.17404637865834183,-0.16031327429970604,0.3891487630192234,-0.11081810683243008,-0.35442110483537403,-0.06427014549921119,0.17944095131369078,0.4585178385200345,0.1203205015379486,0.20778641186036664,0.013154125426945521,-0.28844359283150545,-0.00154534467621298,-0.13585518650907194,0.2872233348775696,0.031891429524661646,0.4556246476566572,0.07785763446452931,0.1756354331902978,-0.3336819197930413,-0.1866982657559553,0.21882392390014072,-0.34408664335625694,0.10253415611297617,0.4102726642043351,-0.12414579784811786,0.19270722316945266,-0.4246141847900734,-0.09384306885212182,0.4285234627334663,-0.4481988077728143,-0.17007350323259152,0.4711355032655663,-0.32037848293237225,0.20953199472427855,-0.08520611319345141,-0.03790572401677246,-0.12973283416457815,-0.44977524649374073,0.07636512593768516,-0.22174791579123188,-0.20462583165539253,0.16903793934216618,-0.20841108687773097,0.0367951090851761,-0.025329013615164774,0.30963505463162566,-0.4259727627449224,0.07454300001348906,0.2783372214648751,-0.11913358767042995,0.026109174581707383,-0.3748052577349852,0.16377716332339506,-0.31609701918354516,0.14867880650229193,0.2040493166816867,0.16685098148861555,-0.06719216628188533,-0.16728245846159503,0.27621466531163014,-0.07625130818620118,0.08344935598305984,0.09861974273870584,-0.41657748752368007,0.27192343960444704,-0.41416718116662726,-0.309171229353134,0.16046634551826056,-0.15371441829645477,-0.2659715836643748,-0.23412572735671872,-0.008111747414901397,0.49418197826947174,-0.36657151332778665,0.34950069078447327,0.4163079621456061,0.21376617335745796,-0.3305495560955855,-0.31026650618725743,-0.4721705077842108,0.1739433797705002,-0.2819951739934873,0.39528362664515143,0.3016447487666694,-0.4499905663218613,-0.021450327426764237,-0.10696110811276154,0.4265960131008569,-0.4136148225168679,0.22971130186738548,-0.04960719273601279,-0.216546757710865,-0.07631688945589704,0.12917561159850216,0.41488209367391193,0.39581155043055,0.6742109034639638,0.5093463804459368,0.3441431896678772,0.41050079018456564,0.14277906335788562,0.025322052296598122,0.08493471874216817,0.2485239001555568,0.1357487785080534,-0.271464265884528,-0.19514378211275935,0.09266415199488892,-0.39047044737675735,0.21413213260700886,0.3485075413093681,-0.031654254617961626,-0.3180788820013125,0.09885837880727898,-0.407534529045511,-0.03517213995343974,0.32257813227034365,-0.43943726184210713,-0.22421273123918348,0.18085857308688855,0.641474147793435,2.664353565413185,2.4204349029495127,0.858958113811586,0.018247660145520317,0.6069294215654952,0.8831522730337941,1.11141797357908,1.0176479737907314,1.4560108842432442,0.6677287516909571,0.16624495974954542,-0.18074082735325547,0.06416019874829894,-0.31942254381425444,0.018623427043987062,0.3693600257532492,0.4533769372348269,-0.09237495703950288,-0.2612046811340828,-0.24479867355983823,0.025125098153970682,-0.18041480674584676,-0.394207209600088,-0.2180229068227738,-0.4200358353073928,-0.8050576673403786,-0.9829090917043801,0.2995019331684846,2.2508886630628084,2.3402864233003404,1.929591521124692,1.450368872950342,1.9442839568091985,2.1602078022144884,2.5048429667399894,2.257534887967481,2.0779983856349813,1.3430003679922233,0.26779553918295285,0.34861077665320667,-0.46971245354839575,0.022430157099398985,0.17952573991517737,0.13532587414458486,0.3476125988468662,-0.06545835761466268,-0.2813047168372341,-0.6163719547324076,-0.6635703033270761,-0.6661637766243285,-0.40601215165569016,-1.1272608265825508,-1.2985929324334773,-0.9662112787658058,0.43049826791839163,1.2175475568927452,1.747196034014942,1.7794997508353254,1.3866259551977884,2.27283499430385,2.1188677379789844,1.6066178913351183,1.6641163760797866,1.98526443787614,2.0825326778843887,1.4123922507795847,-0.33847167366273345,0.2585231749111757,-0.41455349967506966,0.26324870266754535,-0.46438884136419717,-0.43352814278024643,0.0781288581157378,0.4384814539813351,0.42432066585559225,-0.4500913573378402,-0.9629653941073345,-0.5223053095828389,-0.6766464950806842,-1.2997618424155968,-0.763160561174631,0.8046129650568663,1.4434615758749016,1.5534129685402989,1.0862345432817375,1.4222267355952631,1.2404922374400194,0.7762748712017683,1.263695129041251,0.5977239969819592,1.9770563846205131,1.1001842899681984,1.441562403742484,0.8219597552982495,-0.07816946080622014,-0.47138170027855836,-0.41198300524386383,-0.30931752956698916,0.1543057375969255,-0.19220885904374893,-0.06969003308952493,-0.3353267170597413,-0.22242374176898996,-0.9250931390949493,-0.8714388690110276,-1.2377674767889206,-0.1640521821467481,0.9809745285137973,1.7478334734408962,1.3842790344006393,1.9517722556630703,1.307322474106802,0.53676657701081,-0.16685070676874542,-0.1328571630611248,-0.08458432664729038,-0.07213242827393879,0.4480606933443789,1.5387000755110343,1.186009404582095,1.7927910072058837,0.5871892778507584,0.2193995262965901,0.3016210211995656,0.2654541638490935,0.1848877252511287,-0.14427948826134313,0.11683587821854509,-0.3422507906274631,-0.2183285478349724,0.46296279176177146,-0.7750880322291448,-1.2272001273658524,-0.6023355512133971,1.3864690695616737,1.373245907221074,2.018110296831614,2.800641120461265,1.893161447643079,1.2419760831570414,-0.043337906332357325,0.39852502931547706,0.38901555274597066,-0.030275163903087265,-0.18808832155158098,1.2648643306611271,1.3147611459448678,1.426765849279531,0.7807029310887477,0.39605823513642435,0.2150988631151256,-0.23015862122512254,0.35268296142208444,-0.013282472652202634,0.2360299381500948,0.23913275277638169,0.36168425627330325,0.3484226676496738,0.15765423540145862,-0.5502580990874606,-0.8859608966434229,0.10721340197461829,2.433282080432218,2.6245507389412817,1.4381735873152803,0.1584729706777826,0.03729580631690588,0.435906746862782,0.10234343336769469,0.020985536978191,-0.028164191642079506,0.09317855340681452,-0.10200393000797242,1.3722519220951686,2.0427507845202197,1.4194585196979999,-0.2714084189977133,0.38547499899849086,-0.31646052512464856,-0.06366326635415062,-0.24202769521891773,-0.3686700095935247,-0.32016641567307974,0.07408609923637985,-0.18055990065527722,0.08647711439477582,-0.07896586243535114,-0.3061855183622963,-0.17592579621054505,0.134110878349321,1.1442660946038288,0.9655362321268965,0.7805412519823656,0.16839791525252637,0.44455460999719965,0.8199990981759293,0.7234649772207586,0.716481710854548,-0.09670717027469566,0.4790599898300376,1.0281191428672627,2.3146415457348675,1.8990757847060382,0.8548951162999456,0.2020074192270685,-0.08112601333485196,0.27770620592292855,-0.3565482212984997,-0.34791759615520657,-0.045453924551958236,-0.3491234684226727,-0.383443428444636,-0.4613184283973309,-0.4151582092557349,-0.42450199804539235,-0.18881413801556451,0.33518243992255753,-0.06305771955579587,-0.0617225429491875,0.42796390340950585,0.436214848677532,0.47072674350116817,-0.15445829330413435,-0.14943937426399367,0.6784265961810343,0.042583861396434775,0.17264427445209563,0.4702707953745839,2.1085663391332163,1.5640233362129836,1.1872959990994219,-0.06614959230284245,0.1964286859802783,-0.029754700261678868,0.44269039227972573,-0.14640949401001574,-0.12849020013603027,0.4095138059527017,0.04908750269513125,-0.01437768355631957,0.2527052344936978,0.2748857939187459,0.22610009022125685,-0.21565779058978923,0.35218972612628013,0.08667566552084356,0.06147648761299074,0.6652324511485507,0.6422380866042927,-0.37453700498986847,-0.0033524821546691286,0.1441181729399047,0.19555857241823907,-0.016238741761461284,0.8076111895941137,1.8686811015296725,2.2547856967838635,1.6562207705909606,0.008075911557394344,-0.06288234432704987,0.26135776222305745,0.01992853752030649,0.7616783313386909,0.09802758491024438,-0.2926899319532756,0.26927240166292793,-0.009209081303389939,0.11115999229665077,0.30574084455129746,-0.16956760765548673,-0.14729293009313724,0.0659588356193446,0.29549680512721854,-0.28119814539101756,0.4123993167576924,-0.06840947687373639,0.6590184046917928,-0.027550339900708987,0.07228206721267061,0.7438583770328674,0.42454377208514293,0.7429695028027974,0.40214520004515075,2.439844689696787,1.73368482930392,1.3272572415927635,-0.6812778648165578,-0.16120441299599997,0.030480392801690515,0.4887303977522562,0.1727756169009798,0.6698703455624111,-0.06635544799828319,-0.1633404954715268,0.10815705229984365,-0.059173485330868705,0.15628495087393746,-0.3762905933131898,0.16471746001678336,-0.09747426584110137,0.3210076444438002,-0.03549083710695472,0.17888455232423042,0.8132102792019067,0.35600318546105375,0.2385330911038606,0.6042076978232698,0.22413349935011484,-0.02914791590942395,0.703953752341607,1.768725250845422,2.2201737386388687,2.2007335305412923,0.10237961145801451,-0.7768087358266854,-0.8460145362630729,0.6651204344869741,0.19446350049996636,-0.0722447866901233,-6.086881707458858E-4,0.007183212384112403,0.18666653263037009,0.22347715377700594,0.004778454551125026,-0.24914533412870168,0.4511793558667895,0.08511468480834111,0.057963382505516976,0.15026566872206426,0.41580691862807906,0.33214725018159763,0.2957706758019366,0.26672528628028475,0.07667141490799684,0.7357975378897188,0.31610262062746164,-0.005610823593880376,1.3264827814745521,2.1241577654758212,2.0150899413849133,0.1817104001003431,-0.6288486235851539,-0.9054426116351332,-1.0024495665601094,0.14754534377201167,-0.16408092931064472,0.7127769230880654,0.7545004039501069,0.3972713271043691,-0.32217743683184596,0.13368323462941234,0.08303373060143832,0.34022750262526175,-0.46556745130447774,-0.4223569029188493,0.00916786379553066,-0.35229016859516743,0.4316599825022223,0.004954425029420853,0.09434014709383201,0.07138797845792988,0.33414471348169655,0.3184306337026772,0.20315622891858,1.102316056484197,2.327319801638101,2.5524843799875803,2.4756272244516784,-0.18439848263718478,-1.2241442245563503,-1.1280750611881258,-0.01401377114788499,0.2914108493227914,-0.37432679916272565,-0.13348869407681746,0.33457953041857597,-0.05433128694090067,-0.3615268458195432,0.3906796220190221,0.010762154993967763,0.07522312806867004,-0.1496985842651158,0.34823049044040216,0.3094727266283884,-0.10594051846867894,0.40404240620583803,-0.15534876872609427,0.3116822576402484,0.35895008106962045,0.2304830376278309,0.3649180142379507,-0.10328524571036987,2.397107515090982,1.9553592239910924,2.6025302711508194,0.3809627444164777,-0.8570560599405241,-1.2149240935744983,-0.5769827569425436,-0.02741458116382184,-0.1664108353894848,-0.16471005440362751,0.0506445518122033,-0.07171160359208305,0.3393297414817795,0.41092131433184775,-0.4664883234848877,-0.020016434925453026,0.329385550709984,0.2511409968325206,0.23942663541720619,0.4382137449172414,-0.39191273427449325,-0.36761187389551886,-0.2439771220890639,0.3734887755728865,0.26153594320575413,0.17970269421926122,0.04428360648767149,1.5094877030011,2.0048674375473396,2.840036336978397,1.1623347777303228,-0.23049131821692065,-0.7506165557923201,-0.7712587043294244,-0.6775180365273987,-0.15840560892757988,-0.35066882408767824,-0.3850943375593485,0.255605141220156,0.031545391676150995,-0.31238680571687677,-0.3286912082073756,-0.08083084389346498,0.302159144631783,0.30154011197717223,-0.19917954638633578,-0.2054130543004605,-0.1771613132603476,0.11325074217052007,-0.15568620220210577,0.07920893365784756,0.4059884852996264,0.03211989628012393,0.08939260475745477,0.7996329752273112,2.046044669382234,2.2535955018476193,2.228066957328524,-0.13310710425276712,-0.3833195121942033,-0.5386737047523099,-0.5929209072785102,-0.6213561119602774,0.3838497009310616,-0.027939520407072056,0.4669961951111659,0.43383286226466744,-0.3432256134248909,-0.2419273578472805,-0.21415859217655325,-0.3900949375102304,0.08497918801238168,0.20212662878449347,-0.025617666720081235,0.29680144126251984,0.20628893604959164,-0.4539222052043254,0.4184544986733747,0.18160439145549095,-0.22986120934103685,-0.22267716870329105,0.01445497388180956,1.8802203557995263,2.162327786600539,2.709540722962941,0.7835590980566663,0.16091178175759593,-0.21968858444617714,-1.3423102137489833,-1.1464425917382783,-0.716242395561312,-0.31556284668652307,0.3286724026499399,0.33203741972918177,-0.05381343009037959,-0.13491412500139904,-0.17921281760774824,0.3644987974397006,0.45634787037673874,0.14828180462464075,-0.42654942350895875,-0.40044881130360144,-0.11384667547266146,-0.3370665875297855,-0.01644182045550561,-0.027718430189842918,0.022121241410786825,0.42064395000071064,-0.40309911360312806,0.22765950020002937,1.5015038422887008,2.143088174895157,1.7276296997356877,0.7940642505579276,-0.39631161342529164,0.0027261014784452087,-0.4537574721869847,-1.005528065016289,-0.5854008577907535,-0.4694418282831294,0.03527082563603902,0.3236345388339001,-0.3966397403983326,0.42527059493967456,0.19028807476379453,-0.31828167695246357,0.21739366524638903,0.20848034340172,0.03554723015615189,0.25630999823607004,-0.22221208307367438,0.3242029843902358,-0.39440112457125326,-0.3467595762649312,-0.4240305068115338,0.13306456136096179,0.20046708725678766,0.10200066542976835,1.4657097931166163,1.947516147420929,0.6745842793344878,0.28165928995728773,0.40038847962509944,-0.38783826485504413,-0.6337951247034206,-0.7542966355517112,-0.4923447329105558,-0.4168496745611974,-0.10832633153231104,0.35769807732753306,-0.24322510794893026,0.1257589897960972,-0.20552886134191073,0.34970579086370635,-0.37011362817493054,-0.05186702371453834,0.28621832022564847,0.19661264643321627,-0.0075182580023348666,-0.23289400191523638,0.13597069909235868,-0.06680552305315893,0.4250235468861516,-0.05396071238429691,0.36977378978145814,-0.26866403889675694,-0.03416549266640061,0.318692207949921,-0.3864023317715387,0.27361326867883407,0.13667712626579,0.28379880168961835,-1.256627858465533,-0.9630928788517197,0.1180511478531262,-0.19915583593589772,-0.417920652354547,0.31411884907198007,0.40915824563228026,-0.3584741285833736,-0.2777057280590809,-0.14600059553172978,-0.36657201799223305,-0.34264324804798146],[-0.43311218950343705,-0.04912860314454958,-0.22816820282658778,-0.45550435440168296,-0.3693421109656785,0.3113571758451214,-0.45347442242186653,0.3958773951916256,-0.28747196219977145,0.30454618890598656,0.15124350669176334,0.34253905168762505,0.473330440297172,-0.10908389908264124,-0.2122446590547721,0.4490730396841687,0.2851375541909109,0.27289027084310863,-0.04120128094344522,0.41011986663978095,0.1404072018713917,0.2199332547853509,-0.124058041975396,-0.24170308319519926,-0.38975399084764145,0.3936096467902676,0.369216498175649,-0.012422842069816586,0.4770519149956163,-0.25702814358133347,0.3736576118266998,0.2871665618679299,-0.30415061998337034,-0.3338201696355161,0.37428842491662007,0.1775594563582517,-0.14012861476521513,-0.3605193322618254,-0.13533277819567976,-0.2582304652910818,-0.44063034441837706,-0.30041247836673635,0.1148881969071791,0.25074017321882414,-0.3217500175014299,-0.11990266838465835,-0.39711411631411625,-0.30736898523156825,0.22093240536137787,0.396873726022427,-0.06196067359582425,0.331058655023761,0.35182596024686935,0.15129617180536933,-0.4015937463295832,0.13743746036811902,-0.0380145330178629,0.1239387366959459,-0.037560826832052946,-0.33267706833477534,-0.19811658435686214,-0.2854091714415784,-0.4072561037290178,0.28010242522885875,-0.46421777157006,0.24757031145852124,0.42333786425208403,-0.06448986748548459,-0.06806714756691418,0.0040029990267196,-0.3870506169381763,-0.11073952689528604,0.20375301370674925,-0.08484441458104741,0.4551696306441893,0.4535988624287669,0.31025391813803105,-0.24699189787099773,-0.2182647746816194,-0.36322475180642727,-0.4407120292576859,0.4360384298712088,-0.14215891908449424,-0.021719244582490718,0.2846751842579881,0.22966871938508804,0.24826637825909026,0.004347436934119575,-0.1620451785203115,-0.08801845222619159,0.08005660958977565,0.04035322772996997,-0.35264022878030066,0.3961669782065645,0.4417626334538351,-0.4661914839450697,-0.04932483681827762,-0.14830333160787829,-0.05939012160957452,0.2631859538160538,-0.39512217389442045,0.046445356643411304,-0.06244031863728604,0.08418504351121016,-0.28611796483849267,0.14190153546702639,-0.10399087096084844,0.09604040929822619,0.3463324118046662,-0.2368246186984172,-0.33721144250203255,0.39613007629778996,0.33818470916825016,-0.16513415325508246,0.40035342128405,-0.21838761659199507,0.28981458279590017,0.07274007639872346,-0.44371174729025115,0.35177438537428846,-0.27544229828872296,-0.4000931547572123,0.09085171802172538,0.26462205410080714,0.4249632117493742,-0.4355000494732772,0.4349886011217346,-0.39433936460925745,0.35461555800804834,0.023827253676081968,-0.2300835658030264,0.08581671022254027,0.30690654559237995,-0.42210859386398975,0.006128286940055915,0.14964189066400216,0.29879174247196466,-0.3174673032443601,0.34200573010907287,-0.10697056162059027,0.04431287717196842,-0.45104507899406127,-0.19682822073488437,-0.18719086353727837,-0.14546384347839517,-0.00553814620402215,0.20178521061172133,-0.21079239017775342,0.06196733878179069,-0.3571818709739674,0.15496915773972475,0.028499330022306542,-0.44265199998793986,0.49150099307314743,-0.03477360383241668,-0.06659552901139082,0.2675187447979321,-1.2770720266713949E-5,0.4691876021160267,0.18180546458540822,-0.2111872172246217,-0.43185160260140565,-0.29971494842292373,-0.3308110449432307,-0.40686428798739627,0.3666220448951535,0.38559266305744117,0.33846758174415686,-0.0551798543379793,-0.04335281514116376,0.31101325987329603,-0.12573603795664448,0.2590242667690492,0.4055527289762316,-0.28409260281156334,-0.4567194142574542,0.40800783958267545,0.1567305426021005,-0.21087360421562168,-0.15861417817744133,-0.13988753550528535,0.5195100944001569,0.15425299710176632,-0.10166813680216624,0.2754276673354117,0.2498185065351599,0.1299084478675165,0.388269837143666,-0.4463880114550455,0.4775075511730657,-0.17182638925074573,-0.41801225654160884,0.13616121720128593,0.05602008346851498,-0.3230276652264262,-0.032276220219792706,0.08995528625119906,-0.4367265095937705,0.007594618176753725,0.4732428850174915,0.4395856160946735,0.09306755854344828,0.004204345912348511,0.21495655336805444,0.04098515411346289,0.18932678390314187,-0.3605047597759041,0.9683945817569988,2.7566116402653904,2.7476802254112367,0.8193665356984782,0.3708716546924725,0.7595389478735298,0.23824516509280858,0.48911019444559267,1.7158776368391493,1.3790002769707788,0.14666754070288393,-0.25531089083772707,-0.2831945207442748,-0.24958022106679578,0.29460090964073826,-0.015739127280922527,0.25563461923357217,0.07369157975857024,0.17116192370722957,0.2993370334373965,0.3095045021335788,-0.3265224422003925,0.4539229729349601,0.008948081394938166,0.2592773423122689,0.4158411169454373,0.3421052294083807,-0.05384259859750014,1.7711778934897129,2.645581112968692,2.324585917295348,2.2039419382811265,2.493295362652956,2.824921523042661,2.620411103295747,2.622861248973044,2.711724866677982,2.588519010859548,2.2692006357171506,0.47102840247024824,0.10110900667382068,-0.020645581309743595,0.28158276029215884,-0.43856112781714546,-0.09033869133601599,0.25507233893321224,0.23731170413292307,0.0632874068683176,0.24904562007460315,-0.30902324923588886,-0.22839685831746995,-0.26442817050458334,0.09335099464406464,-0.07108359209495758,-0.2682251361043908,1.3554845391033767,2.164354793910402,2.5846411946633747,2.567147730662715,2.635916222021274,2.4241461748956037,3.199253511243642,2.602207613239356,2.7963812811849125,2.305360876981468,2.879466057199079,1.8000171329946697,-0.14334205321847926,0.4413337991034134,0.28047634005464317,0.36944912998287566,-0.2948072254747977,0.07433072410938114,-0.009631881005443845,0.1444023860665598,0.2832950158434536,0.03299449229172315,-0.023027999684940344,-0.03773791474984094,0.15791273194994807,0.1454089858989493,0.3469706593504497,0.9188062957139971,1.982756228568526,2.355212531708622,2.1924303877701616,2.1471310044436196,2.3535357564013144,1.7226285185715056,1.4176046276900514,1.5390355528715045,2.4929904620467935,2.574355727862644,2.5748063935565617,0.4459417142498313,-0.15986093609280694,-0.10063987808771085,0.0424543634946534,0.39671698606709843,0.2790676751786669,0.42012894877300877,0.13136356452586193,0.45677654449796656,0.14101644031287103,0.2070883880553866,-0.004880143045901116,0.094941282547916,0.1915063519868785,1.10232818691415,2.0113330944418517,1.9743533654508998,2.67233861782225,2.243586997130545,1.804143244121269,0.7287516258051961,0.700094799901518,0.1124439837261145,0.6209186225928895,0.7107787714512785,1.8818701173684595,2.6348002537651736,2.3014822763108396,-0.12436042455028432,-0.06801184322076076,-0.3311537958422756,0.2040681974316808,0.46224914714825194,0.15265612197911888,-0.04625526070829735,0.42101885517794335,-0.019553089646194823,-0.018407708204970508,-0.4320004069133634,0.02269291201343468,0.03636847362522727,1.5495400123522876,2.4247902370451717,2.5956411230989986,3.203520373418984,1.5590821498404193,0.9633161586274139,0.19586715070757293,0.2934488785780089,0.24752957011777407,0.2526081898382051,0.3600528350810913,2.065044493277051,2.261696731345699,2.153167140818592,1.6117577674812353,0.3956946728024643,0.2049966297563682,-0.4278648389559694,0.14653473896760705,-0.32665518197120985,0.4099446211489411,-0.06680896370897632,0.4389919266203625,-0.19859715550039567,0.19742422447780392,0.3986567736956738,0.07868441345520417,0.7195317275034732,2.175340629621758,2.8400697643224038,1.7220551645416293,0.6445716031865878,0.6090641999999744,-0.11167938040022646,0.3602149250024873,0.1432281558049564,0.0788104649652383,0.809564768571621,0.8303475896265387,2.2204201330198243,2.35730960003098,2.1265400212775925,0.05534267237462037,0.16177131820458354,-0.33142697678318334,-0.2617406924666017,-0.469572071214051,0.2831923077723243,-0.4423520547975541,7.757561656593134E-4,-0.13394056674547775,0.03952873428119547,0.4673765517299049,-0.4699805076170338,-0.22687414643045642,-0.005490030642949903,0.8728659154737366,0.23588036370088655,-0.06411291899237126,0.089234815659965,0.19515083602060948,0.696855464260151,-0.07425408447344534,0.4307445547373354,0.8268228227696487,-0.11460370416800608,1.4310823605979648,2.64381549234991,2.5012652372402893,1.8579886442874098,0.13692289904511398,0.15057516872445995,0.19593331187299595,0.0021191325413447435,-0.37218549016284797,-0.3255701765894234,0.26138338319751125,-0.34085028395036754,0.3983403527153943,-0.423704071607469,0.152936035333884,-0.1296583760664529,-0.32758416952137337,0.109199261484247,0.4642370002706381,0.5288175188648766,0.5827744970869317,-0.1700739490373564,-0.05950685207360795,0.20782871431739247,0.06661180923443139,0.7002059685495288,-0.01057732951427276,0.17041613327076677,2.2776855262159326,2.5668620934967934,2.5497280126363497,0.6720292363414166,-0.0035304171151344654,0.312930240991458,0.2946369903245804,0.37521765013578967,0.22703239859077257,0.09453456721848605,0.45487048167212546,-0.03927309152364185,-0.3505965229918768,0.4430526154575058,-0.16261528582866247,-0.4238038705551442,0.1916641675882446,0.27476379619204006,0.5487265734381037,0.11311193263361707,0.8386983317733119,-0.31260697464042053,0.0979635963972435,0.24143851062995342,0.276520272046327,0.6141677201275832,0.17166842931595871,1.5894266336927645,3.009690506260119,2.4077208291951004,1.739555064092284,0.016274424354369377,0.41836406115423935,0.7973703511164578,-0.007690123781516733,0.4390329541544018,-0.30854632237576046,-0.29445175378865734,0.4049889441931873,-0.14134599054465585,-0.4691696798884229,-0.256790034039855,0.2988750131596652,-0.3372369043185701,0.13240681866580395,-0.20583108513736867,0.6769064016476158,0.6907401244809348,-0.029571386348345774,0.3935832552388517,-0.08390891329408923,0.23655962269440342,5.901095589460059E-4,0.801141402284369,0.9917272117720073,2.2610177785948253,2.05163140742096,1.974501286605296,0.09793558839809349,0.12617342557498193,-0.04823518841310542,0.35378822255187004,0.38103071205867967,0.01751998308529945,0.505415918095548,0.12524586724073702,0.12348572554556947,-0.021801041639620457,-0.3503920577767706,-0.12408947091444494,0.03344232141086133,0.4073262378925161,0.22209381956859012,0.2825625642257921,0.24169777084917332,0.5431573420494421,0.49264046925744376,0.14631894617169794,0.7939243160024887,-0.1088279781110294,-0.06951600260525553,0.5394228439387321,1.5580846624674802,2.222216147713692,2.8863702453164937,1.4122930804147664,0.08028604862656269,0.2657923673495167,0.6114800269766293,0.7822963335822819,0.7996991007538843,0.2760009489644416,-0.14510595845260785,-0.29073284315411607,0.2443942523347275,-0.03906566775864215,0.20384116702558525,0.030864026510748682,0.08944960530582587,0.11610547927833229,0.22409397630665825,0.5025477795536282,0.42774756592623175,0.0927515026431655,0.4940356557519945,0.22851955307558344,0.6363166335208357,-0.005507256033859265,0.4102047364267008,1.1786505840596004,2.063825988145015,2.6585537582711987,1.4138925059740244,-0.1974912113794364,-0.3187947427413272,-0.030153491408187377,-0.11851395717493338,0.30243217626926167,0.5320209186577285,0.14772162544678763,-0.194521629795823,-0.3960450631030162,0.23481269539960875,-0.0395901189348016,0.14670138654109216,0.18394825359598263,0.2907300543105799,-0.3788483285859673,0.15240314745417505,-0.2813804311057579,0.39656133774941366,0.6712864598435232,0.40076196541515063,-0.04166909433965929,0.22270234268861114,-0.20549929204366765,1.2665314714962697,1.8786003616361135,2.868705178552839,2.915779463386779,-0.23672869704250193,0.4452958934065421,-0.031220596428720444,-0.39325804966893035,-0.4492629601713991,-0.379267045369822,0.1670779898980064,0.36320162848112225,-0.3899080528067483,0.23768105931061204,-0.1244158306267546,0.17713890394072734,-0.1277302925971968,0.4408969727923877,0.3617775280256162,-0.31518453381877387,0.437926661390061,0.18748044924936097,0.017461827638143364,-0.44619702365217234,0.2505955616751949,0.06789806786659201,0.21419506674028607,-0.051456798203349564,1.8445273427968583,2.1458466130770146,2.399142991438287,0.6810811786508799,-0.2453444212469836,0.13890192164361242,-0.15119686600475146,0.4320306829731967,0.3345849560786587,-0.2181104354458456,-0.45822039526057035,0.3678413447408281,0.39996236378033906,0.3642908727882292,0.13763163699675812,0.06266722469111,-0.19401559641065932,-0.2480658651794104,0.4247312625566358,0.03595888491727662,-0.3355569330479364,-0.01713589147714957,-0.12413612872681161,-0.2346435516768695,-0.12998699165331104,-0.17460073776677845,-0.3974296961752142,1.9462254688861154,2.117721811308825,2.562281542446142,0.5028233955302968,-0.03215747172703724,-0.08660827930188124,-0.010695809886718794,0.3919572043606201,-0.33912023659357315,0.39540503881459227,0.20456003050799193,0.12618441545628145,-0.41026651618117443,-0.12694089231128433,-0.17404114128065676,0.18922078123599714,-0.35275134976629946,0.20676861311430136,0.403563102989613,0.014610322423896337,-0.35851244296123314,0.3089256354554194,-0.1423680522761613,0.4013580962458164,-0.3274180263722775,-0.3738867396432934,-0.32963594009630665,0.7927932699000992,2.3060976034626455,2.33037855967334,2.0509967349538005,0.40316325318098806,0.3963362580988122,0.3401312972076893,0.3469341493520914,0.41166200061640096,-0.07411178821395058,0.12151755604899003,0.41010327027922827,0.36579387878899644,0.10395012871414595,0.04303667266522791,0.26422304226728216,0.19925891407993152,0.3032197275510942,0.0075909770404890215,-0.2651181250644234,0.35627445270286917,-0.1709303011182679,-0.4172701976934836,0.2919799528460073,-0.46854616381223974,0.3668427136075498,-0.3688789895724787,-0.24801195710417787,2.277714842566949,2.1261362833600903,2.1165356867060563,1.2606568388701027,0.4007559390723021,-0.07925543172283044,0.3232544813482864,0.1129386399325441,0.3422265504848057,-0.2752389409777282,-0.19837734127977727,0.00738579178973786,0.45980824032296286,-0.006283566901151105,-0.3192046622382763,-0.17274769713883503,0.20188403108569108,-0.30345281129504453,-0.26379679428050623,-0.12523014205185895,0.2639224415552413,0.321957675314045,-0.17263072212842734,0.23436640651688306,-0.06101063333294828,0.18432702582621402,0.06696848600141556,0.4159520859108813,1.4214158094074976,2.2732331723921178,2.018722672032569,0.5114001368626471,-0.37205379378129316,-0.14858952844351886,0.3655248997068744,0.17841657928310287,0.07995086702254699,-0.05580092554830694,0.1905546653045643,0.13331386008864113,3.695545726780597E-4,-0.4446231783261106,-0.04084210101050675,-0.10149887423440036,0.058057009072618466,0.40221479253190295,0.3181002923794449,-0.04692134198788277,-0.38841490959030106,-0.3252861133674531,-0.37892904900498225,0.2917947481405524,-0.2820390493215127,0.09696055341861645,0.09672382052736081,-0.11007826107393381,1.335147374623858,2.720390285043408,0.7969904524415399,0.26626324792080597,0.18281749518484763,-0.2529104546026421,-0.31696758179118817,-0.1626358953042374,0.3089104534488703,0.29232910996106726,0.014248997207521662,-0.005966710530107233,0.3122943521701455,-0.2426826183198579,-0.1220128286666308,0.4068177935570745,0.34064202060327525,0.11512240714885844,-0.4306347157245561,0.20355932483941067,0.381029205611504,0.4593362760091783,0.20010868932781445,0.20642878157861466,0.30976074452676977,-0.44831702587458777,-0.22293422629716284,-0.23829779434064777,0.268352751524118,-0.02283455067757329,0.2970473472539491,0.13981931336708345,-0.05208919871069704,-0.23797788395777228,0.17442126223258522,0.10831531758553181,0.16283949418366545,0.0430276961892361,0.13027590122738628,-0.14500889106510068,-0.08531420888555316,-0.19165611852401304,0.03856594514248183,-0.22920334922550348,-0.3194565920801888,0.2269882656615456],[-0.40838621852289814,0.4522966335634115,-0.1746131231556383,-0.4015894368251675,-0.15434289676670843,0.08220117195768828,6.758647908923672E-5,0.08451830068026374,-0.26900479865854515,-0.37125877652297506,0.3085478156784775,0.46306878221274456,0.31971415384987356,0.42860470501404413,-0.24659906112045096,0.48117488767751293,-0.29247846267338723,0.11917798138870236,-0.07326543534445769,0.4081246557719936,0.19161174456255006,-0.24741297591249803,0.20802298992868604,0.41187896721158557,-0.18470536938827972,0.13432935208980595,-0.2535090693421825,0.36500256999051395,-0.2478903916524521,-0.009738715620320137,0.4100235675148845,-0.007149907218618657,0.3999495206262783,0.40999162980587733,0.20772392154770264,0.042210292562319604,-0.004290670643126493,-0.46129179743184073,0.2855729665902073,-0.23132087413801297,-0.05684791554529581,-0.05687485498194575,-0.19583073754056407,0.16578938243167485,-0.17895001477057051,0.26058888889648163,0.4342336946098006,-0.06163335063340561,-0.3447888156137093,0.25341764403771183,-0.350538301856023,-0.3432867201905905,-0.30325719911503013,-0.46672618939729377,-0.042611019738395164,-0.4329602960477401,0.2998290303530106,0.24278131824568666,0.18720859434785506,0.27706885635884226,-0.46458212178983765,-0.11630154846182891,-0.40106395646109355,-0.11606768972584067,0.01251291544861715,0.06274510424692423,0.2909652839652782,0.16435771855750925,-0.34374309520486607,-0.36234294257888944,-0.3371068378571842,-0.14528383602128034,0.2116718684762982,0.33715585991055386,-0.2632093875165964,-0.2905630898662877,-0.29640167350361946,0.44974512359144386,0.4600683128476075,0.0037671434915710783,0.3389219125722038,0.4254762740911319,-0.37567898608957156,-0.21835461530961195,0.1281939676470003,0.3676614980136224,-0.026561711666970956,0.2994536988783806,0.40262278728110235,-0.3518389762679925,0.2896417260843882,0.055322537240264605,-0.33002517067890197,0.22208138634043967,-0.18061341518572263,0.0030329954102125403,0.13617019826821794,-0.06429588319086384,0.3310534642710264,-0.19689658152298462,-0.37096260693068117,0.06983696494375419,0.41813797853150203,0.017930336508425092,-0.030176794158076628,0.04718645464844015,-0.39406706902545846,-0.13322185548617638,0.28671433389503026,-0.286566505643075,