{"costFunction":"CrossEntropy","layers":[{"bias":[[0.0],[0.0],[0.0],[0.0],[0.0],[0.0],[0.0],[0.0],[0.0],[0.0],[0.0],[0.0],[0.0],[0.0],[0.0],[0.0],[0.0],[0.0],[0.0],[0.0],[0.0],[0.0],[0.0],[0.0],[0.0],[0.0],[0.0],[0.0],[0.0],[0.0],[0.0],[0.0],[0.0],[0.0],[0.0],[0.0],[0.0],[0.0],[0.0],[0.0],[0.0],[0.0],[0.0],[0.0],[0.0],[0.0],[0.0],[0.0],[0.0],[0.0],[0.0],[0.0],[0.0],[0.0],[0.0],[0.0],[0.0],[0.0],[0.0],[0.0],[0.0],[0.0],[0.0],[0.0],[0.0],[0.0],[0.0],[0.0],[0.0],[0.0],[0.0],[0.0],[0.0],[0.0],[0.0],[0.0],[0.0],[0.0],[0.0],[0.0],[0.0],[0.0],[0.0],[0.0],[0.0],[0.0],[0.0],[0.0],[0.0],[0.0],[0.0],[0.0],[0.0],[0.0],[0.0],[0.0],[0.0],[0.0],[0.0],[0.0],[0.0],[0.0],[0.0],[0.0],[0.0],[0.0],[0.0],[0.0],[0.0],[0.0],[0.0],[0.0],[0.0],[0.0],[0.0],[0.0],[0.0],[0.0],[0.0],[0.0],[0.0],[0.0],[0.0],[0.0],[0.0],[0.0],[0.0],[0.0],[0.0],[0.0],[0.0],[0.0],[0.0],[0.0],[0.0],[0.0],[0.0],[0.0],[0.0],[0.0],[0.0],[0.0],[0.0],[0.0],[0.0],[0.0],[0.0],[0.0],[0.0],[0.0],[0.0],[0.0],[0.0],[0.0],[0.0],[0.0],[0.0],[0.0],[0.0],[0.0],[0.0],[0.0],[0.0],[0.0],[0.0],[0.0],[0.0],[0.0],[0.0],[0.0],[0.0],[0.0],[0.0],[0.0],[0.0],[0.0],[0.0],[0.0],[0.0],[0.0],[0.0],[0.0],[0.0],[0.0],[0.0],[0.0],[0.0],[0.0],[0.0],[0.0],[0.0],[0.0],[0.0],[0.0],[0.0],[0.0],[0.0],[0.0],[0.0],[0.0],[0.0],[0.0],[0.0],[0.0],[0.0],[0.0],[0.0],[0.0],[0.0],[0.0],[0.0],[0.0],[0.0],[0.0],[0.0],[0.0],[0.0],[0.0],[0.0],[0.0],[0.0],[0.0],[0.0],[0.0],[0.0],[0.0],[0.0],[0.0],[0.0],[0.0],[0.0],[0.0],[0.0],[0.0],[0.0],[0.0],[0.0],[0.0],[0.0],[0.0],[0.0],[0.0],[0.0],[0.0],[0.0],[0.0],[0.0],[0.0],[0.0],[0.0],[0.0],[0.0],[0.0],[0.0],[0.0],[0.0],[0.0],[0.0],[0.0],[0.0],[0.0],[0.0],[0.0],[0.0],[0.0],[0.0],[0.0],[0.0],[0.0],[0.0],[0.0],[0.0],[0.0],[0.0],[0.0],[0.0],[0.0],[0.0],[0.0],[0.0],[0.0],[0.0],[0.0],[0.0],[0.0],[0.0],[0.0],[0.0],[0.0],[0.0],[0.0],[0.0],[0.0],[0.0],[0.0],[0.0],[0.0],[0.0],[0.0],[0.0],[0.0],[0.0],[0.0],[0.0],[0.0],[0.0],[0.0],[0.0],[0.0],[0.0],[0.0],[0.0],[0.0],[0.0],[0.0],[0.0],[0.0],[0.0],[0.0],[0.0],[0.0],[0.0],[0.0],[0.0],[0.0],[0.0],[0.0],[0.0],[0.0],[0.0],[0.0],[0.0],[0.0],[0.0],[0.0],[0.0],[0.0],[0.0],[0.0],[0.0],[0.0],[0.0],[0.0],[0.0],[0.0],[0.0],[0.0],[0.0],[0.0],[0.0],[0.0],[0.0],[0.0],[0.0],[0.0],[0.0],[0.0],[0.0],[0.0],[0.0],[0.0],[0.0],[0.0],[0.0],[0.0],[0.0],[0.0],[0.0],[0.0],[0.0],[0.0],[0.0],[0.0],[0.0],[0.0],[0.0],[0.0],[0.0],[0.0],[0.0],[0.0],[0.0],[0.0],[0.0],[0.0],[0.0],[0.0],[0.0],[0.0],[0.0],[0.0],[0.0],[0.0],[0.0],[0.0],[0.0],[0.0],[0.0],[0.0],[0.0],[0.0],[0.0],[0.0],[0.0],[0.0],[0.0],[0.0],[0.0],[0.0],[0.0],[0.0],[0.0],[0.0],[0.0],[0.0],[0.0],[0.0],[0.0],[0.0],[0.0],[0.0],[0.0],[0.0],[0.0],[0.0],[0.0],[0.0],[0.0],[0.0],[0.0],[0.0],[0.0],[0.0],[0.0],[0.0],[0.0],[0.0],[0.0],[0.0],[0.0],[0.0],[0.0],[0.0],[0.0],[0.0],[0.0],[0.0],[0.0],[0.0],[0.0],[0.0],[0.0],[0.0],[0.0],[0.0],[0.0],[0.0],[0.0],[0.0],[0.0],[0.0],[0.0],[0.0],[0.0],[0.0],[0.0],[0.0],[0.0],[0.0],[0.0],[0.0],[0.0],[0.0],[0.0],[0.0],[0.0],[0.0],[0.0],[0.0],[0.0],[0.0],[0.0],[0.0],[0.0],[0.0],[0.0],[0.0],[0.0],[0.0],[0.0],[0.0],[0.0],[0.0],[0.0],[0.0],[0.0],[0.0],[0.0],[0.0],[0.0],[0.0],[0.0],[0.0],[0.0],[0.0],[0.0],[0.0],[0.0],[0.0],[0.0],[0.0],[0.0],[0.0],[0.0],[0.0],[0.0],[0.0],[0.0],[0.0],[0.0],[0.0],[0.0],[0.0],[0.0],[0.0],[0.0],[0.0],[0.0],[0.0],[0.0],[0.0],[0.0],[0.0],[0.0],[0.0],[0.0],[0.0],[0.0],[0.0],[0.0],[0.0],[0.0],[0.0],[0.0],[0.0],[0.0],[0.0],[0.0],[0.0],[0.0],[0.0],[0.0],[0.0],[0.0],[0.0],[0.0],[0.0],[0.0],[0.0],[0.0],[0.0],[0.0],[0.0],[0.0],[0.0],[0.0],[0.0],[0.0],[0.0],[0.0],[0.0],[0.0],[0.0],[0.0],[0.0],[0.0],[0.0],[0.0],[0.0],[0.0],[0.0],[0.0],[0.0],[0.0],[0.0],[0.0],[0.0],[0.0],[0.0],[0.0],[0.0],[0.0],[0.0],[0.0],[0.0],[0.0],[0.0],[0.0],[0.0],[0.0],[0.0],[0.0],[0.0],[0.0],[0.0],[0.0],[0.0],[0.0],[0.0],[0.0],[0.0],[0.0],[0.0],[0.0],[0.0],[0.0],[0.0],[0.0],[0.0],[0.0],[0.0],[0.0],[0.0],[0.0],[0.0],[0.0],[0.0],[0.0],[0.0],[0.0],[0.0],[0.0],[0.0],[0.0],[0.0],[0.0],[0.0],[0.0],[0.0],[0.0],[0.0],[0.0],[0.0],[0.0],[0.0],[0.0],[0.0],[0.0],[0.0],[0.0],[0.0],[0.0],[0.0],[0.0],[0.0],[0.0],[0.0],[0.0],[0.0],[0.0],[0.0],[0.0],[0.0],[0.0],[0.0],[0.0],[0.0],[0.0],[0.0],[0.0],[0.0],[0.0],[0.0],[0.0],[0.0],[0.0],[0.0],[0.0],[0.0],[0.0],[0.0],[0.0],[0.0],[0.0],[0.0],[0.0],[0.0],[0.0],[0.0],[0.0],[0.0],[0.0],[0.0],[0.0],[0.0],[0.0],[0.0],[0.0],[0.0],[0.0],[0.0],[0.0],[0.0],[0.0],[0.0],[0.0],[0.0],[0.0],[0.0],[0.0],[0.0],[0.0],[0.0],[0.0],[0.0],[0.0],[0.0],[0.0],[0.0],[0.0],[0.0],[0.0],[0.0],[0.0],[0.0],[0.0],[0.0],[0.0],[0.0],[0.0],[0.0],[0.0],[0.0],[0.0],[0.0],[0.0],[0.0],[0.0],[0.0],[0.0],[0.0],[0.0],[0.0],[0.0],[0.0],[0.0],[0.0],[0.0],[0.0],[0.0],[0.0],[0.0],[0.0],[0.0],[0.0],[0.0],[0.0],[0.0],[0.0],[0.0],[0.0],[0.0],[0.0],[0.0],[0.0],[0.0],[0.0],[0.0],[0.0],[0.0],[0.0],[0.0],[0.0],[0.0],[0.0],[0.0],[0.0],[0.0],[0.0],[0.0],[0.0],[0.0],[0.0],[0.0]],"activation":"Identity"},{"weights":[[0.28022184980008286,-0.011586354635641977,-0.3668657597821717,-0.20268216795756433,0.07098987798998374,-0.20415235242795227,0.16009021166360254,-0.09224194035425318,0.1230210108135125,-0.19811993844453096,-0.0705218954497255,-0.287610620114251,0.27348540116462805,-0.4663891595738709,0.18952990348110116,-0.3075763404198601,0.3519874255590195,0.3297900297079857,0.1892865143864297,-0.1766571240520632,-0.402204776361941,0.46056541836897913,-0.16599870827578003,0.32819096825302696,-0.13938165708208702,-0.39703899526936237,-0.2364408623699319,0.4178060956695395,0.09788970460518702,-0.0995397684888621,0.019870661845668325,-0.4008251306372488,-0.33318910384753203,0.01685471373365749,-0.2681532844401356,-0.4640293880286153,-0.2630900249578063,0.15599392561063455,-0.12360665265418334,0.25290617700577545,-0.13146115250032944,-0.33976669416561195,-0.32911216839084145,-0.21221211885381888,0.014602129328428849,-0.07877183554159933,0.11680634346451305,0.36210014026065884,-0.1431372531513145,0.43725726975552626,0.14556941814456123,-0.38741838403709544,0.18440914318208032,0.3814855232513968,0.016256218503822688,0.25257178549185105,-0.13970301525315698,-0.14451390009682102,0.030609259414327163,-0.437087377797678,0.0029937805043250276,-0.35805687257518787,0.013710858766142808,-0.3021159592145395,0.2320568696153881,0.08974246865328063,-0.14114107775031123,0.2820316272002864,-0.05753394745613699,-0.2863672389488592,0.3525032610407982,0.16881454799987614,-0.12079028803855107,-0.23069873932972165,-0.17037428048539682,0.4317566092855727,0.38308844243018464,0.17305868207267722,-0.2883439144251409,-0.3867727445175171,0.22025279773566314,-0.2766361906184069,0.3479119467797134,0.21511005051811197,-0.35826743534175537,0.34914390386549476,-0.08236462543132136,-0.22056557910866229,0.39514190095349494,0.007278797602537379,-0.09703002401817842,0.22555235972648927,0.42886060705587314,-0.17128420889138551,0.26368151918530125,-0.21636464925125132,0.08929406001781828,-0.030529504896381475,-0.41794752996903745,-0.15788598621050137,0.36780335487856314,-0.324020900958477,0.36164369917525163,0.20947429167314005,-0.029436261448732775,0.056535391665971955,0.002889378376119622,-0.37250496379155323,0.3696195070846297,0.2150286473014117,0.20652500929493678,0.46560598992926355,0.4258824068673615,-0.4585320237245805,0.4353911287050903,0.0727699705935019,0.3922759871352908,-0.4694117904538741,-0.04079069477393269,-0.08655249553318384,0.4710865493242526,-0.20252321529664016,-0.3283589474362343,-31.67052176659235,-39.33263517799167,-4.108232197427466,-0.2852528860006616,0.21709405975454021,-0.09258700460468042,0.15492827198386824,0.23642111666025067,-0.4125270109675713,-0.3681688506013012,-0.35756761440383056,-0.637506059938986,-0.05512562904360734,0.34497874246902366,0.395843123511305,-0.4070021560450017,0.40679180341752275,-0.44508676807909736,0.18682370972519513,-0.3472805799697517,0.30209793574702476,0.3138948808751344,-0.19998554715138508,-0.29785564325360925,-0.13666635946026806,0.5179359695770668,1.4977393018555123,4.615209253169897,-27.048537257075605,-24.02712248932489,4.5857252209967365,3.3067526645664405,2.1818267289537006,0.6788054723342599,-0.34911765738215367,-0.19881184937826954,0.11220697495671787,-0.3160993999239008,0.24356918984396808,0.2788752712376469,0.13944653810307522,-0.1561594215747013,-0.4546059559584218,0.27873640849391557,0.10901541447075029,0.2341677858011806,0.11867178759925212,0.14620994905264312,0.40095238003699984,-0.3678577762573869,0.22016038553493644,-0.43608812329810986,0.27125234431390854,2.9707491934887225,4.5757452657212525,-11.13912072938536,-38.065388104178844,-14.971414696178527,5.099290292922197,4.713889030542213,5.071575158209444,4.035936796400725,1.622781472709096,0.44294704047918065,0.16148356937067046,-0.04792711507509123,0.6449273278163022,-0.03851367639823294,0.20043191933119708,-0.1250900066005667,-0.343533705587244,-0.22752982814651726,0.457725526400874,0.1766956686907556,-0.4040582415572942,0.2826263557565869,0.117170653776731,-0.37035911610231265,-0.3374073277261918,0.32904261350131153,1.084629613164565,5.084598138575683,5.072309654515857,-18.27610191033581,-38.22691411083666,-14.807720782717215,5.137885851887683,5.0196667956868595,5.234279935704105,5.075592762155136,4.652870230363388,3.3296362419940575,-18.535096830916352,-36.601727344171586,-10.567581444010447,-0.5072844429735751,-0.08727211823649346,-0.022412064739002414,-0.10873699582410681,0.025423976398225683,0.40792662446526723,0.47277120540199014,-0.45977820147144816,0.07666448483889216,0.31064585089029656,0.40667200172843565,0.4201793303172892,-0.4092022647182959,2.169831456223442,4.918063079354473,4.225137000814241,-34.50550943306255,-37.95589141185962,-14.492603331149589,5.1203912789499615,4.910573704383881,4.584784674235928,4.377604766319757,4.84128681710479,4.59539636323168,-23.7896729777617,-39.011012505105306,-7.657751096028919,-0.15781850458631863,-0.6608566225006764,0.07355513193091322,0.33245478769541087,0.09536877102795518,0.35178837030888266,0.2157904926026738,-0.32680369877430987,-0.3911238429295027,-0.2077345258229658,-0.35019615347722743,0.12454570209139056,-0.03167763682430924,2.0430408974965966,4.394145261788264,5.06192938205357,-33.88051350931502,-38.003322366506396,-14.217975051977822,4.715641570990802,4.59325559051574,4.753021099958442,4.874619225692051,4.706837741000784,-3.8009244279907106,-36.56147619200581,-28.178887915884594,0.7319224612551627,-0.4526467346435944,0.22135524047957877,0.38093330894256033,-0.30746334486471344,0.3417885952866439,-0.3899628830171208,0.30749214968047167,-0.09820031467924695,0.007489525059418745,0.14654911045420657,0.30781513150086814,0.10365851397039598,0.1151536113973489,2.805635220671941,4.529375100019169,4.495753790924518,-34.52113769017305,-38.02029609316054,-9.125253597520276,4.797085672523591,4.606704216919062,4.714273415405042,4.400002309222224,4.2348312103949075,-24.030050355547356,-37.89352486354103,-25.166166628405605,4.765332305522693,3.6561891341581205,2.725984959047653,0.11442775422899193,0.2788203895716732,-0.45357871990005794,0.3950131304700857,0.35231166027907823,-0.005595311345804388,-0.4129349029580664,-0.22755951922018974,0.29981060837128465,0.03208487669661231,0.3060170165882809,2.0320520410685154,4.34282401442837,-10.142384652446236,-38.132954453063434,-29.741203691880912,3.146561487839974,5.0457694966054065,4.6769154431618265,4.623235649563004,4.755852400921331,3.06759869709252,-32.171034514555544,-37.48064660251211,-7.38423825052391,4.396611660367193,4.31429869200007,4.885643738063322,0.8367438324526175,-0.2505819421223928,-0.05423472537446397,-0.43665457627989535,-0.017143088504802777,-0.30497459678807515,0.19644950340264866,0.05146619634716895,-0.24520760473103467,-0.44017788871240654,0.16555429530662485,0.2825410055206379,0.6781475663431553,-30.247049279925946,-38.250935140529464,-11.30679695353978,5.267764744828629,4.687766103780444,4.655666123358189,4.563714918069714,4.8440144658384705,-10.954276007645486,-38.26363125456386,-27.440832855012708,4.144164994555634,4.708954702631348,4.804927873554374,4.777490071225721,2.2734547703711208,0.18883185038828842,0.32479124353276545,-0.12092275443024814,0.13598277316493934,0.1839899227875886,0.4583215506969821,-0.38995925823381655,-0.3483730869330177,-0.20324266069954314,0.19964672104657843,0.28759155315227264,-3.655347936454263,-38.136537711995295,-37.89840809441428,-12.900030691045576,0.8153789696297092,4.561905928908295,5.39973154557361,5.003964248134563,4.907016334385877,-31.432918208216964,-38.07183517424296,-16.84866550135444,4.6454996600510094,4.152875582731693,4.974638718647722,4.661394394144783,0.451553032960299,0.31412299124262427,0.3540558364214131,0.09376815789010629,-0.3782546610968562,0.11282467202922439,-0.3172273937860006,0.4330791542559102,-0.45666064398635253,0.3287893472841535,-0.3806191761650591,0.072417325507555,-18.143971773276526,-41.10269427539336,-38.271646117914806,-37.89261816725161,-33.588903256569274,-23.92464093602602,-9.578873852335018,4.947188696742707,4.918697054490427,-31.319583465377498,-38.39610046620308,-3.800193009005295,4.725232251220016,3.9104839842151,4.573249527433064,2.9641112032722874,-0.27356384435585457,0.3713354330870712,-0.2943132218042279,-0.38139523374944506,-0.30436839628374296,0.4681920254535202,-0.29217805282317094,0.20927113890920612,0.20996867837595565,-0.05333147096089566,0.03806321429773482,-7.090501961522207,-41.116049270797774,-42.23447917745679,-33.37014583739337,-35.819628271489144,-37.8432778060295,-38.2810070064746,-37.74054691335214,-31.63844972578051,-25.68474084567018,-37.97847513801681,-29.21333810796216,3.256769653923722,-5.2053101386213,-26.196678607069927,-20.849702752358244,0.39880295447198605,0.4164457778115656,0.18707446838572522,0.4072922600383784,-0.3851291654823085,-0.3421119075697248,-0.39536522236802046,0.010539261137660783,0.14437742998112024,-0.46016766035748347,0.14115093631950942,-0.32608752899297055,-25.388805941205266,-42.98693604580552,-41.31178655510704,-8.949664600771202,-0.39399527701667403,-2.4861262530944046,-15.521224855021977,-22.515508302522083,-35.71034709158244,-38.0343035295901,-38.22344357960407,-38.29215542092766,-33.56603301898242,-38.47075934249203,-42.717211162364,-19.298650411002345,0.27739728208190906,-0.36819019827431776,-0.14682232601467712,0.1867441905150239,0.3132575230000995,-0.037487678671801604,0.22860612734317878,-0.056469624883952754,-0.03227368035213364,0.33997753898918215,-0.45276040431116743,-0.0662796714646561,-27.58350215622893,-42.744516028366725,-25.838853148834463,3.607845032553768,4.331171202663709,4.286553082150013,4.956239678396782,5.004473519423726,3.7728888543927237,-38.44617196854934,-38.43398697521683,-30.866788537661442,-27.655288794879986,-31.135202177981313,-19.98241877567745,0.2694236623604286,0.14203371266992626,0.17804043391856464,-0.05673510768697958,-0.12500607367713903,-0.2605611417410914,-0.42747650903106055,-0.43319983618597446,-0.41706085657855846,-0.4712797580423541,-0.17716436912444997,-0.11057955059394642,0.07694257107428641,-7.354914791372286,-19.0924640263663,2.9200899667809916,4.993220979324857,5.0438097972264835,4.38262324457631,4.426864733752517,4.560451285073889,-4.973049185230251,-38.125045626389806,-37.149700632046546,-2.5824620578753015,4.844649779807497,1.9459757910449922,0.24173557123061976,0.2140221516939758,0.4174631443055448,-0.45969645021002886,0.0386165864683235,-0.3813997682603908,0.3230925333172917,0.09749420727904534,0.46014844995875237,-0.3741734466826764,-0.3153951968631483,-0.1923504443744193,-0.4116954630907519,-0.1533923675958072,-0.009303199847806892,1.3481416859650286,4.622822533611159,4.6974307149794035,4.457320444158975,4.98782587399341,4.133956608681704,4.158913116459389,-13.301217902274418,-38.19353446145989,-35.48051849420359,4.424259991539369,4.757742195733128,1.630213229494903,0.4109475705165084,-0.16855844834964429,-0.07167892024882645,-0.25841565814593703,0.22730397643442182,-0.3915164100993881,-0.44988476787881065,0.39400285767462373,-0.35899065053664,0.19681095365796597,-0.43199103991490917,0.11210909682091509,0.10049378733451056,0.3718480017019849,-0.07524312520351453,1.162771104782815,4.430587012070023,4.753544164402368,4.0214742755290445,4.373543394931536,4.045092396050181,4.3295543868935145,-19.351743641789763,-37.88749254385845,-19.973632512495662,4.171732269510093,4.406769971248151,1.6769229549584983,0.023308910576904963,-0.3128166814676584,0.29946203817132194,0.13096466752259245,0.18478183737676693,0.2065674468213259,-0.46683820014592037,-0.4003439804361924,0.1250521628959253,-0.28381426430557616,-0.007166447005733917,0.19180642651119925,0.389636110751979,0.10494186113892207,0.48507293373350474,0.17634908770990684,2.733316508918,4.518674317549407,3.960561918573031,4.6113122628383785,4.6343627275908466,5.1175022290995775,-12.708955624764004,-37.67486022838255,-18.353414744318563,4.358226853621032,4.31144725705837,2.2951379693722336,-0.46804975078283456,0.032561939132939074,0.22000696262343364,-0.28339369911988443,-0.403745711248385,0.19742551059575117,-0.37616834275216277,-0.4433662662310693,0.28112493581185516,0.04437865803040572,0.009945529316522029,0.21261514430490425,0.42365016672531924,0.4080451782015143,0.09493942654273908,0.42957429765539723,0.9441998611134512,4.044606672010754,4.935929198034842,4.660634371284099,5.235286580987124,5.128942252790617,-12.777398764989949,-38.448552773970476,-36.911820222528604,-3.2069301123060203,3.9805606205879216,1.2571427897354355,0.33757391587700075,-0.45344716072939506,-0.4095775312857293,-0.021017424127450824,-0.2589640665731345,0.45782638229546735,0.07083124932444278,0.46132505878156077,0.38199429558538095,-0.29942507010790803,0.009829587818377677,0.16389797458506905,-0.27539856197814144,0.20916856773573497,-0.21392732917557608,0.23658059639468015,0.33405959792337625,1.1549197198140844,4.046601392049144,5.0440101870729634,5.19020909125761,4.705300056818126,0.12336735273803368,-24.956561591697472,-37.530017258451736,-4.006253980600737,2.103130108288973,-0.24057864597477085,0.13398487419351768,0.3329921253737753,-0.21891780246879197,-0.21635892878016066,0.4268557297488525,0.37315022601231207,0.04225955590865656,0.20254952479679023,0.08625801915149339,-0.04340151977371202,-0.41214609986129225,-0.31143583878722614,0.15683572703987422,0.14327982223088176,0.2327027876367055,-0.27121230456804574,-0.005322726384857035,0.6620409913011046,0.014237751616071381,1.1270405934369958,2.7221494036156626,3.3924260412013325,5.044516216925958,4.476179515737423,2.483058353455296,0.251105774186064,0.0568503792782145,0.45161961786478555,-0.28616928572208716,-0.43549542668925645,-0.32729653237782586,-0.15816753244925605,0.03758743930044748,-0.06395111075913969,-0.3732045902055985,0.22209998977959147,-0.4430444909751511,0.3807292179742804,0.4391253456445331,0.11942522525320418,-0.3957862743516584,-0.05040878892795474,0.02272880447678457,0.06999787261118767,-0.04085199737229016,-0.37821971443779123,0.16790634079851383,0.27889074710710543,0.07661170595574937,0.1709967742368729,0.4360519658095169,-0.4595507527553047,0.2597705305647214,5.685287064348399E-4,0.45609019175148763,0.09179731703741123,-0.4575167273508262,0.07405922726637842,0.32380856513367284,-0.35829397148141984,0.29124063980830617,0.4394299412380451,-0.34199258818348954,0.24789529406929847,0.3354385827424732,-0.44996921799518597,-0.2159591204716803,-0.029962574236948213,-0.008891532683621634,-0.36983518784862685,0.4144436097240346,-0.03200800931319965,0.2603903602921865,0.2494675916601194,-0.22604661945974078,-0.3346954985212262,0.008259681597205026,0.377823837617338,-0.39490843846614415,-0.25082340269618447,0.13633636940508195,0.11456293128863583,-0.022281048839036043,-0.0850186039859089,0.2194545168092215,-0.37511477987428954,0.31792819326677485,0.2924501359619051,-0.05379171402307104,0.3728664353459693,-0.03173568574298113,0.2618965622330792,-0.0400857607059091,-0.2860274343325401,0.3425841115254076,-0.467726989163533,-0.11865797608588875,-0.14921209471521601,0.044870027618436926,0.20846773992052553,0.20916568217516826,-0.2863808399025679,0.2320082459313553,0.32305547534215495,-0.011625812551900589,0.15278401968999678,0.2659213103188414,-0.20229637537668707,-0.3391450598121447,-0.0282730906090188,0.12051379198367365,-0.21838587905439202,-0.0339742069748563,-0.11037340558486268,0.23364567134236772,-0.26125383406218744,-0.3572589060502915,0.09886834529602767,0.32379136336054254],[-0.07788186664278308,-0.053266229232069494,0.07665063319567139,-0.42482698230700233,-0.01777340141816261,-0.15941909280229807,0.27108028545037893,0.08397523791285808,-0.34245138768261574,-0.46440844821324934,0.31038062509566,0.2517543898924692,-0.31179126218817643,0.26711555730790104,-0.17070242930005686,0.46034851435697804,-0.27080577358044705,0.21655956984924274,-0.23056633806802296,-0.2845247218735147,-0.13300686909064924,0.45487005242483525,-0.2599249064490623,-0.44622658926012987,0.11320694510270593,0.32340656608121665,0.22309768339337377,0.2702991785598061,-0.2394448779317865,0.3889766857159379,-0.4302531409959573,-0.15956761279908763,0.09074118295807619,-0.4396573544655015,-0.0815166265477477,0.3817778314655069,0.11989081169898952,0.33373293234653834,-0.18832975784275705,0.1279661046839985,0.005699610097213393,-0.10519491953492571,-0.24535203375992476,0.41726351048887195,0.17104376221882225,-0.2058946550457314,-0.2562958515649527,-0.015405680270760553,0.1716093105506713,0.33235774545501,-0.3104102106595086,0.43595967020822524,8.631101648814976E-5,-0.10911011139137142,0.2305692762210895,0.07930518198794195,0.22665157783472056,0.4211651155189618,-0.33648857246562797,0.185645838010936,0.37482890182653816,0.3657397543368078,0.22323909573712747,0.15869962206843824,-0.37663104820321575,0.02100181849952664,-0.3907495164100809,0.30041256906133873,-0.1414695612416559,-0.23022815044697645,-0.3049902206642964,0.42357597784412393,0.17707259476960835,0.20925866581419614,0.008275996083330184,0.13124251317399213,-0.24161625337125936,0.02696265764794894,0.14139781737636034,-0.044158644276112644,0.4344739155010815,-0.016093981624816196,-0.061850827669139116,0.22877337697876104,0.1390491064538325,-0.2989556534368309,-0.2914865371619998,0.33383540587015714,0.3615634044067364,-0.1891244537721322,0.24484675830567793,-0.31492095038925877,-0.1809906377296195,0.4321123494611063,0.20205854772989706,0.01165247701087917,-0.06273944677840931,-0.4491788249733434,-0.2391535657021531,-0.3211939026723083,0.16143072133918285,-0.2615089665130158,-0.36150251269742584,0.4255504609079318,0.17685913762466487,0.3877204265331023,0.27736607030631094,0.10548995932030869,-0.2425705012459081,0.38221684195557754,0.36224816471347865,0.37801646515421344,0.14678298372398416,-0.280723372257254,0.1166753805023579,0.16242247139513893,0.3166370082108959,0.10540491382793446,-0.4465544092970544,0.13762208491402453,-0.08029868181122367,-0.4434164998182589,0.08784462055625161,-0.050999023132179994,0.46201795168058823,0.16579492246409494,0.011920611097085735,-0.11982479545145365,-0.45311878440381026,-0.3754276262075198,0.19286249008411396,-0.17771438111066212,-0.1859929020375699,-0.3445837653501742,0.2085530698232742,0.14070236068355413,-0.11093581206716419,0.38978453954763354,0.3195033370072899,0.15593553955046072,0.3848335770646711,0.015620582252394443,0.17619120287289217,-0.21775726526574982,0.2657028352968668,-0.03681425246935705,-0.21715784331919122,0.23907297580507855,-0.025397289303084408,-7.662313566685663,-19.753941370696683,-20.760896276297853,-20.625056940362064,-19.432169831840838,-15.95079727596744,-10.77308568281649,-4.179450783210074,-0.18049715115680443,-1.8466454694415972,-1.6793133570078915,-2.4578502210527797,-2.558121956328984,-3.0394925541393936,-2.2701528504152138,0.33239701418258244,0.19456048474720955,-0.03254993754370934,0.423615565366668,-0.26200701118433123,-0.14429473274529975,0.0513250320012044,0.2723177830764052,-0.44213743277054424,-0.38082866183632014,-0.10451465248053102,-0.6007543844277189,-12.239060162628093,-20.407661847154326,-20.51611762054059,-20.311469612171507,-20.57554964772056,-22.098623421775876,-23.306805267226185,-23.39442308519436,-22.339480008873625,-10.75860596392926,-3.5653857399359903,-3.116927311884946,-2.68339589407888,-2.5030370625629677,-2.933789911298229,-2.958369899053839,-0.981432874182635,0.3796371144871003,0.3017079363171696,-0.25294903821198467,0.0013728357022214199,0.2558577319734408,0.29479501612802855,-0.19476975381909648,-0.3127865343576913,-0.12626912494330245,0.34358877765796253,-6.256031672225736,-20.16580515899371,-20.983231509048377,-20.712928001534742,-20.302333193954382,-20.930280001299188,-23.642659595938195,-24.16725245415537,-23.984281963662472,-23.556546229426964,-23.749859892540677,-16.08200975625334,-2.911342960325115,-2.2143926932987856,-1.6130446776881893,-1.3446462749115382,-1.2844011582371293,0.2862148125413657,0.4111668138977781,-0.39396117084822246,0.37334376622877524,0.2955560238622614,0.03460508795697838,-0.3025300065218985,-0.03979527963723396,-0.29976726174214036,-0.4555648554262354,0.1248090800491241,-10.704799593903116,-20.262827487171144,-20.403926600597615,-20.12980206871796,-20.23263783434184,-21.166476424076745,-23.67722174386628,-24.003018802992163,-22.341836954743624,-21.285482284689948,-21.192633993289864,-21.727289050869693,-12.036821255024032,0.034528925137682104,0.4900575442952672,-0.1734892224869695,-0.10760525799910589,-0.4591724451852688,-0.4624876565085058,-0.19821926346072932,0.29409811550204684,-0.04061383010175923,0.41844635571007827,-0.23256083559506902,-0.1839349607010044,0.47395643039914653,0.43400633284106804,0.3154097565128246,-11.048279638038661,-20.286494426570975,-20.36622691937065,-19.999879642372488,-20.86307836979238,-23.49699269603487,-23.711639249256372,-23.40755998262369,-20.911747322712053,-21.022372279879974,-20.238256734982954,-20.835884507493333,-17.389835615364632,-4.539141624327075,-3.0949816171349354,0.5689108298480647,0.5528953517582637,-0.17511661059419806,0.029666440193145592,0.06362106494346187,0.25292733318086763,-0.29630901205872606,-0.3637229089379857,0.21816268719521223,-0.3558803299034592,-0.19760149081196626,-0.3403943433620736,0.21867510789366093,-10.218815227831124,-20.872712657587304,-20.367592334004733,-20.160444208060056,-22.614038493221294,-23.23871649114991,-23.826158330761153,-22.748721988758053,-21.189695701424874,-20.490683400913248,-20.83321527152777,-20.794373319238407,-20.61173565744055,-20.498464025189953,-20.404651023838362,-16.8185571131106,-11.917009971879466,-1.3239383380673408,-0.368716844369708,0.20944373903281183,0.15999688311364443,-0.1351492911155536,0.1514484602690053,0.05336903626021455,0.18172009513571769,0.4264601935769997,-0.06708037620912599,-0.10851587755594062,-10.359658704819116,-20.685708752458055,-20.291995375685236,-21.434172583957317,-22.991815446429882,-23.032397360273105,-23.91051514063493,-21.663974786257445,-21.305066638137365,-20.764220929714153,-20.991194107334213,-20.13425776054823,-20.72361366709377,-20.717729798362647,-20.270600452237538,-20.609767673387786,-20.77910668821776,-5.411251793633714,-0.40411797368648483,-0.21693092792094096,-0.28465618463814457,0.29805121858044437,0.4528559037121288,-0.3853626756618622,-0.38925708973595613,-0.2643061340815664,-0.36739499770777995,0.05741417213310294,-0.2547037290854368,-11.571877925954713,-20.451438306523126,-22.96201623422396,-23.434188461155955,-23.579919873703123,-23.511875565926413,-23.803472849033117,-22.332035218762613,-21.39405932067533,-20.144654304860097,-20.247748349096938,-20.26797458655441,-20.121277426316084,-20.663257735738345,-20.263080010486473,-20.83169089915073,-8.566281236505798,0.3527875754947358,0.08010107512055228,0.16434475917048905,0.24630074190965034,0.15667555223362079,-0.34381405125517955,-0.4084350428156543,0.4087136189621002,0.3705654996785924,-0.06948454103219186,0.11290334791600072,-2.0128879660801133,-21.16303887975929,-22.930410054739987,-23.60839764931329,-23.579044581139325,-23.72004710098307,-23.907851182986008,-23.658674583448928,-23.45219143331928,-20.507381788422155,-20.0705580616687,-20.629551454663456,-20.759160573072368,-20.756513288227637,-20.623673374514922,-20.6486695268382,-2.709153202099277,-0.4067827335505889,-0.331192994196693,0.21314758726807556,0.26284277772727394,-0.2915949309379041,-0.11971371273886836,-0.1877687653207813,0.2427853203977303,0.4712565782966488,0.14037613557323442,-0.2628234509329316,0.21742677233070762,-8.43989690694169,-22.89160569594776,-21.904366419056476,-21.17195320140377,-21.066956653813182,-22.775882921264568,-23.63282877874065,-23.731181714940302,-23.017337635045994,-20.76808332147718,-20.70591268643774,-20.30666699140084,-20.855041492744228,-20.165113960710112,-14.050486774242758,-1.052408291007479,0.18560698280743312,-0.020025843404774,-0.3308619834101662,0.10146217493165582,-0.029285936969495968,0.005928443561855961,-0.3955407724066869,0.3521812599687618,0.06016704805301876,-0.26679434799161317,-0.13765430482513524,0.3040394094685095,-3.233464071032916,-19.618048153073907,-20.70352360975827,-21.1182236271196,-20.349819245405783,-20.357638761272593,-23.59849721086256,-23.59429376566548,-23.286193115643208,-20.768371088970838,-20.982854614309247,-15.308240942874102,-12.049935652823097,-5.214833036045639,0.06650351026345615,-0.3700098462462763,-0.34676084724121214,-0.11797608914257135,-0.008419453439420794,-0.3286400916889685,-0.16372751737926836,0.402887730803148,0.35287882811818283,0.2892500485661674,0.23461235782946718,-0.22504161250664315,0.15174509540825015,0.3094379748503817,-7.249610755094868,-20.403189609399224,-20.651119535854516,-20.741068275558007,-20.408243823786147,-20.210613067648104,-22.16768530234058,-23.19029364361234,-22.87643866115343,-21.672284805992096,-14.577701072497906,0.5066484496061107,0.5296806294128945,0.12476215393167728,-0.37627789712880466,-0.3596502891544481,0.07902387457735424,0.2703088629374447,-0.45954599651903627,0.030761470587115508,0.1661987554494261,-0.09682522089691575,0.1314752201309877,0.06182968089906098,0.4157745792181613,-1.1517675097118114,-0.893933830851934,-0.3249583876990461,-16.618436211892437,-20.811923379121147,-20.83009983601598,-20.671278416645478,-20.957588200527674,-20.69692295836499,-22.399788360977286,-23.696609968340933,-22.81561210541391,-21.627941466622822,-17.162873747284166,-0.11373394397033787,0.4379347204839982,0.32436476591740004,-0.10874355106160043,0.4709456105942684,0.24188506055221684,0.0824782211793702,0.0971953035215079,0.2662272133334285,0.4240575698110083,0.35199856089431336,-0.15841652209598792,0.13562260596632586,-0.9668607451021421,-2.852209691472309,-1.950436379748067,-8.38253326670274,-20.274220386423057,-20.610639329588132,-20.42388640477942,-21.177328566128153,-20.58661111997189,-20.40124896532591,-22.403989310669544,-22.882805776512424,-23.703854098628774,-20.49610733151828,-21.148682953367192,-6.7226266000834976,0.4357387721847837,0.3358118695235503,0.412073079154333,-0.3081073813325977,0.286613838453303,-0.39493185158199023,-0.10042859472436388,-0.3272519906454161,0.15243636660470314,0.43083009178216497,0.24897651085046738,0.07045386608332321,-1.0911520941766848,-3.238997407787776,-2.951717989969803,-8.54576929196302,-20.41945965921545,-20.70229687551914,-21.075581417784132,-20.972807207930142,-20.46209432039986,-21.443630421617474,-23.4457206157188,-23.687929299477446,-22.282829986534498,-20.625535205338487,-20.7015665212408,-8.830359214536728,0.39593781824690033,0.3992060210736125,0.22823087945834636,-0.2878405891054283,0.13427753863623676,-0.3899427294575469,-0.06578337012821715,0.16313700878715506,-0.2759584232504294,-0.22407292038363752,0.423594121460177,-0.20505147808610968,-0.12256919453513125,-2.562725391093154,-2.635796276311112,-7.46006549796333,-20.712486849265066,-20.39269897010139,-20.502031763423368,-20.50873834636149,-20.99767849465146,-23.548082112652395,-23.54197645305418,-23.112320774562477,-21.306092044705736,-20.233884110664935,-20.5050885359383,-9.151961422304241,0.23633833690285813,0.38468137869634406,0.46644736643821577,-0.2889494688787282,-0.04669132397274724,0.25402465906536786,-0.18549510009296635,0.24396902570656975,0.09198069831309524,-0.2732372912949081,-0.02572103893550009,-0.07490698243320605,0.07350709357884826,-1.6333321328309451,-2.90312331743658,-2.8781906618401782,-14.555224883041403,-21.10641444185271,-21.01748085120579,-20.68994557523312,-22.341175662453864,-23.964878936354946,-23.438382031190123,-22.312832273846013,-20.62418389255915,-21.09123828088376,-21.068010437816238,-9.23561260364702,-0.23638666512225695,0.4595521129932122,0.07352933962420191,0.457137147824942,0.33224855726102004,0.03675621477529828,0.08836838212387652,0.09937145188484107,0.11443287356137527,-0.17980104760503374,0.04251675212949962,-0.12161566344879143,0.29552762495343116,-0.07508876767539474,-3.0385679262194585,-2.8192813780604262,-5.668031577851369,-19.550053019146297,-22.094026285689843,-23.13229552894243,-23.385779420297155,-23.133337184457037,-22.560065248176233,-21.261902133367013,-20.40075333375986,-20.514115051364858,-19.510282918087402,-4.482372646615658,0.3149049276453083,0.061423730829559944,-0.27022475724780604,-0.026969014386727524,-0.22621791652131756,6.669620907491681E-4,-0.3295691361855595,0.42333599346335665,-0.46273919175832046,-0.002046525611236527,-0.17637950649851142,0.07682455008328239,-0.24045635288665504,-0.07510524928613319,-0.8500147113075843,-2.2699935413324024,-3.007081248000822,-6.003061515863116,-19.90718549400768,-23.680452596536107,-23.330783856911598,-23.170579788002446,-20.73032775738459,-20.59149667373027,-20.09307265722273,-19.92167948340022,-10.180792515675956,0.004431775434528207,-0.3157098617959651,-0.4719099541119262,0.04633918175496736,-0.3431149406849781,-0.33382541255725645,0.40724045831062855,-0.024607872744753557,0.08589817194164519,-0.21572156303316714,-0.13306919227835196,0.2210550720698785,-0.28111711578409637,0.10288582582881796,0.4335572065819013,0.1630489190935633,-0.9105556167676166,-2.7856812065211427,-2.998751037236278,-3.2213884133567965,-8.531981790084542,-14.260738666510514,-14.659450631777267,-20.84705977406712,-20.263421118543086,-12.949825598454611,-2.9946139369895057,0.32168760441128064,-0.056223487062398485,-0.08767851510436026,0.12031970139837517,0.3632382986398692,-0.080691794913191,-0.26749045885617384,0.0018339140492587668,-0.405019521344391,-0.2914781947482086,-0.12113615453067464,-0.005677773256394852,-0.040333343673958466,-0.46727455050182265,0.25413570076171,-0.12887915598699687,0.4281219635464456,-0.34335811119827164,0.3884734485352192,0.04879065139905606,-0.3053959290396514,0.3396491518004093,-0.3191595316361345,-0.2111302904136102,-0.2905841574975024,0.18125867576078303,-0.15883305778214962,-0.24564570945784928,0.08592703623351959,0.0029001834398077963,-0.2290262550271475,-0.14809235016904995,-0.29180762716607184,0.28749564813113704,-0.13977581375175244,0.42365520004208423,-0.041015972382596674,-0.24067142636710986,-0.29760652484035954,0.08202562762487542,-0.06353775789125066,0.25050302646670014,0.02913765949381304,0.24151700886165223,-0.23592340146124177,0.3658785780005749,0.014709828168502142,-0.23411092899684888,0.2607995501738678,0.3334528901929228,0.3988589300932467,0.4218381101320116,-0.21187268569843865,0.29011134352581236,0.4126887395165963,-0.3290168606004798,0.24628954005383208,0.4082780217379256,-0.3434466099271947,0.33995054912789835,0.25280190557753107,0.16680499856350617,0.32335398219616057,0.2834908198758209,-0.0981228840763762,-0.14057245757676,-0.11542583741895623,-0.40210462295414884,0.023277979851016244,-0.2837099629626729,-0.0399440485552492,-0.09849745672923056,-0.3660479799823761,0.23841306278222052,-0.37413416139164907,-0.424208931591652,0.4052306574155105,0.16152459565097949,-0.12236164527714105,0.4544557023050184,0.30250661465642853,0.07441866298622538,-0.040490447037188994,0.10894369025641623,-0.15687840342925857,-0.23206751850981963,0.09116401408373678,-0.29279767018658026,-0.2382976110145531,-0.016251878309588914,0.07761961045145481,0.4678467928710421,-0.2296232704360431],[-0.18247207073721922,0.06816039710293989,0.04460365180974551,-0.3958192243736724,0.35838278683780406,-0.057696693478589675,-0.1942799146773264,0.2995393084073382,-0.3836498491832169,0.1918462180354002,-0.3299503326159795,-0.034045482837976294,-0.19857611812977205,0.2888943444174109,0.07573477357447356,-0.17201639665068438,0.22173132351526234,-0.16970045158374844,-0.26119749447202034,0.38621542954444776,-0.13530798906184022,-0.02082896696318251,0.40757432008239725,-0.4277244229122934,-0.236578530599219,-0.26597119999262836,0.3845617038107516,0.2538943705843849,0.031258031694827576,0.44577021254858284,-0.2795211222455133,0.03176629510749422,-0.42990664496946057,-0.3780926338696076,-0.3148500462632144,0.2103096499054486,0.37317815128129245,-0.34349218408669396,-0.11257789233390633,0.3695041191871538,-0.29974867601179433,0.10293272512206512,0.3507179036253738,0.4147394407899443,0.10220716635602281,0.06481685057561715,0.10256842812992766,-0.41394842106067337,-0.23593291421710938,0.268771167089471,-0.2946338254490523,0.36725447984478615,0.41876283725868413,0.15001405529056616,-0.05834050346768679,-0.4507073359264694,0.2601662103460287,-0.37045104522099004,-0.42941674195793195,0.4706467210861037,0.35191506942984596,0.18860579693566037,0.3424780493931181,-0.26918313599214794,-0.11111158446090676,0.0028508886292673064,-0.253602371970421,0.05079008173160396,0.1706734796546101,-0.06465550233952055,-0.42996207670510767,0.336965676283155,-0.2589544403219091,0.35338719299246696,-0.1763575261460656,0.09226903831399391,-0.36565356722641684,0.33024624924018464,0.46864819103128674,0.3601273087723674,-0.15129977877572764,-0.3317103417956493,0.0982316345539732,0.18361121748258058,0.4372452609121748,-0.264719243654233,-0.05949961574062472,0.1133659837093832,0.42198889797387795,0.3904980191896561,0.1958450350763796,0.30395974718440577,-0.35949302970875585,0.14194438592422864,0.22792681486451477,-0.001028565952839039,0.38351258756947854,0.42019754067329174,-0.04707372204429746,0.2705287311604906,0.06950555050941933,0.06980838545288194,0.10867960016571121,-0.15097575461733287,0.2993242573095293,-0.06823148635962908,-0.26263869986742183,0.3536260066055066,0.25724911159153496,-0.3674139521864423,0.393471886319566,-0.3865046872565058,-0.05700123193963445,0.09120896578362499,-0.47017446538178775,0.1537347768336973,-0.1488352210742544,-0.45556886020693677,0.2541507219838609,-0.440831260558094,-0.03307930129283846,0.44649124103499865,0.12404942931751119,-0.43242608436641383,-0.4529086822556362,0.2893910929264298,0.39507866156810834,0.27951694098750995,0.28513056319457447,0.08526655969737798,-0.43148671744068123,-0.4783537919675827,-0.022172769103303472,-0.1483898561056778,0.4214510218029406,0.2035675867471145,0.4159163677342591,0.4162067833183395,0.24763331949187314,0.04794113586172338,0.16855871571476638,0.11830196741051914,0.34718487318141744,-0.06485277799169513,0.4236300249663839,-0.3675403193637092,-0.2208905534132478,-0.38816126373548027,0.4537950170996099,0.34734733014520697,0.35872758022871865,0.01223378762576316,-0.309292124836006,0.2998408319890985,-0.8773793950219717,-1.5813989064823681,-2.0073415396982055,-2.503874073825513,-2.660397021511189,-2.901802276609335,-3.4120426229045826,-3.2568183232235497,-3.589009995112811,-2.9217156456823856,-1.7042313022435986,-0.3540848091880031,0.18663695737270014,0.051665236723243364,0.2921660464474708,0.022987253692893044,-0.2562431411425614,-0.44317891558307376,0.4140668568079329,-0.051306667477223046,0.38158596201766504,-0.42950368933138244,-0.38135420020769345,0.3067002556388999,-0.19835698766186322,-0.6263007788092388,0.030651730207941694,-1.6785098255229105,-3.2628241209429505,-3.009692847869914,-3.4108673365104027,-3.4462116472871998,-3.7127812257934005,-3.1740433835348654,-3.0262640284407683,-3.450840956928329,-2.7600604593884404,-2.901416158316786,-1.8876111567278058,0.06630719744387967,-0.12966832323988153,-0.1700885295173746,-0.2635584957613327,-0.05452290661495619,0.047727544545420816,-0.1309026765415531,0.40760418077434046,0.2426343714753145,-0.43761201479587586,0.3215520345226776,0.23931787876291877,0.207357007046991,-0.4619195819083687,-0.16408054005120387,-1.9204114324248738,-3.345342423831444,-3.6644266912374825,-3.6223224617193908,-3.7943846870023505,-3.463136102192138,-2.815105325560142,-1.7399014889145887,-2.1482026096348013,-1.1062918135997795,-0.5851581671424568,-1.2657809590964582,0.06233931960855893,-0.40249773365669467,0.002990038508936471,-0.4281730097981713,0.11230110525187331,-0.03327969439162076,-0.16211666805893807,-0.4300599461519199,-0.28055623883483277,-0.30529464163090064,-0.35934953176546286,0.04192857791450706,-0.07060804203627251,0.36768809544993375,-0.10584510827002347,-2.182404050883571,-2.5461233245617887,-3.9328839801754025,-2.8669383795497945,-1.4696391765652308,-0.22315067433643548,-0.33604687191613947,-0.027642357260112993,-1.8853750217269594,-0.9217727089193809,-0.5097849139366512,0.01260854128525244,-0.49966485732575333,0.027580645276686327,-0.02662674598641478,-0.2764790673451479,0.08866982513952724,0.1391117492427674,-0.35525990154907705,0.23062848986612566,-0.4714027790471163,-0.4530313825239828,0.05708048465899714,0.3162179848662379,0.22332430864114516,-0.015517483482704963,-0.22694739852627657,-1.779731751679847,-2.6443217550671205,-3.575480432868485,-1.9562739844834085,-1.6314178445919296,-0.009987233104888527,0.1806974387781865,0.33584288466789064,-0.09431758611493415,-2.66733015170194,-1.8048574732595317,-1.142317467391614,-0.12412505704858254,0.15298286174421022,0.12150691200525804,0.2582511189205881,-0.23791163584754543,-0.07494599378122213,0.009734341538848229,-0.17334566614531383,-0.33888856641847204,0.4090119599832044,0.4583818977873386,-0.2518418101906928,0.33601607678203177,0.3742839569761037,-0.2387076251070308,-0.653947563741964,-2.306273501758687,-3.6438163701874644,-2.549893069577388,-1.200459433492374,-0.7055151278646976,0.17026464131669472,0.23559324701147685,-0.08340554617991452,-1.353897822041838,-2.3120033084251976,-2.611732577167163,-2.190111209846325,-0.3243809240669204,-0.3921687293871018,0.29524158931326305,0.2694442611280005,0.4093479885458412,0.09619384907292328,-0.006532232031256807,0.46602488298814054,-0.034147350888150976,-0.0049807149342880105,0.28847709076453476,0.40204986134628795,-0.27170169540406575,0.35814957630501015,0.11828816669578326,-0.9957014523959469,-2.6842560967987366,-3.972262441926522,-2.7641479843116317,-1.8403107257704112,-0.479446946178209,-0.48239117944338505,-0.4096696617584249,0.13751280898152213,-1.6191936704032972,-2.676947552839407,-2.446074699013618,-1.4234072140597422,-0.2534033298753243,0.10040104813512263,0.3024643591514523,-0.08317932790161885,0.07434662360784003,-0.3383224448212421,0.03958419405891831,0.26634412090842163,-0.07871145841774657,-0.41838241441918234,0.3240057210438872,-0.3546910158511239,-0.06713482335231483,-0.4535443068619655,0.16067620589092232,-0.36683472944802575,-2.21547896637977,-3.464766865156659,-3.997304228479963,-3.360138706619199,-2.3363212232170145,-0.7803298830623452,-1.0394871310948486,-2.204519450899828,-2.323472181687024,-2.301604616073141,-0.42369762649509884,-0.4775799994753137,0.24115359542470768,0.26480960402377274,0.4410699444368501,-0.07945245879871367,-0.19272391189376303,-0.16331887993636846,0.10913672438440888,0.12044177991879687,-0.24002042602355095,0.1416731448247754,0.4682863148764624,-0.0982124445528016,0.23987232895232607,0.369620513517582,0.3313114969823475,-0.8167336454240808,-1.760835945552515,-2.8965470480512647,-3.4649197727730843,-3.6489165355149997,-3.4608264602616257,-2.678299773864915,-2.638408574316951,-2.170814684284768,-2.0828380609609543,-0.6461830559270466,-0.0573519297867681,-0.15131859427851985,0.42394061859570364,-0.055133811307187586,-0.35742372609767376,-0.09035811366723606,-0.26626745850433237,0.16472668688763342,0.07302319826582779,0.1223823557668799,0.12387771516157098,-0.09470303127281404,0.027188849449036746,-0.4370196594719193,0.4488939385771521,0.14562092922144568,-0.5621338422879466,-0.16374681692106452,-1.4763763547433397,-1.2588264221357188,-2.245080573293667,-2.444075547600782,-3.336287896820093,-3.109262139592011,-2.7126783778034484,-2.1446324887124124,-0.886743375479333,-0.0875412523173288,0.21153496340254038,-0.4824156432931025,0.15352845173708143,-0.07504976871210503,0.3676677301771129,-0.4151641859116682,0.4379030881785928,0.4320957182828493,0.41990511132546476,0.24302257764000232,-0.37799326015632856,-0.45017386128953113,0.15643140249198084,-0.24476332921811123,-0.19167475259892244,-0.3721820981730289,-0.39171246687433836,0.014817524471670313,-0.6043812259431403,0.26055692430362964,-0.7432979752521546,-2.593824517773078,-2.0258462728639595,-3.8452429662874335,-3.312710865977038,-1.4486008572022269,-0.3145571531702801,0.11153357438478115,-0.07825179485342033,-0.013500722308149221,-0.5246602747950035,-0.29404387310305374,0.31688079600603786,-0.3280147277614152,-0.006813807195003424,-0.35717456655814334,0.26850802731651596,0.13281098947444991,-0.31181918113722695,0.29184818336605417,0.003241105516869769,-0.2614704538962846,0.28979005774265687,-0.0025509465329610903,-0.10980295378603647,0.1411155781003923,-0.48004116605110947,-1.7978859124796223,-1.8114875331538094,-1.72414029696672,-1.31840185919702,-3.381768093288666,-4.218996474715276,-3.450207564105127,-0.8468988975068538,-0.5754425282923813,-0.0991772802062054,0.09580063872776437,-0.33736908125417664,0.20982085826876398,0.11219274033683603,0.14278697296558246,-0.3798518270155944,-0.30515218045398906,0.07507082504387921,-0.004363955049276424,-0.46702921060840014,-0.1509750719775834,-0.28614074947448803,0.3747883860541622,-0.6196120079533088,-0.912662583868764,-0.30304478155927095,-1.1935914216387573,-1.6416637125594877,-2.529701462586543,-2.4803234220859194,0.08249645681738683,-0.6298610404947644,-3.0192970800292622,-3.638449500427439,-4.072214973841584,-1.5149183159684247,0.01500873674326017,-0.5067165917846457,-0.2810832937891516,0.3479786720980553,0.33707215962190207,0.16313705282634042,-0.16208078905680542,0.0034276938593835347,0.4022741059301763,0.21826304975514196,-0.23443380231180044,-0.19697632895961092,0.19860340172734695,0.4121105062971231,-0.2713571018104288,-1.4629588634245485,-1.1106027961441147,-0.4089259360651971,-2.4202326211487852,-2.4158095408530404,-2.0459480841139035,-0.08556403572118731,-0.04917508078641531,0.2795199580262081,-1.6490718038576708,-3.9195437955000325,-3.339603882360049,-0.7790198355992253,0.2609885055220369,-0.41811267115679307,-0.3265655486152763,0.39551648076899243,0.2815270708022771,0.44666417356825733,-0.05611667602864923,0.12122123713826108,-0.30391683606690195,0.3307554090975112,-0.2358247708887744,5.03723627044983E-5,0.35144477998263796,-0.016691022174226404,-0.4825708470020891,-1.4780035739088253,-1.6860323876257217,-1.993526875233694,-2.526846005944813,-2.245787496700408,-1.0253171609624716,-0.17294696027915712,0.269139917834669,-0.5690247769126161,-1.5130843064718313,-3.6473896282327587,-3.0673944704241363,-0.9981248140610742,-0.24157805626566525,-0.023750965015170485,0.12153930674324426,0.43811095114686566,-0.46385887313229995,-0.08586321114735912,-0.05120222182249282,0.33331673907548837,-0.14445900233013909,0.3288061029121542,-0.18019172726284624,0.021317725505835262,0.4351579904414518,0.27213936192653243,-0.1123737124634161,-1.5470502784382119,-2.826280322778332,-3.212233731877632,-2.317633862375172,-1.9711751500559227,0.151000084900413,0.040634686465826145,-0.29031436424536394,-1.7113762823261827,-1.6941687394381375,-3.159714186765368,-2.218193347212864,-0.5741165087022351,0.01827575815828002,0.0600069060646946,-0.04097708240790027,-0.43849784622615795,-0.07669617065879769,0.37570871103240866,0.03418367174340467,0.38628884087631216,-0.2244411937182172,-0.3312843573890696,0.19161802821042812,-0.3366849576942213,0.2374931022633571,-0.37717150396896515,-0.029876043364923215,-1.9683730878744674,-3.939826080821318,-3.398359036281007,-0.8549651599743779,0.11984457392005368,-0.18015322063260772,-0.4889573850360176,-0.34152833159736,-1.6396777990178102,-1.1040506880230534,-3.627376386562548,-1.9536873435018163,-0.9740705915064486,-0.11733623293489369,0.2907670378419461,0.38168928710402855,0.05798985301114619,0.44474290815788015,-0.20776038113613723,-6.199277176584528E-4,0.37742851864010507,-0.3891087367660408,-0.26819419254303967,-0.03951146440162164,-0.01958790935055228,0.3515302359581241,0.35491364306958684,-0.47313197595470124,-1.9236071746434207,-3.535548623516386,-3.4733943738000352,-2.3156078867517658,-1.0745283694487782,-1.121677278603827,-1.4394927180104546,-2.5346969897707106,-2.8718710565291357,-2.9594774557207435,-2.504736066368284,-1.975434192235613,-0.6964898416909634,0.18208946981623825,-0.4075124387548293,-0.37054610258390813,0.00260966063390744,0.1629348988784945,0.2809907127930065,0.11263997675729132,-0.32774907243008844,-0.043418370620674655,0.2576937222569397,0.07606296723861507,0.4607839526738244,-0.16260610089674396,0.028216170959448783,0.16914489494643561,-1.0157783552473827,-2.4438351167532746,-3.09224896310628,-3.3852448020685895,-2.899651578940956,-3.5162346257811365,-3.694900328444537,-3.427911315864327,-3.4707431467111367,-2.642748559278413,-2.0008787765910863,-0.19791101329034771,0.13343300713862521,-0.11784303359545233,0.10782590363903413,0.07708239909336534,-0.3726268894180824,0.32254972111434965,0.06258736961020306,0.08818200229539296,0.3940097488726004,-0.2246206361496409,0.45905922830596335,-0.41599579904845096,-0.22734993804638576,0.22122714670040705,0.4562442861979638,0.1287136469787659,-0.40340076516643836,-0.3247392346824359,-2.303801284287883,-3.332959689195898,-3.654464152172075,-3.4342251576032234,-3.656241598427107,-3.226716928916334,-2.1914117470549446,-1.02588186479859,-0.4151103985168263,0.34449940161568177,0.3241653743197503,0.1550466152850997,0.12160387489047841,-0.43804912431209003,-0.2005982720977407,0.14990111089235164,-0.20671320162213508,-0.44849001168249547,0.4475423272610072,0.06698642980854205,0.4598448236959223,-0.24965859700319537,-0.2550413497110093,0.4409796245295521,0.02817686104373332,0.05775665577399944,-0.3391574223969358,0.10168190906996133,0.40340767701284597,0.034964501297331266,0.4673457508397798,-0.33017927955221593,-0.12289510014711662,-0.22781762453091878,-0.46863874490120505,0.11201863143317428,0.45901517392691576,-0.35982430389918846,-0.30882322065002243,-0.032352634747151894,-0.351592344516424,0.23057049830859902,0.255807338478569,-0.11936975777297625,0.4384545056432402,0.2761627274041809,0.15397921591561198,-0.00906818696108852,0.3028791860903663,0.20029326450096416,0.32804407838479027,-0.17980624937867998,-0.05417998481245458,0.2906104418557344,-0.037705574776112936,0.2848119151806391,-0.1193916253946394,-0.003997679829999645,0.1856584655392727,-0.3686241475389344,0.4540227012535501,-0.43316522916677913,-0.21583214228811615,0.1161791902184279,-0.08035133676663889,0.012620816926197265,0.36811231615327084,0.32526557052086924,0.03834034795732514,-0.2654032089529221,0.36550420327588157,-0.2890820544930884,-0.3496689374856598,0.00371757202690281,0.15737311596324313,0.05462995110299327,-0.3777186161628134,-0.3026922454282038,0.2814938713538121,0.4054167560251752,-0.17651887260510937,0.18001812827310995,0.05942322080974914,0.0858279598018581,-0.07146408327682553,0.01683606368404934,0.24717948804516648,0.15621911931305668,0.2291726186999961,-0.26231455839626866,0.3225456613133328,0.4307191242510561,-0.08471223730212639,-0.4653729438235751,-0.3481892483936117,0.14589885226993785,-0.09495904488681432,0.06383148143075282,0.2757852840477737,0.04540251259294654,0.11566034245045152,0.14534678178888874,-0.28086365489860826,0.46074663430153484],[-0.22931985528761242,0.15422065008289854,-0.2915166010940097,-0.3598779070547766,0.2855703411042387,-0.2232398246465353,0.38328097150122636,0.10335332625355276,0.06214643565252641,-0.4343740970477399,-0.050715483580105435,-0.31782550563432777,0.002762337488149175,0.41705526736761434,0.057356358651609776,-0.2593240329239429,0.3780923254958189,-0.23720153136653124,-0.3094864783192294,-0.28884507561060485,-0.30270204789226224,0.3183238446698503,0.10945433479260915,0.1256727500723234,-0.06344586660944675,-0.2924877723988448,-0.1586781950809869,-0.3766226160334052,-0.16872715988692763,-0.40759045632572644,-0.051829510619232445,-0.18190767849005765,-0.3210831900104341,-0.1753565707043237,-0.3694992550638404,0.019804828704425192,-0.016965027651558766,0.2028347868428366,0.2073071781567534,-0.1324960063519404,-0.45492076114443913,0.2177472096117915,-0.33263896994220693,-0.10067430671499059,-0.17132205161388323,-0.3559832974361122,0.4069036723256193,-0.39084570718290745,-0.3186564868629056,0.14409114274302082,0.35657609247337446,-0.28328786223698177,0.4510821829948143,-0.31351618574746704,-0.4447574140705182,0.2607360877802762,0.33005174561858697,0.2966073530788309,0.45038837420728095,0.012096383068550431,-0.10572199985482249,-0.44569622667565323,-0.15601951254951618,-0.0043438916937823865,0.1374936906646883,0.17772386702462992,-0.19092344805197267,0.30630094033595484,-0.081596233796951,0.13843340516020777,-0.42394853125678206,-0.4441132617988185,0.4541086583037935,0.1875360297146121,0.2280823752774849,0.3438585563743657,0.2980324239979537,-0.46279801318351943,-0.29650814662151403,-0.2950117604451881,-0.31149476745326515,0.23627932474622917,0.3276955498832878,0.3030580691934283,-0.00585978232364916,0.35263859383717566,0.1398346688584901,-0.39061291281548277,0.014322125546365305,0.22856403261349256,-0.2613051114649003,-0.3201482518318201,0.06749058073424838,0.00885445615646257,0.2492223974537531,-0.22650350782634193,-0.4335463556961988,0.4043330730459362,-0.4467644803103618,-0.4628552508591547,-0.35975180674489277,0.2061262442261483,0.10610114205382146,0.08810174348583114,-0.45134786164649743,-0.24099631364995927,-0.43935680986592174,-0.22898753575327827,0.18780858807971157,-0.41765267651309385,0.27313908961284994,-0.031760490540607075,-0.12189086626145657,-0.44724584967913183,-0.36977458121152246,0.30405123859722843,0.47347989505546834,-0.28081102486130993,0.10053590441185646,0.09172718599149833,-0.07619705737920512,0.15641622321096393,-0.3691871669337848,0.2971295652274598,-0.27798565081127136,0.15817710786354724,0.24797729522424466,-0.011467880473377642,0.28080198383444177,-1.9530933106723982,-4.606476827023891,-6.175521692949486,-9.487687947315116,-5.138581142412507,-7.238801969280484,-0.3282794915984089,0.23724629994734187,0.12885278654140256,-0.28342855336086786,0.004366901808802492,-0.2986155364931318,-0.34153506080398394,-0.07753280292464002,0.24756264618410634,0.2784890781367951,-0.1702090940404927,-0.023145865636296302,0.08579410890516453,-0.3830411381746222,-0.1659840883783087,-0.3009687378872783,0.3397619357421702,0.03139990915719984,0.0699388811621205,1.556644391561932,1.6540424128784812,-4.686660245332394,-8.369863150695448,-7.957216789949083,-8.406893140877123,-7.533777340574362,-4.832740673191929,-7.502569661592194,-4.104529073617903,-0.03557147852852192,0.13785741166841475,-0.32143504756959157,-0.2722676260908206,0.156409039546812,0.4238112378731665,0.0647968062233732,-0.3569808288607389,0.44719541069422303,0.17236455311666743,-0.11154256827605243,0.4511795894716565,-0.38363366255525166,-0.20387792801791468,-0.01837537515988228,-0.3634476403549389,0.21872420884438093,0.9395074747115155,1.3005270577835928,-3.9779314689204655,-7.563132466067806,-7.175855754307042,-7.042068509461106,-5.337223247388225,-2.3320609050775065,1.4099190633057517,-7.384562171296121,-7.9452455969234945,-0.24571621156939344,0.4219605416983518,0.40093285508392856,-0.20281211813277372,0.15908754320123383,0.15285525192170962,0.21704715408958242,-0.3145113252432483,-0.07277332923543489,-0.29453378796730423,0.2242189504262336,0.37691645916508804,0.02276030567257497,-0.3514610857646199,-0.2169055780259103,-0.07170043538106399,-1.1481990312817276,-1.978718090104711,-5.217855738869118,-7.350143792299731,-7.515102749549827,-8.1209360109904,-7.256806783626045,-4.669923901136611,0.723287900147985,-1.8378014440666743,-8.343676627374663,-8.549698297446024,-0.31432302922431454,0.26904500502285644,0.24884011763352926,0.260758473693965,0.2202206701817286,0.04384557213916471,-0.4042807558993803,-0.0993558868092866,-0.1444785265737436,0.45040266546622154,-0.46884324494160456,0.28369483542924057,-0.16286369495126735,0.2304622187892981,0.4111012143917412,-0.11730635451603581,-2.238850116102439,-7.825903936794468,-7.39802072193042,-7.932077823419475,-8.512888081166684,-7.913849413189239,-7.620726816959473,-5.876004300080645,0.2811448593747472,-1.5139321544857705,-8.500788230110176,-8.76661919765686,0.2654367516085744,-0.1462990905956385,-0.08718517483072401,0.13831654400404556,0.16912544716330466,0.35897707713968263,-0.21862591562612346,-0.03356314728224349,0.3143724187588044,-0.4320433538054802,-0.31513225417118534,0.202158772227277,-0.13551557902865977,0.34983883403085514,0.15129975194088752,-1.7190655012926195,-6.42243409406453,-7.316050111316784,-7.414907001444173,-7.568999289360856,-2.966095217868906,0.11637164868495008,-0.34069932927475943,-1.7685843241751091,-0.451058818246532,-4.216306837347804,-9.000522500516567,-9.381392190037744,0.26545924345024074,0.018711656677610523,-0.4579229678068086,0.3148117723592568,-0.2915593640330997,-0.34704250490196825,0.195005457641363,-0.43206242334918177,0.429633118842419,0.10215090052666394,-0.38246681682116074,-0.008158431984546868,-0.3309970363166267,0.21910327551978456,-4.821948935214045,-8.383955180307472,-7.6826465645320505,-6.938560884516175,-5.215757681178471,-0.39325272014300955,-0.1928101725820145,0.3764901835273333,0.2320252262578691,-0.3533131434604125,-0.009368129202499596,-8.213144022077689,-8.816094446678289,-8.479010551380284,0.19902498514885422,0.46026277161757334,-0.031127199390720832,0.11205771825445837,-0.3777677860160601,0.34569046498622585,0.14551235589442266,-0.16633172593881976,-0.10795821230208778,0.07933956697727947,0.4433594023875309,0.2735175055260859,0.1920858974703079,-4.875011710424826,-8.868572640906907,-8.210821302867405,-7.259543797763783,-4.456916939026766,0.11112123331256407,-0.2740682709147921,-0.3801303942538767,0.35680544569372824,-0.5638087745935867,-0.07272687178357523,-2.323960694129151,-8.651019671836506,-8.936679641875518,-5.184988442381449,0.24297988924263797,0.017465512036380675,-0.06791511075253694,0.4333942083299666,-0.20205921168234128,0.03429793073458436,0.016162618161875957,-0.317246175300596,0.013228845470272633,0.2905154462517983,0.4542760942207199,-0.20951859145113713,-4.975042523467528,-8.610723709291033,-7.527122504586344,-7.642851370518352,-1.8805617737413223,0.9297803469850505,0.752684571655525,0.4200334281584852,0.5061109099620466,0.17113148758654173,-0.601810550936434,-0.60120221098106,-6.702680644797287,-8.961274569326301,-8.164704385774627,0.13202919526782364,-0.21929008568951347,-0.05602830053807355,-0.0727112768134379,0.18467527637809164,0.40645388415207634,0.25742883364583524,-0.1559777405549718,0.3260406816847502,0.053904205348674475,-0.06786631222387808,-0.43801344209540277,-1.6095261301237256,-9.10662284793814,-8.262346608077834,-6.424760977241888,-0.6982791850142637,1.2664630123640326,1.026906781736629,1.5374453053725894,1.2780271674445933,1.2335822325485717,0.494310977662907,-0.3401374427856872,-4.3695944423992135,-8.801001872136789,-8.733333674088753,-3.721078876347214,0.3005207618604271,-0.19208105738089828,-0.10784412351288146,0.19963081442386382,0.3669764383958408,0.41363807505143846,0.10033810860280892,0.15272196570816765,0.4609607820553431,-0.26704031822673524,-0.0640228661603121,-1.7909654884727524,-8.177628357589091,-8.823418020908901,-8.428604930673524,-2.35215236005916,0.7912680630227528,0.32758485169925994,0.37646321728577337,1.7497677685030881,0.889316720375819,1.4052542698413302,1.3050538174571793,-3.0987725603180776,-8.22301390018716,-8.743227405604369,-4.677466830152844,-0.026921613599958774,0.0669725708631599,-0.31777993458801174,-0.40721667050187355,0.005428239341263602,-0.28882974749961,-0.37896841609973586,0.46257029203987376,0.32564149860590275,0.22936207606511674,0.2427749942933581,0.06064398059661261,-6.488938935309786,-9.194286636320404,-9.092998801977297,-4.503845059902234,0.19072843799287678,0.35117409144433176,-0.05901905158922624,0.11223760921493009,0.41471088695661845,1.489531752788288,0.4533223304374291,-2.960302195667736,-7.841581690473822,-8.433910076839673,-9.033969000351751,-0.8768796226805556,0.06247164716070986,-0.20198502493060688,-0.07912765110395584,-0.07544439839531222,0.14822194722318746,-0.4679123363669467,0.10307559344057646,-0.09875703289573395,0.15361325676731616,-0.18021685679221464,-0.19211887622676757,-0.34249440261223185,-8.531604608615542,-8.953818844033425,-8.30569504404043,-0.21714795701746797,0.11807590522574396,0.4669255935508264,0.44738775621933113,0.6043886226097013,0.30986451530252596,0.5187706066764772,-2.3142095944595713,-7.82696894196396,-8.040792228128828,-8.214229952865058,-4.32314030312734,-0.4532923270642901,-0.0203513560714396,-0.21806265261419097,-0.25180789471708465,-0.16278645012491672,-0.05483657792753742,-0.329635901520225,-0.32674728397081637,-0.038098807692168446,-0.3914185679593883,0.29071750606925484,0.1313120375246004,-2.0864082867972025,-8.21287894277346,-8.210506829517575,-7.779534078869236,0.27979916113775927,0.5231580744223544,-0.24949844727322262,-0.2296063466667341,-0.22974096547781447,-0.37474434858297156,-3.3452403902533603,-7.35141518941212,-7.470330880362548,-8.069546640486045,-4.00763086224137,0.050615379628036056,-0.23471912288712105,0.18121364302278536,-0.43373439412590886,-0.20909070237176744,-0.031023209525522934,0.2500723014098727,-0.2867386222010023,0.4718037417629962,0.06570012871904507,0.2822986765826197,0.4692943682486213,0.02546686351634155,-4.765678257125064,-7.9041078142333445,-7.725044705778165,-4.624968105185075,0.3452198000174753,-0.04455528778447952,-0.0387338822017871,-0.3588816107693744,-0.8554565612319509,-6.983161231555603,-8.071449316315078,-7.8337635814964415,-7.347818230580724,-4.468206790483472,-0.2824424206171532,-0.0044321468204485855,0.35851256980633284,-0.0026461171241668304,-0.43020305605382353,-0.1117918541255831,0.38401093663879327,-0.0497248725576645,0.44176366807531864,0.2233093513435058,0.3862733177028082,0.33710190960798914,0.19049538647544162,0.3221064033539268,-4.0684855071844295,-7.977640435067044,-7.8191513465023315,-5.44650654785749,-0.23402862884868342,-0.22501991168936175,-0.28424779631254793,-3.4270781660136165,-8.418677108777063,-8.40487679087479,-7.6287586325224295,-6.254798913303844,-2.7694108977012704,0.15428905300861112,0.2974778483879018,0.1341264630962017,0.2001657688276918,-0.3550231768760911,-0.32429290971468705,0.08109138708424171,0.34833811676677123,0.4154187590444434,-0.05993654290675085,0.21335061429901728,0.37205587581456023,0.2440797832748463,0.18553387725885515,0.24922371344909577,-2.2237973261331745,-7.330759067654702,-8.065891962567106,-7.606582378392001,-3.7290252417609,-4.703267753719115,-7.913504435978627,-8.612033982092907,-9.191276113381726,-7.618010613327318,-5.137142684868729,0.045404042809423145,0.20745883298499493,0.18526555105273615,-0.09382471078668847,-0.3793484306312136,-0.44828115787727973,0.27494241735578706,0.15669699934022005,0.22497368211658386,0.26314426981783395,-0.44215148604395504,-0.12481593962269874,-0.12029702550509382,0.35005651143275296,0.2325288728951875,0.05433983187729387,-0.09904389710565353,0.29642309399278743,-6.524696334322426,-7.645364684511972,-7.364543426332484,-8.205062734531694,-9.168562258474184,-8.718676332405211,-8.955898947437671,-8.375589900699609,-3.9059340236637206,1.3539047619424198,0.9802874321486127,-0.239412584258434,0.12011489198970055,0.4382357249015316,-0.29072092309395925,-0.17877728579127272,-0.37655081657416073,-0.1269131451418843,0.45724109218996,0.18278515610545165,0.31585014580557114,0.308929367619269,0.10507071748104276,0.3851096441331224,-0.4565082801522593,-0.033773562766451014,0.36044614438285877,0.4356626728227925,-4.62269908238167,-7.514467400880401,-7.9569723507798,-7.347851494125046,-7.688427089039786,-8.476781954849272,-8.063244469103655,-3.879884497223511,0.962149192995629,0.7479737494605305,-0.04109055823517177,0.003746741414481159,0.4512291922004269,-0.31360355025893333,0.016595312058226685,-0.08948720548000658,-0.4712978934037697,0.11454396396341696,-0.35112627577858674,0.010956267710646945,-0.15692348347743662,-0.008393425165806611,-0.31476559817941424,0.3144879892738992,-0.3306211481512403,0.4747559673347806,-0.13538838101542178,0.2232472826983712,-0.33756025684553626,-4.861930714875594,-7.919052512353121,-7.262028835294733,-7.558518775331156,-7.896703595229422,-1.6820364772396355,1.074683718899399,1.529074324397435,0.44022010663565014,-0.13727127669293449,0.2921494496959589,0.25326925039856457,0.4867656306445248,-0.07588815223980752,0.4454410665182331,-0.07323384864238522,0.42151160094204304,0.4592187058555212,0.24246551402840769,0.1298132821639262,0.4070366617080158,-0.2713389257142032,-0.36858131799682514,0.12119890538275911,0.407579733985699,0.2241503446551886,-0.3952846823285854,-0.3538956718530943,0.03435869821901455,0.049622935539956614,1.2928371306301178,1.1005896812744624,1.4324316589976371,1.6962697386370125,0.8496282787735253,0.280630821925035,-0.2267375164568542,0.20100818184558225,-0.15231995203779258,-0.2178039114843427,-0.18823509699045463,-0.4181022223555395,0.08689992881560357,-0.42283771915476953,-0.1794006015014507,-0.2516966156741176,-0.10016468163654826,0.34438479619137796,-0.45875232523727105,-0.2788818122317077,0.3525201627220847,-0.40524583287067906,-4.0576878375993E-4,-0.16821721673570522,0.39521892841710865,-0.10014873460850483,-0.20430499746671657,-0.06669254370251392,0.11387190797515542,0.17844416198471955,-0.5074977092824628,0.049413471302853285,-0.22755003950976124,-0.056321744373506816,-0.3828371158919623,-0.1326320942830766,0.2820403049398715,-0.14450444421583777,-0.36072479750170133,0.2609473008673232,0.2800622784272809,0.03453451308562797,0.03920180032185422,0.13169397693887366,-0.3964399712436477,-0.1340395960273782,0.08293973054543023,0.16163360346847322,-0.2265356147029222,-0.19269400441605783,-0.3718627283472124,-0.44327393047265834,0.1166394048607532,-0.046942480016918614,0.048623343573275996,-0.4039944170958743,-0.37272109946232496,-0.06508197162737195,0.33942304470827256,-0.4239315933233984,-0.26997428133749457,0.31247694682950555,-0.14575870403154606,0.18324949756069153,0.0335874175025876,-0.3127140437159556,0.12090273091811116,-0.331055996490713,-0.28427770161442906,-0.1311994736843332,-0.3715709432652794,0.08883266516352792,-0.23774334897981647,0.38329242651641193,0.23231603472332243,0.34426054275969287,0.04426846324019921,0.2966732600668007,-0.26785927739001386,0.38369566150209405,0.1587352634045702,-0.4308101920390786,0.3878854431229882,-0.015939855607013442,0.3787933476940766,-0.07583851470687986,0.10830800951769184,-0.06422170578053923,-0.18970764791165598,-0.05567364439426819,-0.28368074801975013,-0.3483729048861062,0.0815544604336566,-0.24205353148887074,-0.42735374131070847,-0.2920979183624979,-0.04684123640628045,0.2925943074072747,-0.0799330928796381,-0.19297379419676572,0.3241718543015805,0.407501670085127,0.09619313290404063],[-0.4264668124470049,0.0805319207900714,-0.43450159816353484,-0.3468373298950612,-0.2896540876177651,0.23026898522057482,0.27290228989289256,0.4676661631388209,0.4494489312687939,-0.4510945798309264,-0.09975645149979546,-0.2255066043920926,0.08041920574803756,0.116731072687272,-0.10158458931959269,0.06122484230836016,0.08183147697077495,0.31768392329028616,0.293739651660219,0.42082646566755927,0.31429586217763683,0.4372920186121848,-0.4184807426050648,0.4227233343739059,-0.440188057958403,-0.4554552805447527,0.4409222978154637,-0.4185661553084947,-0.13976045177077717,0.4696605909185097,0.36449988198326366,0.22503981401302997,-0.1320111530657056,-0.05349346669071592,0.28328763983856015,0.24364808106932678,0.27452299549415216,0.07489728965661623,-0.2267260452603853,0.2805682007724084,0.32694355871846587,-0.4258332083660851,0.051040068505619596,0.1661862405038824,-0.020204975507979568,-0.45474788633865815,-0.4444142760417785,0.38645825334989053,-0.39172305887780806,-0.16593195664407054,0.11975079864642589,0.32457778802345505,-0.36970754973312986,0.394174935709064,0.15822707270688588,0.41569019137664287,0.24819012507035176,-0.41834534497864784,0.23992623679834058,-0.08946771654117716,0.12667068436726733,-0.2702912037836634,-0.3295714000064666,0.2545694352089474,-0.22886674843815896,0.3447806951799728,-0.1646158910481796,0.15458273039614895,0.26072625687567264,-0.41002258001187386,-0.0019294510286943511,0.07472760986628477,0.22254506549610606,-0.47477024520808275,0.3538361374123444,-0.421159266410112,0.2577846697208995,-0.3430221181520804,0.47086178549821894,-0.18478420708188076,-0.2527925541328039,-0.03679200776132519,0.4405755780350631,-0.3758007446997559,-0.3279727632997672,-0.047611017537675486,0.17213545858953713,-0.16222419436851074,0.38723784295041874,-0.11272902690123478,-0.3563320249041787,-0.06618106556801588,0.1775300312448861,0.45660691845122986,0.1184095814691439,0.20587549179156195,0.011243205358140829,-0.2903545129003101,-0.003431284978634992,-0.13772239198670694,0.2849578416712859,0.02809836315722371,0.4523935585955414,0.07565091897040874,0.1736902222443868,-0.33559283986184596,-0.18860918582476,0.21691300383133602,-0.3459975634250616,0.10062323604417148,0.40836174413553045,-0.12605671791692255,0.19079630310064796,-0.42652510485887807,-0.09575398892092651,0.42661254266466164,-0.45010972784161896,-0.1719844233013962,0.46922458319676164,-0.3222894030011769,0.20762107465547386,-0.0871170332622561,-0.039816644085577155,0.0813334367512683,-0.18717755211734638,0.10194072336437968,-0.22361016679437704,-0.2064523923445781,0.3669251439909515,4.418044384937258,13.119598785916923,17.689153992441508,25.976652749350666,13.866286238739352,19.299304755954424,1.1823951709462677,-0.12104450773923464,0.024198254512902688,-0.37671617780378985,0.16186624325459037,-0.3180079392523498,0.14676788643348723,0.202138396612882,0.16494006141981085,-0.06910308635069003,-0.16919337853039973,0.27430374524282547,-0.07816222825500588,0.04088300641024115,-1.1706919328814867,-3.7472368138894927,-2.9351757189872303,-3.6408731034423125,-3.5505876351901957,-1.7844395469038077,-0.6879597032094367,14.068654895482718,25.328256321244886,25.766568242823023,26.26784800490571,25.6263808081501,19.123453340485263,26.337411085870848,14.859415267832649,-0.21753247078891513,-0.31324397147941896,-0.4740814278530155,0.1720324597016955,-0.28390609406229195,0.39337270657634676,0.29973382869786475,-0.45190148639066596,-0.02336124749556893,-0.10887202818156623,0.4246850930320522,-0.4968366015937005,-1.7966290124421673,-3.4594410451269884,-3.515690789149978,-3.1944685142522364,-3.0170886438371696,-2.732611397812707,-1.9666296210635004,12.130723330526793,23.235275303653076,25.002674317679567,26.293115756675192,20.91003498389306,11.750347178518286,1.7452896039017485,24.564784745417228,26.1579112575385,0.3272894128609388,-0.19750116297273668,0.09075323192608423,-0.392381367445562,0.21222121253820417,0.34659662124056345,-0.03356517468676632,-0.3199898020701172,0.09694745873847428,-0.4094454491143157,-0.037083060022244436,-0.7171188856363501,-3.8495264840583876,-3.6332804601206585,-3.077651034485744,-3.3419508939794076,0.3698867504354864,6.301514081590587,15.05303566812402,22.62424115703491,22.857426664454486,23.085796361479726,24.263363242479414,16.233510439341153,0.9320140138280529,7.122127564816557,25.200743414727388,25.498612596022994,0.5710884481044307,-0.3213334638830591,0.016712506975182367,0.36744910568444455,0.45146601716602225,-0.09428587710830758,-0.26311560120288746,-0.24670959362864292,0.15782304121357665,0.21114633463762583,0.11470524835687085,-1.4758000864225032,-3.3182801464012748,-3.703301625255656,-3.6044242161038946,-3.1926569260016757,4.096102050429192,23.08385893154382,22.610152471206444,21.986694380166202,20.952057866730193,18.925758879370708,19.58348614124341,13.87984109664129,-0.0481638102650121,5.028165889972403,24.94981826784884,25.83534686423214,0.037992014373917415,0.02051923703059429,0.17761481984637267,0.13341495407578016,0.3457016787780615,-0.06736927768346737,-0.2832156369060388,-0.2731319437027233,0.18704157641738675,0.20170564967505872,0.4618572746436971,-2.0120742283826885,-3.8378799220063264,-3.5109482171690245,-2.2139714480636026,3.1184688270297825,20.017496556332556,22.846878842664996,22.207763430594994,19.709715988582985,6.128555887854551,-3.2430684061540664,-2.902835114884086,2.381066827355289,-0.6387566729247518,11.593973535085675,25.148696263476506,25.734449378369163,0.08685228001691131,0.2613377825987407,-0.46629976143300184,-0.4354390628490511,0.07621793804693311,0.4365705339125304,0.4224097457867876,0.20378449168048388,-0.09509596780794723,0.34556411671654824,0.19122293121870304,-2.189852517720907,-3.8905784500190568,-2.493360498669721,10.54328360216471,23.04652950917057,22.245396879377484,21.59421448495674,14.642114973232891,-1.4395021434017081,-2.7680944957026608,-3.2300122732958796,-2.4162492975987804,-3.458096291518532,-3.36410724385907,19.75062689902704,22.596751683321532,22.948176451550687,-0.1409580321204259,-0.3112284496357938,0.1523948175281208,-0.19411977911255363,-0.07160095315832962,-0.337237637128546,-0.22433466183779466,-0.2712172900766252,-0.0035694427116403694,-0.36989805048953334,0.21047461865656714,-1.3578341264835236,-2.6982024657701484,10.117317024340391,23.128404494577314,22.89485342209823,21.38146227348268,12.867177069649516,-3.2153681390993762,-2.7212293633978706,-2.6442258300191432,-2.7169918665390296,-2.464440820051119,-3.465555076499471,3.9249247471304107,21.72843848175098,22.258020606398986,11.769257548422852,-0.4702048745743248,0.182976805182324,-0.14619040833014782,0.1149249581497404,-0.3441617106962678,-0.2202394679037771,0.4610518716929668,-0.42494500257749085,-0.35933070106646503,-0.12344781040129744,0.42327436954572956,0.22174500549804818,11.67397032271548,22.607819055627065,23.189742030259296,22.480076196848568,7.35818118415982,-2.3272909215444497,-2.3179322422649786,-2.624381465317526,-3.0635435154733384,-2.5672209970906454,-3.120522682977628,-1.18327140141376,15.688670211618534,22.432639339683398,19.836266727123867,-2.7547079681659943,-1.1399264487109844,-0.015193392721007327,0.2341190180812901,0.237221832707577,0.3597733362044986,0.3465117475808691,0.15574331533265393,-0.42791468396080934,-0.34253334557661536,0.35480452853330113,0.12839880165277584,5.167530515022497,24.909061213002378,22.44747835694605,19.843796559940092,3.083553046369651,-2.8271491789784458,-2.9235376691779993,-2.949863067417062,-2.773225310291191,-3.001385394617326,-3.1107215855634,-2.7204079144228466,9.637563574912534,21.648711509486642,22.42113505248254,7.52720961113485,-3.4941814828452196,-0.7453549874209793,-0.37058092966232936,-0.3220773357418844,0.07217517916757515,-0.1824708207240819,0.08456619432597112,-0.08087678250415584,-0.30809643843110096,-0.1779635656036626,0.13189806551874542,4.678258866671635,23.16006569550274,25.992801773656826,23.53011373032278,7.250449899047975,-2.340373078920145,-2.7343633249842823,-2.791109663945705,-3.2387933104163875,-2.392482203899557,-2.9194793765284266,-2.3850231073595305,6.904496724350129,21.276089856031923,22.1876155954583,10.481135822552352,-2.647205894606727,-2.7435770805198763,-0.48534602282114203,-0.04736484462076293,-0.3510343884914774,-0.3853543485134407,-0.46322934846613556,-0.41706912932453954,-0.426412918114197,-0.19073760362193862,0.33296763905484944,0.13600570325788144,16.83007374869116,25.570948368205997,25.807694660701447,12.47764372274707,-3.4573818501725455,-3.6410112654693667,-2.8433484885934233,-3.4500597858341058,-3.008194578537591,-2.461392170316108,-0.18511856849678354,8.59617511570573,21.220039169441588,22.27283208423959,23.037071361254625,0.32244716450363814,-0.3806901949239967,-0.14831982232923793,-0.13040052845525246,0.40760288588389704,0.047176582626326555,-0.016288603625124264,0.25079431442489314,0.27297487384994124,0.22418917015245216,-0.21774713608180324,0.3499261370569133,0.6513436930208488,25.2005992868005,25.93773029416259,24.01612494424916,0.5754064024479846,-3.4951644998390616,-3.606509463133397,-3.557284356747301,-3.590146856987219,-2.441298775100122,-2.31364827750036,8.591674853163147,22.666581224719017,22.13302101440094,20.678740108507796,12.802655014239184,0.43921995746505005,0.538058802075692,-0.0708944796213849,-0.34001573240043304,0.26736148159412326,-0.011120001372194632,0.10924907222784608,0.3038299244824928,-0.17147852772429142,-0.14920385016194193,0.06369385260135892,0.2932332160578517,4.4893493782275735,25.79428455674554,25.493520632300537,23.421151657623366,-2.8443565974262848,-3.6889060124893462,-3.0432754662621044,-3.3242524477612525,-2.7594907289259405,-1.0241688214121147,9.58005980991805,21.54394854035071,22.787362097413283,22.359258502042945,9.538719042234227,-0.23895059162334897,0.25358756265477417,-0.1983185493614581,0.29877617929997324,-0.37738417227008203,-0.1652514155403315,0.10624613223103896,-0.0610844053996734,0.15437403080513276,-0.3782015133819945,0.16280653994797867,-0.09973924885908705,0.31874405537443334,12.894803041867398,25.82856263125811,26.34621814360866,11.096070136976367,-3.5465164314184774,-3.1824777188585656,-3.5621055315817047,-3.724752747747314,-0.5189140260591171,16.751655844177577,22.487613476755023,23.05128388956051,22.800445078659568,10.103806343818254,-3.1677950157559325,-0.7119473401497122,-0.17808720562205482,-0.4433389529525612,-0.3717030485644698,-0.24085021485701735,0.1847556125615654,0.22156623370820125,0.002867534482320333,-0.2510562541975064,0.4492684357979848,0.08320376473953642,0.05576252112399714,0.1480020796526974,13.509029109001855,25.986983019392547,25.894866090466056,13.928108122016267,-3.7172493451481357,-3.0523513624033978,-3.435835408854345,6.063372938884556,20.06110751729463,22.18118319178662,22.283336590932254,19.813233721873193,9.042164913360391,-2.9446043781683606,-3.6145951556091305,-1.362989848181817,-0.2585227944322519,0.45301673873152976,0.38194065175853353,0.23713876220275765,-0.32408835690065063,0.13177231456060765,0.08112281053263362,0.3383165825564571,-0.4674783713732824,-0.424267822987654,0.007231852651587156,-0.35448963602806843,8.41292846267386,25.919064121835333,25.913437101560586,23.463830811056233,7.552690548833329,9.434532451545156,19.982451877406547,22.03708192416118,22.619810334849575,22.83854464241801,14.779604632272958,2.1825438541166,-3.451336905981039,-3.6697174014125284,-2.960849571785564,-1.2191213093069608,-0.3765900631206618,-0.150138967461905,0.2813930773021024,-0.0782174354587063,-0.36343776588834786,0.38876870195021745,0.00885123492516307,0.07331220799986535,-0.1516095043339205,0.3463195703715975,0.3075618065595837,-0.1078611961778154,0.8046805367159254,20.457327940636834,26.331051539587698,26.337935586765937,23.778791811113912,22.465461589976005,22.086355856824927,22.829771075784425,22.172446626136125,11.609659413467247,-2.388935717313961,-2.7641971148650937,-3.5978953893648815,-3.118486749079737,-3.001745344906989,-1.6769196220041478,-0.16697364347299437,0.04870993461687862,-0.07362252366088774,0.33741882141297486,0.4090103942630431,-0.4683992435536924,-0.02192735499425772,0.3274746306411793,0.24923007676371592,0.2375157153484015,0.43630282484843674,-0.3938236543432979,-0.3695390297784862,13.555449026126862,26.375326547116277,26.28137048739624,25.784294121768784,22.875359624857275,22.57262149846691,22.4521685561335,12.178322862812708,-2.267994512373769,-2.956881045177698,-2.886061883427932,-3.033459611324725,-3.1621369825272287,-2.9027982743948444,-1.0634199404602291,-0.3870052576281532,0.2536942211513513,0.0296344716073463,-0.31429772578568144,-0.33060212827618024,-0.08274176396226968,0.30024822456297834,0.29962919190836756,-0.20109046645514048,-0.2073239743692652,-0.17907223332915229,0.11133982210171538,-0.15761533806241004,0.9802322788697192,14.437783101262479,26.01848099144599,26.109646160625353,25.52504238039422,23.409138193415092,5.810602002716315,-2.325660063254815,-3.0298095649712153,-3.4704116914471568,-2.888475184500779,-2.83870653398063,-3.168747969611234,-1.2571221385508373,-0.02985044047587675,0.46508527504236125,0.4319219421958628,-0.34513653349369555,-0.2438382779160852,-0.21606951224535795,-0.39200585757903506,0.08306826794357698,0.20021570871568878,-0.02752858678888593,0.29489052119371517,0.20437801598078695,-0.4558331252731301,0.41654357860457003,0.17969347138668626,-0.2339052198565553,-0.07906714521737929,0.5485345859096243,0.43179619011361686,0.6221975625392271,0.286812076138646,-2.1784134674314135,-2.051178104169205,-3.418210924853668,-3.9086044880365582,-2.369353058144448,-0.9084259867057797,-0.31747376675532774,0.32676148258113524,0.3301264996603771,-0.05572435015918428,-0.13682504507020374,-0.18112373767655293,0.36258787737089593,0.4544369503079341,0.14637088455583605,-0.4284603435777634,-0.4023597313724061,-0.11575759554146615,-0.3389775075985902,-0.018352740524310303,-0.029629350258647612,0.02021032134198213,0.418733029931906,-0.4050100336719327,-0.1632331053560628,-0.1614631191681441,0.1075324717997923,0.24052465998985098,0.21602409085042173,-0.3982225334940963,0.22171177731267336,0.41411195411240254,-0.13420712940591675,0.11334461227037407,-0.4402891645530701,0.033359905567234324,0.3217236187650954,-0.3985506604671373,0.4233596748708699,0.18837715469498983,-0.32019259702126823,0.21548274517758434,0.2065694233329153,0.033636310087347195,0.25439907816726537,-0.22412300314247907,0.32229206432143115,-0.3963120446400579,-0.34867049633373587,-0.4259414268803385,0.1311536412921571,0.19855616718798297,0.10008974536096366,0.021720429290062904,-0.4452090346673018,-0.09580265352627505,0.27974836988848306,0.39847755955629477,-0.16885258902081596,0.2340743015959666,0.1170243000586609,-0.15600774050284147,-0.4187605946300021,-0.11023725160111573,0.3557871572587284,-0.24513602801773496,0.12384806972729251,-0.20743978141071542,0.3477948707949017,-0.3720245482437352,-0.05377794378334304,0.2843074001568438,0.19470172636441158,-0.00942917807113956,-0.23480492198404107,0.13405977902355398,-0.06871644312196362,0.42311262681734696,-0.0558716324531016,0.3678628697126535,-0.2705749589655616,-0.0360764127352053,0.3167812878811163,-0.3883132518403434,0.2717023486100294,0.13476620619698532,0.40959372612725453,-0.4474340904528891,-0.45763193020574594,0.24384607229076236,-0.20106675600470242,-0.4198315724233517,0.3122079290031754,0.4072473255634756,-0.36038504865217824,-0.27961664812788556,-0.14791151560053448,-0.3684829380610377,-0.34455416811678613],[-0.4359318609294457,-0.05194827457055824,-0.23098787425259645,-0.4583240258276916,-0.3721617823916871,0.30853750441911276,-0.45629409384787517,0.393057723765617,-0.2902916336257801,0.3017265174799779,0.14842383526575467,0.3397193802616164,0.47051076887116333,-0.11190357050864991,-0.21506433048078077,0.44625336825816003,0.2823178827649023,0.2700705994171,-0.04402095236945388,0.4073001952137723,0.13758753044538302,0.21711358335934222,-0.12687771340140466,-0.24452275462120793,-0.3925736622736501,0.39078997536425897,0.36639682674964036,-0.01524251349582525,0.47423224356960764,-0.2598478150073421,0.3708379404006912,0.28434689044192124,-0.306970291409379,-0.3366398410615247,0.3714687534906114,0.17473978493224304,-0.1429482861912238,-0.36333900368783406,-0.13815244962168843,-0.26105013671709043,-0.4434500158443857,-0.303232149792745,0.11206852548117043,0.24792050179281547,-0.32456968892743854,-0.12272233981066702,-0.3999337877401249,-0.3101886566575769,0.2181127339353692,0.39405405459641835,-0.06478034502183291,0.32823898359775233,0.3490062888208607,0.14847650037936067,-0.40441341775559186,0.13461778894211035,-0.04083420444387156,0.12111906526993724,-0.04038049825806161,-0.335496739760784,-0.2009362557828708,-0.28822884286758704,-0.41007577515502647,0.2772827538028501,-0.46703744299606864,0.24475064003251257,0.4205181928260754,-0.06730953891149326,-0.07088681899292285,0.0011833276007109372,-0.3898702883641849,-0.11355919832129471,0.20093334228074058,-0.08766402877272238,0.4523508431706678,0.4507808062828427,0.30743447564935716,-0.2498115692970064,-0.22108444610762806,-0.3660444232324359,-0.4435317006836945,0.43321875844520014,-0.1449785905105029,-0.02453891600849938,0.28185551283197946,0.22684904795907937,0.2454467068330816,0.001527765508110912,-0.16486484994632017,-0.09083812365220026,0.07723693816376698,0.03753355630396131,-0.3554599002063093,0.39334730678055585,0.43894296202782646,-0.46901115537107835,-0.052144508244286285,-0.15112300303388695,-0.06221422721916649,0.2603585225687744,-0.40274631080517487,0.0206896878336907,-0.07937880889424896,0.08135688532007855,-0.2889428801035711,0.13908186404101772,-0.10681054238685711,0.09322073787221752,0.34351274037865753,-0.23964429012442587,-0.3400311139280412,0.3933104048717813,0.3353650377422415,-0.16795382468109113,0.39753374985804135,-0.22120728801800374,0.2869949113698915,0.06992040497271479,-0.4465314187162598,0.3489547139482798,-0.2782619697147316,-0.40291282618322094,0.08803204659571671,-0.2280449364829331,-0.1862160584271101,-0.5015470791359615,0.43213961939665735,-0.3971550302002537,0.3310255111514781,-0.07325249707624579,-0.4449463053888449,-0.1823013209720617,-0.08025798137197365,-0.6389462592615734,-0.28456069228264175,0.13325769688108144,0.295972071045956,-0.32028697467036876,0.33918605868306423,-0.10979023304659893,0.04149320574595976,-0.4538647504200699,-0.19964789216089304,-0.19001053496328704,-0.14828351490440383,-0.008357817630030812,0.19896553918571266,-0.2136120616037621,0.05939234893134976,-0.35076006407131644,0.1709854538702017,-0.44343688235244694,-0.8698763032197359,0.28205717362261584,-1.0867938772024108,-1.2973078238188922,-0.5670604716314096,-0.5245031394418662,-0.3945563942901159,-0.7026692674370631,-1.4482597038037814,-1.5978567664359038,-1.572723003308039,-1.2637049750625662,-0.3888376208529781,0.37438596300211224,0.3827729916314325,0.3356479103181482,-0.05799952576398796,-0.04617248656717242,0.3081935884472874,-0.12855570938265315,0.2562045953430406,0.402733057550223,-0.286912274237572,-0.4590497225323274,0.4194528958582813,0.179580864542281,-0.4406612169001095,-0.8045155712135591,-0.41824991605454914,-0.3549010224734641,-1.1054920408219155,-1.5796755012463715,-1.2724283112501464,-1.1516124957986762,-1.142505002887384,-0.8045165970770285,-1.507876989730315,-0.4435483506498405,-1.4304073081210067,-1.6982274129236647,-0.0024631209749752525,0.0576307518470043,-0.3258473366524348,-0.03509589164580137,0.08713561482519039,-0.43954618101977916,0.004774946750745063,0.47042321359148287,0.43676594466866486,0.09024788711743961,0.0013846744863398486,0.2198053431760694,0.06377331333150375,0.21236163000110556,-0.7009496363614134,-0.6598497434792461,-0.024836765362695246,-0.6708591577759501,-1.066759907210924,-1.259115478177508,-1.1285674350057058,-1.679385350667413,-1.4972769282663532,-1.119383700817118,-1.283559948452906,-0.9698421478969128,-1.051525889981746,-0.9934255251803724,-0.2618764511928338,0.2917812382147296,-0.01855879870693119,0.25281494780756353,0.07087190833256157,0.1683422522812209,0.29651736201138784,0.30668483070757013,-0.3260732533127738,0.4606584316564775,0.01853331577448967,0.28163981713697905,0.4512753041578266,0.3774899890701039,-0.615103216008089,-0.18202146467344116,-0.47887630287167815,-1.3638260407945073,-1.5737507946898877,-0.5752745046217889,-0.31848588647995624,-0.641596232365535,-0.4385442518813326,-0.39383781538087836,-0.45209929410356564,0.2066779901692732,0.1041003931226161,-0.2779606214961571,-0.029467776845769997,0.2787630888661502,-0.4413807992431541,-0.09315836276202466,0.2522526675072036,0.2344920327069144,0.06046773544230894,0.25460764176045947,-0.291140138675591,-0.21009466310157887,-0.24612597528869226,0.12708167574270243,-0.0269818715968948,-0.21531225943598906,-0.2582954300338456,-1.0070562080472407,-1.3483846704261024,-1.1799904804738612,-1.3527492080361714,-0.8911652414432166,0.2576910127386396,-0.06340563508138672,0.23576365336832694,-0.7522341413058677,0.016634783033400324,-0.22034617892366043,-0.5223421035096921,0.05960276543249582,0.2701207485993781,0.366629458556867,-0.29762689690080635,0.07151105268337248,-0.012451552431452507,0.14158271464055114,0.280475344417445,0.04610003777825795,-0.0047258044690492605,-0.019435719533949854,0.17621492716583914,0.17780325184596008,-0.21115232141067572,-0.39594976997120196,-1.1751470798231693,-1.7586814429470432,-1.733083292423764,-1.5981453746268484,-1.035898041971431,-0.12363771970507448,-0.37648015946858204,-0.08915513862846944,-0.336700190790289,-0.4358219687193029,-0.04630261004712849,-0.7070651680468212,-0.5237190938513767,-0.4725032584426505,0.033483670031757375,0.3938973146410898,0.27624800375265823,0.41730927734700013,0.12854389309985326,0.4539568730719579,0.13819676888686236,0.22019393354192138,0.013422052169989967,0.11324347776380708,-0.295278827981353,-0.34331415783494396,-0.41928588784164156,-0.8421548584254098,-1.1622332353384834,-1.974174270733795,-1.2264132949120352,-1.4271113574105299,-0.2527060275250201,-0.24472456510974375,0.29997615883558054,-0.2644834571797204,-0.6698480047261357,-0.3771656387721946,-0.059893513987519326,-0.6359319361770477,-0.4312256157161789,-0.5364825044065444,0.20381995999084032,0.4594294757222433,0.1498364505531102,-0.04907493213430601,0.4181991837519347,-0.022372761072203484,-0.02122737963097917,-0.42627075136526976,0.04099510722932576,-0.3435713000540553,-0.306834852234126,-0.027228929440397093,-0.16941240471519206,-0.6104790275003487,-2.07984126749321,-1.8976611106348582,-1.1401215463831897,-0.9216176584170722,-1.0327316741627557,-0.6225617651527537,-0.042070033882827734,0.14530738882906696,-0.7562532039820847,-0.7269317019173558,-0.21736271342321256,0.03306635041004924,-0.12241644277548663,-0.4236970355634855,0.1526039096149414,-0.3294748533972185,0.40712494972293245,-0.06962863513498499,0.4361722551943539,-0.20141682692640434,0.19460455305179525,0.39885451178993653,0.08910781714594218,0.3339050703180328,-0.3944156892945691,0.224743601041981,-0.4529272284210179,-1.5853151582561331,-1.6890017594437896,-1.729586015915273,-0.9397289246757359,-1.0952350128407098,-1.1713780626381762,-0.43701362142183414,-0.5511076151120118,-0.9326592340771088,-0.7688855844002165,-0.22736346626749382,-0.6977948298612388,-0.20184683985995494,-0.48250170383111035,-0.24400836671720577,-0.4694568189055313,0.28037263634631565,-0.4451717262235627,-0.002043915260349349,-0.13676023817148641,0.03670906285518681,0.46455688030389625,-0.47280017904304245,-0.22969323915375767,-0.008391465117825542,0.007667703396096431,-0.7626771337384004,-1.0838936020579966,-1.5305320698889457,-1.7170180713380203,-0.901688573938215,-1.1205835386538148,-0.48461308454279106,-0.49843139446048357,-1.3711962562076658,-1.1179987384801002,-1.3154362595788827,-1.1103935986923434,-0.3329594393334553,-0.4301985119867809,-0.043850861936000074,0.20086261639373756,0.013571297851169069,-0.37427237203443786,-0.32838984801543203,0.2585637117715026,-0.3436699553763762,0.39552068128938567,-0.4265237430334776,0.15011636390787533,-0.13247799025812784,-0.33040245460463236,0.10328339031039753,-0.10965669148295568,-0.32959202039166124,-0.8023647493947691,-1.3236345792799329,-0.8423726226094599,-0.7428424961977863,-0.9554380604000794,-0.2779702609429628,-1.022917328674545,-1.700493639574058,-1.1847555870681041,-1.9648307528728548,-0.8670515387782316,-0.27141367021560836,-0.8712321789618523,-0.44577095193959726,-0.1523112022196822,0.3723151630123074,0.2241299114672903,0.09171489579247738,0.4520508102461168,-0.04209276294965051,-0.35341619441788547,0.44023294403149715,-0.16543495725467114,-0.4266227279817402,0.18884610508294997,0.12623586707039108,-0.25045777171847416,-1.0357946079297242,-0.5464579625784873,-1.0342938372851345,-0.2565111259765417,-0.14677746510532427,-0.13839433766222536,-0.025354719267577097,-0.5573665714477479,-1.2266006136036802,-1.4782034598021105,-2.319156331231773,-1.0811577733244921,-1.2555406502616753,-0.7467107233401948,-0.24030438874786048,-0.663839028507561,0.27231423824075507,-0.35599532785446286,-0.297271425214666,0.4021692727671787,-0.14416566197066452,-0.47198935131443154,-0.25960970546586365,0.29605534173365655,-0.3400549604644943,0.12958875616050933,-0.4392148855373481,-0.5534090767430858,-0.959120120372516,-1.4062914993291953,-0.29700151987264667,-0.4055502335718826,-0.06680936485102487,-0.3042047480811923,0.4599253227890978,0.4048940362964314,-0.8665774850664011,-2.3672166738328717,-2.2976382931835833,-1.39897474525284,-0.8875501738955092,-0.9050364334545505,-0.3287132912641633,0.016008140241149566,-0.34750258873223067,0.19933524137621886,0.12242619581472836,0.1206660541195608,-0.02462071306562912,-0.35321172920277927,-0.1269091423404536,0.030622649984852666,0.4045081817465919,0.2192757570632955,-0.4045764287688534,-1.4425645457015321,-0.97450449193663,-0.36690359700903874,-0.16840250465194828,0.4921438854503547,-0.41398375734869713,-0.41286143174122103,0.25482212220080397,-0.10985289698517076,-1.4759696974945766,-1.4874405623295757,-1.5264482734268778,-0.28494616634411124,0.12680545975135762,0.3424073456330617,0.4158333441752567,0.4346765289363541,-0.08899445406696083,-0.3893462210396461,-0.2935525145801247,0.24157458090871883,-0.04188533918465081,0.20102149559957658,0.02804435508474002,0.0866299338798172,0.11328713060136916,0.22127591380136363,-0.14317413283882696,-1.2692033405504262,-1.5059913250936552,-0.1305109119647654,-0.058883858393245975,0.3330966842598135,-0.32547373527004,0.17945722269302808,-0.5466904966407125,-1.0518233486454684,-1.3636224645665838,-1.457995443722156,-1.537340637828516,-0.2686101372217482,0.012139325787404702,-0.10996262536545393,0.20900074270586694,0.27623800329048426,-0.21865806114929404,-0.3525356232335664,-0.3988647345290248,0.23199302397360008,-0.04240979036081026,0.1438817151150835,0.18112858216997396,0.28791038288457127,-0.38166788554330855,0.1495847924178415,-0.5148756481738874,-0.8825992787698915,-0.8183240931988027,-0.9063329365931654,-0.21387121827492223,0.026146069761261825,-0.5907333170540638,0.09829338195134707,-0.6934307148230405,-0.892691950207325,-1.126935212278685,-2.0412547834951695,-0.09345908091749044,0.03475415206265761,-0.35904636573230786,-0.4406710017623466,-0.3821306074085112,0.14988724416712476,0.31008750084760694,-0.4142824911788312,0.23486138788460337,-0.12723550205276327,0.17431923251471867,-0.13054996402320546,0.43807730136637907,0.35895785659960755,-0.3180042052447825,0.4351070344796452,0.17862632275748028,-0.7441965997452361,-1.7172600037941208,-1.0221896299901063,-0.7565361029772121,-0.24363668948438907,-0.43310617593650663,-0.6608678125179288,-1.111581223582965,-1.0214998607407353,-1.2225287897795825,-1.4993034903968065,-0.12075739540888974,-0.08517964308057882,0.46560948584513384,0.3432223059118088,-0.22092849795114022,-0.461039958577282,0.36502167331481944,0.3971426923543304,0.36147120136222055,0.13481196557074945,0.05984755326510133,-0.196835267836668,-0.25088553660541907,0.42191159113062715,0.03313921349126796,-0.338376604473945,-0.01997185024578891,-0.48815740689689846,-1.475674277496645,-1.4034606016409472,-1.493547627758605,-1.3508139278406452,-0.44543849368481486,-1.4251415406181278,-1.012263501521279,-1.283493841502329,-1.0903890805301084,-0.873627533194609,-0.5520112539393648,0.321324344585997,-0.3070540684459001,0.398710794165663,0.20174035908198326,0.12336474403027278,-0.4130861876071831,-0.129760563737293,-0.17686081270666543,0.18640110980998847,-0.3555710211923081,0.2039489416882927,0.40074343156360437,0.011790650997887675,-0.3613321143872418,0.30610596402941076,-0.14520599730609707,0.414722129541488,-0.7293138834762374,-1.5886397910140537,-1.6075561671116598,-1.3821969990038618,-1.2149050096252285,-1.1333494408456501,-0.8871333269468898,-0.41998141232508396,0.2710548644020939,-0.041475926828450915,-0.2535504292829898,0.3117625649496095,-0.06355637234345984,0.11869788462298136,0.40728359885321963,0.3629742073629878,0.10113045728813728,0.04021700123921925,0.2614033708412735,0.19643924265392285,0.3004000561250856,0.004771305614480359,-0.26793779649043203,0.35345478127686053,-0.17374997254427657,-0.42008986911949225,0.28916028141999867,-0.4713658352382484,0.38519022124747593,-0.577333291764521,-1.1076953861724481,-0.8726750323571545,-1.207246013068746,-1.2219166011427887,-0.5431096102574032,0.33985505965063534,-0.01052163281472495,0.3798538509153957,0.1454998806299975,0.35080179879080514,-0.27805861240373686,-0.20119701270578594,0.004566120363729198,0.4569885688969542,-0.009103238327159768,-0.32202433366428496,-0.1755673685648437,0.19906435965968242,-0.3062724827210532,-0.26661646570651487,-0.12804981347786762,0.26110277012923266,0.31913800388803637,-0.175450393554436,0.2315467350908744,-0.06383030475895694,0.18150735440020535,0.06414881457540689,0.014890445589698958,-0.4540457810464731,-0.18339382794065884,0.2382465604347244,-0.08642472632502365,-0.3748734652073018,-0.14604491627793392,0.3838270949227655,0.1968025914301126,0.09414603261362423,-0.05786624459424776,0.18773499387855563,0.13049418866263246,-0.002450116853330603,-0.44744284975211923,-0.04366177243651541,-0.10431854566040903,0.055237337646609805,0.3993951211058943,0.3152806209534363,-0.04974101341389143,-0.3912345810163097,-0.32810578479346175,-0.3817487204309909,0.28897507671454375,-0.28485872074752133,0.09414088199260778,0.09390414910135214,-0.11289793249994248,-0.14408154734035544,0.26983948772511285,0.0074000619787249035,0.2634435764947973,0.17999782375883897,-0.2503658424370572,-0.29866538657529706,-0.14424988315722764,0.3143048412724893,0.2895094385350586,0.011429325781513,-0.008786381956115896,0.30947468074413687,-0.24550228974586658,-0.12483250009263946,0.40399812213106584,0.3378223491772666,0.11230273572284977,-0.4334543871505647,0.200739653413402,0.37820953418549536,0.45651660458316967,0.19728901790180578,0.203609110152606,0.30694107310076113,-0.4511366973005964,-0.2257538977231715,-0.24111746576665644,0.2655330800981094,-0.025654222103581953,0.29422767582794046,0.13699964194107478,-0.0549088701367057,-0.2376963289323909,0.19129856961945926,0.11781673503396467,0.16312104920904683,0.04020802476322744,0.1274562298013776,-0.14782856249110934,-0.08813388031156183,-0.1944757899500217,0.03574627371647317,-0.23202302065151215,-0.3222762635061974,0.22416859423553692],[-0.4148322420590072,0.4458506100273024,-0.18105914669174733,-0.4080354603612766,-0.16078892030281747,0.07575514842157922,-0.006378437057019815,0.07807227714415468,-0.2754508221946542,-0.37770480005908413,0.30210179214236843,0.4566227586766355,0.3132681303137645,0.42215868147793506,-0.25304508465656,0.47472886414140386,-0.2989244862094963,0.11273195785259331,-0.07971145888056674,0.4016786322358845,0.18516572102644102,-0.25385899944860707,0.201576966392577,0.4054329436754765,-0.19115139292438876,0.1278833285536969,-0.25995509287829155,0.3585565464544049,-0.25433641518856115,-0.01618473915642919,0.40357754397877543,-0.013595930754727708,0.39350349709016924,0.40354560626976826,0.2012778980115936,0.035764269026210556,-0.010736694179235545,-0.4677378209679498,0.27912694305409824,-0.237766897674122,-0.06329393908140486,-0.0633208785180548,-0.2022767610766731,0.1593433588955658,-0.18539603830667956,0.25414286536037256,0.42778767107369153,-0.06807937416951466,-0.35123483914981835,0.24697162050160276,-0.3569843253921321,-0.34973274372669955,-0.3097032226511392,-0.47317221293340284,-0.04905704327450422,-0.4394063195838492,0.29338300681690155,0.23633529470957762,0.18076257081174602,0.2706228328227332,-0.4710281453259467,-0.12274757199793797,-0.4075099799972026,-0.12251371326194972,0.006066891912508099,0.05629908071081517,0.28451926042916914,0.1579116950214002,-0.35018911874097514,-0.3687889661149985,-0.3435528613932933,-0.15172985955738938,0.20522584494018917,0.33075645474009785,-0.26893541629428663,-0.29569343952730054,-0.30266122357711644,0.4432991000553348,0.45362228931149845,-0.0026788800445379734,0.3324758890360947,0.41903025055502285,-0.38212500962568063,-0.224800638845721,0.12174794411089125,